FANN_FLO_2.1
num_layers=3
learning_rate=0.700000
connection_rate=1.000000
network_type=0
learning_momentum=0.000000
training_algorithm=2
train_error_function=1
train_stop_function=0
cascade_output_change_fraction=0.010000
quickprop_decay=-0.000100
quickprop_mu=1.750000
rprop_increase_factor=1.200000
rprop_decrease_factor=0.500000
rprop_delta_min=0.000000
rprop_delta_max=50.000000
rprop_delta_zero=0.100000
cascade_output_stagnation_epochs=12
cascade_candidate_change_fraction=0.010000
cascade_candidate_stagnation_epochs=12
cascade_max_out_epochs=150
cascade_min_out_epochs=50
cascade_max_cand_epochs=150
cascade_min_cand_epochs=50
cascade_num_candidate_groups=2
bit_fail_limit=3.49999994039535522461e-01
cascade_candidate_limit=1.00000000000000000000e+03
cascade_weight_multiplier=4.00000005960464477539e-01
cascade_activation_functions_count=10
cascade_activation_functions=3 5 7 8 10 11 14 15 16 17 
cascade_activation_steepnesses_count=4
cascade_activation_steepnesses=2.50000000000000000000e-01 5.00000000000000000000e-01 7.50000000000000000000e-01 1.00000000000000000000e+00 
layer_sizes=126 33 3 
scale_included=0
neurons (num_inputs, activation_function, activation_steepness)=(0, 0, 0.00000000000000000000e+00) (0, 0, 0.00000000000000000000e+00) (0, 0, 0.00000000000000000000e+00) (0, 0, 0.00000000000000000000e+00) (0, 0, 0.00000000000000000000e+00) (0, 0, 0.00000000000000000000e+00) (0, 0, 0.00000000000000000000e+00) (0, 0, 0.00000000000000000000e+00) (0, 0, 0.00000000000000000000e+00) (0, 0, 0.00000000000000000000e+00) (0, 0, 0.00000000000000000000e+00) (0, 0, 0.00000000000000000000e+00) (0, 0, 0.00000000000000000000e+00) (0, 0, 0.00000000000000000000e+00) (0, 0, 0.00000000000000000000e+00) (0, 0, 0.00000000000000000000e+00) (0, 0, 0.00000000000000000000e+00) (0, 0, 0.00000000000000000000e+00) (0, 0, 0.00000000000000000000e+00) (0, 0, 0.00000000000000000000e+00) (0, 0, 0.00000000000000000000e+00) (0, 0, 0.00000000000000000000e+00) (0, 0, 0.00000000000000000000e+00) (0, 0, 0.00000000000000000000e+00) (0, 0, 0.00000000000000000000e+00) (0, 0, 0.00000000000000000000e+00) (0, 0, 0.00000000000000000000e+00) (0, 0, 0.00000000000000000000e+00) (0, 0, 0.00000000000000000000e+00) (0, 0, 0.00000000000000000000e+00) (0, 0, 0.00000000000000000000e+00) (0, 0, 0.00000000000000000000e+00) (0, 0, 0.00000000000000000000e+00) (0, 0, 0.00000000000000000000e+00) (0, 0, 0.00000000000000000000e+00) (0, 0, 0.00000000000000000000e+00) (0, 0, 0.00000000000000000000e+00) (0, 0, 0.00000000000000000000e+00) (0, 0, 0.00000000000000000000e+00) (0, 0, 0.00000000000000000000e+00) (0, 0, 0.00000000000000000000e+00) (0, 0, 0.00000000000000000000e+00) (0, 0, 0.00000000000000000000e+00) (0, 0, 0.00000000000000000000e+00) (0, 0, 0.00000000000000000000e+00) (0, 0, 0.00000000000000000000e+00) (0, 0, 0.00000000000000000000e+00) (0, 0, 0.00000000000000000000e+00) (0, 0, 0.00000000000000000000e+00) (0, 0, 0.00000000000000000000e+00) (0, 0, 0.00000000000000000000e+00) (0, 0, 0.00000000000000000000e+00) (0, 0, 0.00000000000000000000e+00) (0, 0, 0.00000000000000000000e+00) (0, 0, 0.00000000000000000000e+00) (0, 0, 0.00000000000000000000e+00) (0, 0, 0.00000000000000000000e+00) (0, 0, 0.00000000000000000000e+00) (0, 0, 0.00000000000000000000e+00) (0, 0, 0.00000000000000000000e+00) (0, 0, 0.00000000000000000000e+00) (0, 0, 0.00000000000000000000e+00) (0, 0, 0.00000000000000000000e+00) (0, 0, 0.00000000000000000000e+00) (0, 0, 0.00000000000000000000e+00) (0, 0, 0.00000000000000000000e+00) (0, 0, 0.00000000000000000000e+00) (0, 0, 0.00000000000000000000e+00) (0, 0, 0.00000000000000000000e+00) (0, 0, 0.00000000000000000000e+00) (0, 0, 0.00000000000000000000e+00) (0, 0, 0.00000000000000000000e+00) (0, 0, 0.00000000000000000000e+00) (0, 0, 0.00000000000000000000e+00) (0, 0, 0.00000000000000000000e+00) (0, 0, 0.00000000000000000000e+00) (0, 0, 0.00000000000000000000e+00) (0, 0, 0.00000000000000000000e+00) (0, 0, 0.00000000000000000000e+00) (0, 0, 0.00000000000000000000e+00) (0, 0, 0.00000000000000000000e+00) (0, 0, 0.00000000000000000000e+00) (0, 0, 0.00000000000000000000e+00) (0, 0, 0.00000000000000000000e+00) (0, 0, 0.00000000000000000000e+00) (0, 0, 0.00000000000000000000e+00) (0, 0, 0.00000000000000000000e+00) (0, 0, 0.00000000000000000000e+00) (0, 0, 0.00000000000000000000e+00) (0, 0, 0.00000000000000000000e+00) (0, 0, 0.00000000000000000000e+00) (0, 0, 0.00000000000000000000e+00) (0, 0, 0.00000000000000000000e+00) (0, 0, 0.00000000000000000000e+00) (0, 0, 0.00000000000000000000e+00) (0, 0, 0.00000000000000000000e+00) (0, 0, 0.00000000000000000000e+00) (0, 0, 0.00000000000000000000e+00) (0, 0, 0.00000000000000000000e+00) (0, 0, 0.00000000000000000000e+00) (0, 0, 0.00000000000000000000e+00) (0, 0, 0.00000000000000000000e+00) (0, 0, 0.00000000000000000000e+00) (0, 0, 0.00000000000000000000e+00) (0, 0, 0.00000000000000000000e+00) (0, 0, 0.00000000000000000000e+00) (0, 0, 0.00000000000000000000e+00) (0, 0, 0.00000000000000000000e+00) (0, 0, 0.00000000000000000000e+00) (0, 0, 0.00000000000000000000e+00) (0, 0, 0.00000000000000000000e+00) (0, 0, 0.00000000000000000000e+00) (0, 0, 0.00000000000000000000e+00) (0, 0, 0.00000000000000000000e+00) (0, 0, 0.00000000000000000000e+00) (0, 0, 0.00000000000000000000e+00) (0, 0, 0.00000000000000000000e+00) (0, 0, 0.00000000000000000000e+00) (0, 0, 0.00000000000000000000e+00) (0, 0, 0.00000000000000000000e+00) (0, 0, 0.00000000000000000000e+00) (0, 0, 0.00000000000000000000e+00) (0, 0, 0.00000000000000000000e+00) (0, 0, 0.00000000000000000000e+00) (0, 0, 0.00000000000000000000e+00) (0, 0, 0.00000000000000000000e+00) (126, 6, 5.00000000000000000000e-01) (126, 6, 5.00000000000000000000e-01) (126, 6, 5.00000000000000000000e-01) (126, 6, 5.00000000000000000000e-01) (126, 6, 5.00000000000000000000e-01) (126, 6, 5.00000000000000000000e-01) (126, 6, 5.00000000000000000000e-01) (126, 6, 5.00000000000000000000e-01) (126, 6, 5.00000000000000000000e-01) (126, 6, 5.00000000000000000000e-01) (126, 6, 5.00000000000000000000e-01) (126, 6, 5.00000000000000000000e-01) (126, 6, 5.00000000000000000000e-01) (126, 6, 5.00000000000000000000e-01) (126, 6, 5.00000000000000000000e-01) (126, 6, 5.00000000000000000000e-01) (126, 6, 5.00000000000000000000e-01) (126, 6, 5.00000000000000000000e-01) (126, 6, 5.00000000000000000000e-01) (126, 6, 5.00000000000000000000e-01) (126, 6, 5.00000000000000000000e-01) (126, 6, 5.00000000000000000000e-01) (126, 6, 5.00000000000000000000e-01) (126, 6, 5.00000000000000000000e-01) (126, 6, 5.00000000000000000000e-01) (126, 6, 5.00000000000000000000e-01) (126, 6, 5.00000000000000000000e-01) (126, 6, 5.00000000000000000000e-01) (126, 6, 5.00000000000000000000e-01) (126, 6, 5.00000000000000000000e-01) (126, 6, 5.00000000000000000000e-01) (126, 6, 5.00000000000000000000e-01) (0, 6, 0.00000000000000000000e+00) (33, 4, 5.00000000000000000000e-01) (33, 4, 5.00000000000000000000e-01) (0, 4, 0.00000000000000000000e+00) 
connections (connected_to_neuron, weight)=(0, -6.07070684432983398438e-01) (1, 2.78692293167114257812e+00) (2, 2.81797677278518676758e-01) (3, -2.76961922645568847656e-01) (4, 7.22974985837936401367e-02) (5, 2.23545284271240234375e+01) (6, 7.00343310832977294922e-01) (7, 4.37073707580566406250e-01) (8, -3.90351116657257080078e-01) (9, 3.11440508812665939331e-03) (10, 4.80289310216903686523e-01) (11, -1.45963311195373535156e+00) (12, 2.09895396232604980469e+00) (13, 4.01373893022537231445e-01) (14, 2.24964599609375000000e+01) (15, -2.88785453885793685913e-02) (16, 2.23842792510986328125e+01) (17, 1.08516573905944824219e-01) (18, -6.04448914527893066406e-01) (19, -4.33203071355819702148e-01) (20, -2.46028259396553039551e-01) (21, -6.00842721760272979736e-02) (22, 2.23286609649658203125e+01) (23, 2.24135913848876953125e+01) (24, -6.27937984466552734375e+00) (25, -2.72290444374084472656e+00) (26, -5.08354568481445312500e+00) (27, 1.23212313652038574219e+00) (28, 8.35465729236602783203e-01) (29, -4.78141212463378906250e+00) (30, -2.79976677894592285156e+00) (31, 2.71671533584594726562e+00) (32, 2.24252014160156250000e+01) (33, -2.11311131715774536133e-01) (34, 2.23273506164550781250e+01) (35, -7.77704894542694091797e-01) (36, 7.75691568851470947266e-01) (37, 2.24178524017333984375e+01) (38, 2.56581366062164306641e-01) (39, -2.97783583402633666992e-01) (40, 3.74113142490386962891e-01) (41, 3.55698883533477783203e-01) (42, -2.79298377037048339844e+00) (43, -1.23275794088840484619e-01) (44, -9.17143188416957855225e-03) (45, 3.44513988494873046875e+00) (46, 2.23669395446777343750e+01) (47, 3.40535610914230346680e-01) (48, 4.41580206155776977539e-01) (49, 2.24241123199462890625e+01) (50, 3.53939741849899291992e-01) (51, 6.04812026023864746094e-01) (52, -7.89123624563217163086e-02) (53, 3.59712183475494384766e-01) (54, -1.06297582387924194336e-01) (55, -2.06944972276687622070e-01) (56, 2.23116493225097656250e+01) (57, 6.34067714214324951172e-01) (58, 2.23131313323974609375e+01) (59, 2.24814682006835937500e+01) (60, 8.78302454948425292969e-01) (61, 7.46382474899291992188e-01) (62, -1.36851096153259277344e+00) (63, 1.45554795861244201660e-01) (64, 8.70711505413055419922e-01) (65, -2.97950744628906250000e+00) (66, 6.60666599869728088379e-02) (67, 1.78454354405403137207e-01) (68, 1.13641232252120971680e-01) (69, -7.20310211181640625000e-01) (70, 1.21025633811950683594e+00) (71, 2.23217620849609375000e+01) (72, 2.23310832977294921875e+01) (73, 1.30085706710815429688e-01) (74, 2.24903488159179687500e+01) (75, 4.04712766408920288086e-01) (76, -6.91923379898071289062e-01) (77, -1.10812552273273468018e-01) (78, -7.39605665206909179688e-01) (79, 1.24698662757873535156e+00) (80, 2.24762573242187500000e+01) (81, 2.23185882568359375000e+01) (82, 1.78218647837638854980e-01) (83, 2.24139442443847656250e+01) (84, -2.54188001155853271484e-01) (85, -1.74721288681030273438e+00) (86, -1.92446395754814147949e-01) (87, 2.24180088043212890625e+01) (88, 2.23499984741210937500e+01) (89, 2.23372840881347656250e+01) (90, -1.83039307594299316406e-01) (91, -7.20906496047973632812e-01) (92, 1.22148776054382324219e+00) (93, -1.01035937666893005371e-01) (94, 1.13347113132476806641e+00) (95, 2.24728202819824218750e+01) (96, 1.09759502112865447998e-01) (97, 2.23181896209716796875e+01) (98, -1.17010092735290527344e+00) (99, 1.20330548286437988281e+00) (100, 1.99390068650245666504e-01) (101, 2.23144683837890625000e+01) (102, 2.23907222747802734375e+01) (103, 5.45597493648529052734e-01) (104, 6.66875362396240234375e-01) (105, 2.23784999847412109375e+01) (106, -2.92252331972122192383e-01) (107, -1.35806417465209960938e+00) (108, 2.24306468963623046875e+01) (109, 2.24187984466552734375e+01) (110, -3.97075079381465911865e-02) (111, 2.24043312072753906250e+01) (112, 2.24348125457763671875e+01) (113, -1.33632922172546386719e+00) (114, 2.23157043457031250000e+01) (115, 3.49126577377319335938e-01) (116, -1.44693821668624877930e-01) (117, 8.11983048915863037109e-01) (118, -4.72469031810760498047e-01) (119, 1.24188676476478576660e-01) (120, 5.54942250251770019531e-01) (121, 8.16221833229064941406e-02) (122, 2.88019865751266479492e-01) (123, 2.24617137908935546875e+01) (124, -2.14579716324806213379e-01) (125, -1.46926105022430419922e-01) (0, -7.93755706399679183960e-03) (1, 2.92615556716918945312e+00) (2, -7.06363096833229064941e-02) (3, -2.33569070696830749512e-01) (4, 1.97663858532905578613e-01) (5, 9.41472649574279785156e-02) (6, -2.21672549843788146973e-01) (7, 1.21807456016540527344e+00) (8, 1.76404327154159545898e-01) (9, -2.37975433468818664551e-01) (10, -4.44355130195617675781e-01) (11, 1.62710309028625488281e-01) (12, -6.11855387687683105469e-01) (13, -1.23206295073032379150e-01) (14, 5.97667455673217773438e-01) (15, 1.29405148327350616455e-02) (16, 8.06920289993286132812e-01) (17, 9.83466565608978271484e-01) (18, 1.85656964778900146484e-01) (19, 3.54084581136703491211e-01) (20, 2.48363733291625976562e-01) (21, 1.33449599146842956543e-01) (22, 1.61663484573364257812e+00) (23, 9.05283510684967041016e-01) (24, 7.62570202350616455078e-01) (25, 7.78551435470581054688e+00) (26, 7.35024273395538330078e-01) (27, 5.91634130477905273438e+00) (28, -2.94142663478851318359e-01) (29, 1.62831449508666992188e+00) (30, 7.75171422958374023438e+00) (31, 5.03652811050415039062e-01) (32, 2.24612407684326171875e+01) (33, -1.90555676817893981934e-01) (34, 2.23133735656738281250e+01) (35, 1.83308050036430358887e-01) (36, -3.25669080018997192383e-01) (37, 2.23906440734863281250e+01) (38, -2.79734041541814804077e-02) (39, -7.12437629699707031250e-02) (40, -2.31043055653572082520e-01) (41, -2.04695776104927062988e-01) (42, 7.84773111343383789062e+00) (43, -3.98403406143188476562e-02) (44, 8.90313368290662765503e-03) (45, 1.71778464317321777344e+00) (46, 1.48115062713623046875e+00) (47, 4.38758432865142822266e-02) (48, 3.11043597757816314697e-02) (49, 1.50675916671752929688e+00) (50, -2.31327682733535766602e-01) (51, 4.56579439342021942139e-02) (52, 2.99170762300491333008e-01) (53, -2.36137397587299346924e-02) (54, -6.58857524394989013672e-02) (55, -4.32564690709114074707e-03) (56, 2.24917831420898437500e+01) (57, -1.73320025205612182617e-01) (58, 2.24213027954101562500e+01) (59, 1.43698561191558837891e+00) (60, -6.44179999828338623047e-01) (61, 1.98919147253036499023e-01) (62, 3.57148855924606323242e-01) (63, -3.42191576957702636719e-01) (64, -6.40553295612335205078e-01) (65, 3.17417711019515991211e-01) (66, 5.22775091230869293213e-02) (67, -3.16881328821182250977e-01) (68, 2.52030640840530395508e-01) (69, 3.86650705337524414062e+00) (70, 5.86098623275756835938e+00) (71, 1.58309125900268554688e+00) (72, 1.39358961582183837891e+00) (73, 2.96250075101852416992e-01) (74, 1.60219407081604003906e+00) (75, -2.48371675610542297363e-01) (76, 2.85892152786254882812e+00) (77, 9.90493595600128173828e-03) (78, 3.96423530578613281250e+00) (79, 5.85408353805541992188e+00) (80, 1.62982678413391113281e+00) (81, 1.40613234043121337891e+00) (82, 4.27976340055465698242e-01) (83, 1.55994057655334472656e+00) (84, -9.58692580461502075195e-02) (85, 2.89461088180541992188e+00) (86, -2.05429509282112121582e-01) (87, 2.25016880035400390625e+01) (88, 1.52338051795959472656e+00) (89, 1.34078609943389892578e+00) (90, -2.94577926397323608398e-01) (91, 2.79621744155883789062e+00) (92, 5.91699266433715820312e+00) (93, -1.43901303410530090332e-01) (94, -6.42514109611511230469e-01) (95, 2.23068599700927734375e+01) (96, 3.35766002535820007324e-03) (97, 2.75576919317245483398e-01) (98, 3.69611549377441406250e+00) (99, 5.92898988723754882812e+00) (100, 2.76970602571964263916e-02) (101, 2.24354953765869140625e+01) (102, 2.24199981689453125000e+01) (103, -1.88623949885368347168e-01) (104, -8.71949121356010437012e-02) (105, 1.41642367839813232422e+00) (106, 1.20102189481258392334e-01) (107, 1.48799216747283935547e+00) (108, 1.33949100971221923828e+00) (109, 1.54095745086669921875e+00) (110, 2.02495083212852478027e-01) (111, 1.33758127689361572266e+00) (112, 7.16313004493713378906e-01) (113, 1.44586992263793945312e+00) (114, 2.23970985412597656250e+00) (115, -4.05798964202404022217e-02) (116, 4.01599444448947906494e-02) (117, -1.21593311429023742676e-01) (118, 9.00591462850570678711e-02) (119, 1.90455451607704162598e-01) (120, 6.19756579399108886719e-01) (121, 2.93094031512737274170e-02) (122, -1.64995163679122924805e-01) (123, 1.00963902473449707031e+00) (124, -6.86753308400511741638e-04) (125, -2.18401834368705749512e-01) (0, -1.18141308426856994629e-01) (1, 2.23743324279785156250e+01) (2, 2.31037482619285583496e-01) (3, 2.94076889753341674805e-01) (4, 1.77089735865592956543e-01) (5, -2.75168943405151367188e+00) (6, -1.94366723299026489258e-01) (7, 2.24578285217285156250e+01) (8, 2.58221894502639770508e-01) (9, 1.27042725682258605957e-01) (10, 8.43961164355278015137e-02) (11, 6.60943925380706787109e-01) (12, -6.72702932357788085938e+00) (13, -1.90591856837272644043e-01) (14, 2.31653547286987304688e+00) (15, -2.30646163225173950195e-01) (16, 2.22738170623779296875e+00) (17, -5.87763011455535888672e-01) (18, -9.74203199148178100586e-02) (19, 1.94578856229782104492e-01) (20, 3.79139604046940803528e-03) (21, 1.41261741518974304199e-01) (22, 9.15482521057128906250e-01) (23, 2.46616840362548828125e-01) (24, 2.23737430572509765625e+01) (25, 2.23767070770263671875e+01) (26, 2.24344177246093750000e+01) (27, 2.24076004028320312500e+01) (28, -5.51445960998535156250e-01) (29, 2.23896598815917968750e+01) (30, 2.24881420135498046875e+01) (31, -7.47342705726623535156e-02) (32, 2.24614200592041015625e+01) (33, 3.48292797803878784180e-01) (34, 2.24113693237304687500e+01) (35, 5.27684569358825683594e-01) (36, -5.21817386150360107422e-01) (37, 2.23805103302001953125e+01) (38, -5.27619063854217529297e-01) (39, 7.31189191341400146484e-01) (40, -2.39018157124519348145e-01) (41, -2.41125866770744323730e-01) (42, 2.24422855377197265625e+01) (43, 6.21028065681457519531e-01) (44, 1.11684761941432952881e-01) (45, 2.23945674896240234375e+01) (46, 2.04005646705627441406e+00) (47, 3.11614900827407836914e-01) (48, -1.10811364650726318359e+00) (49, 1.77168369293212890625e+00) (50, -7.98830389976501464844e-02) (51, -1.67390890419483184814e-02) (52, 3.80445003509521484375e-01) (53, -9.95402693748474121094e-01) (54, 4.29557889699935913086e-01) (55, -3.44981789588928222656e-01) (56, 2.23205108642578125000e+01) (57, -4.05802667140960693359e-01) (58, 2.23282127380371093750e+01) (59, 1.69013738632202148438e+00) (60, -4.60481226444244384766e-01) (61, -2.19250649213790893555e-01) (62, 5.99818050861358642578e-01) (63, -1.89607813954353332520e-01) (64, -5.49471139907836914062e-01) (65, -2.92985528707504272461e-01) (66, 1.95059880614280700684e-01) (67, -2.04813912510871887207e-01) (68, -9.30682241916656494141e-01) (69, 2.23275241851806640625e+01) (70, 2.24603519439697265625e+01) (71, 1.74663400650024414062e+00) (72, 1.37334680557250976562e+00) (73, -6.29367053508758544922e-01) (74, 1.71729803085327148438e+00) (75, -9.87460091710090637207e-02) (76, 2.24920597076416015625e+01) (77, 3.84732931852340698242e-02) (78, 2.24840641021728515625e+01) (79, 2.23231525421142578125e+01) (80, 1.77753782272338867188e+00) (81, 1.44748067855834960938e+00) (82, -5.39372324943542480469e-01) (83, 1.62697839736938476562e+00) (84, -1.29975095391273498535e-01) (85, 2.23886127471923828125e+01) (86, 4.77608054876327514648e-01) (87, 2.23584785461425781250e+01) (88, 1.46975708007812500000e+00) (89, 1.52556061744689941406e+00) (90, 4.76060986518859863281e-01) (91, 2.23365001678466796875e+01) (92, 2.24860248565673828125e+01) (93, 4.37788277864456176758e-01) (94, -1.76206076145172119141e+00) (95, 2.23145217895507812500e+01) (96, 3.16565811634063720703e-01) (97, -1.27835226058959960938e+00) (98, 2.23756523132324218750e+01) (99, 2.24283428192138671875e+01) (100, -2.57711827754974365234e-01) (101, 2.23334312438964843750e+01) (102, 2.23739891052246093750e+01) (103, -4.07941371202468872070e-01) (104, -3.07851314544677734375e-01) (105, 2.13824319839477539062e+00) (106, 8.63867819309234619141e-01) (107, 2.24204120635986328125e+01) (108, 2.14409708976745605469e+00) (109, 1.67993617057800292969e+00) (110, 2.77678310871124267578e-01) (111, 2.12064790725708007812e+00) (112, -3.91266584396362304688e-01) (113, 1.20262026786804199219e+00) (114, 3.40686178207397460938e+00) (115, -4.25122916698455810547e-01) (116, 2.11265280842781066895e-01) (117, -2.43133282661437988281e+00) (118, -1.77696362137794494629e-01) (119, 3.03564578294754028320e-01) (120, 4.58061933517456054688e-01) (121, 1.34085908532142639160e-01) (122, 1.53028205037117004395e-01) (123, 2.13394641876220703125e-01) (124, -2.44683668017387390137e-01) (125, 4.03581649065017700195e-01) (0, -5.51245748996734619141e-01) (1, 2.74746847152709960938e+00) (2, 2.21533149480819702148e-01) (3, -3.31449955701828002930e-02) (4, -3.40118668973445892334e-02) (5, 2.23666591644287109375e+01) (6, 2.83682107925415039062e-01) (7, 4.74352836608886718750e-01) (8, -1.79691359400749206543e-01) (9, -6.73616006970405578613e-02) (10, 4.10771965980529785156e-01) (11, -1.40830612182617187500e+00) (12, 2.06674146652221679688e+00) (13, 3.28088402748107910156e-01) (14, 2.23713283538818359375e+01) (15, 7.42661058902740478516e-02) (16, 2.23473396301269531250e+01) (17, 4.73891682922840118408e-02) (18, -5.36789059638977050781e-01) (19, -4.54086661338806152344e-01) (20, -1.03778183460235595703e-01) (21, 6.05466403067111968994e-02) (22, 2.24861946105957031250e+01) (23, 2.24225044250488281250e+01) (24, -6.38930702209472656250e+00) (25, -2.74304223060607910156e+00) (26, -5.08414936065673828125e+00) (27, 1.16182494163513183594e+00) (28, 8.90079557895660400391e-01) (29, -4.91765403747558593750e+00) (30, -2.74158000946044921875e+00) (31, 2.79974269866943359375e+00) (32, 2.24495067596435546875e+01) (33, -4.27191294729709625244e-02) (34, 2.23934230804443359375e+01) (35, -2.37534627318382263184e-01) (36, 7.01357901096343994141e-01) (37, 2.24077377319335937500e+01) (38, 2.47240468859672546387e-01) (39, -2.95607775449752807617e-01) (40, 3.46075385808944702148e-01) (41, 4.41454857587814331055e-01) (42, -2.73948121070861816406e+00) (43, -1.83526262640953063965e-01) (44, -2.19564586877822875977e-02) (45, 3.57351112365722656250e+00) (46, 2.24098339080810546875e+01) (47, 4.00670081377029418945e-01) (48, 3.08823764324188232422e-01) (49, 2.23346652984619140625e+01) (50, 3.93190592527389526367e-01) (51, 1.12861371040344238281e+00) (52, -1.33450016379356384277e-01) (53, 3.56496423482894897461e-01) (54, -4.56834957003593444824e-02) (55, 2.03486114740371704102e-01) (56, 2.24882965087890625000e+01) (57, 6.48050010204315185547e-01) (58, 2.23640899658203125000e+01) (59, 2.24853172302246093750e+01) (60, 9.56043183803558349609e-01) (61, 8.55528712272644042969e-01) (62, -1.28163433074951171875e+00) (63, 2.37924978137016296387e-01) (64, 9.05095815658569335938e-01) (65, -2.82655858993530273438e+00) (66, 8.61059054732322692871e-02) (67, 2.81719952821731567383e-01) (68, 5.64760975539684295654e-02) (69, -7.44997501373291015625e-01) (70, 1.18418526649475097656e+00) (71, 2.24365596771240234375e+01) (72, 2.23921508789062500000e+01) (73, 1.57517358660697937012e-01) (74, 2.23448963165283203125e+01) (75, 3.21860909461975097656e-01) (76, -7.36120462417602539062e-01) (77, -1.33716026321053504944e-02) (78, -7.21329212188720703125e-01) (79, 1.27003264427185058594e+00) (80, 2.24842529296875000000e+01) (81, 2.23761157989501953125e+01) (82, 6.93618878722190856934e-03) (83, 2.24531250000000000000e+01) (84, 3.94571945071220397949e-03) (85, -1.70390892028808593750e+00) (86, -1.40406768769025802612e-02) (87, 2.24489669799804687500e+01) (88, 2.24072837829589843750e+01) (89, 2.23486824035644531250e+01) (90, -6.94924965500831604004e-02) (91, -7.85879850387573242188e-01) (92, 1.14203143119812011719e+00) (93, -1.79352492094039916992e-01) (94, 1.17054283618927001953e+00) (95, 2.24277477264404296875e+01) (96, -1.56080806627869606018e-02) (97, 2.23752994537353515625e+01) (98, -1.24341988563537597656e+00) (99, 1.22077250480651855469e+00) (100, 3.18135507404804229736e-02) (101, 2.24150791168212890625e+01) (102, 2.23229885101318359375e+01) (103, 6.39089584350585937500e-01) (104, 5.94917178153991699219e-01) (105, 2.23653125762939453125e+01) (106, -6.89475655555725097656e-01) (107, -1.27421998977661132812e+00) (108, 2.23148975372314453125e+01) (109, 2.24887084960937500000e+01) (110, 6.71829283237457275391e-02) (111, 2.24965782165527343750e+01) (112, 2.23622512817382812500e+01) (113, -1.40072107315063476562e+00) (114, 2.24471321105957031250e+01) (115, 1.95018991827964782715e-01) (116, -1.05010092258453369141e-01) (117, 9.03848111629486083984e-01) (118, -6.71472549438476562500e-02) (119, -3.96134816110134124756e-02) (120, 1.76751112937927246094e+00) (121, 1.29136487841606140137e-01) (122, 2.59244650602340698242e-01) (123, 2.24855194091796875000e+01) (124, -2.45381966233253479004e-01) (125, -1.20661780238151550293e-01) (0, -2.28756546974182128906e-01) (1, 1.45182693004608154297e+00) (2, -5.40770031511783599854e-02) (3, -6.05544373393058776855e-02) (4, 1.85949102044105529785e-01) (5, 9.23419952392578125000e+00) (6, 7.06412084400653839111e-03) (7, 4.12709951400756835938e-01) (8, -1.62995666265487670898e-01) (9, 2.13720619678497314453e-01) (10, 6.91413357853889465332e-02) (11, -3.39643180370330810547e-01) (12, 6.40808880329132080078e-01) (13, -3.25962826609611511230e-02) (14, 9.14511013031005859375e+00) (15, 2.38034635782241821289e-01) (16, 9.15575695037841796875e+00) (17, 1.45906075835227966309e-01) (18, -4.08031433820724487305e-01) (19, -7.13379859924316406250e-01) (20, -3.79472881555557250977e-01) (21, 2.52037674188613891602e-01) (22, 9.22946739196777343750e+00) (23, 9.19188690185546875000e+00) (24, -2.34698104858398437500e+00) (25, -8.12024772167205810547e-01) (26, -1.91834974288940429688e+00) (27, 7.04477190971374511719e-01) (28, 8.16197991371154785156e-02) (29, -1.69998788833618164062e+00) (30, -8.74211430549621582031e-01) (31, 3.60662728548049926758e-01) (32, 2.23565444946289062500e+01) (33, -1.75939574837684631348e-01) (34, 2.23047580718994140625e+01) (35, -5.89856028556823730469e-01) (36, 1.82752385735511779785e-01) (37, 2.23880538940429687500e+01) (38, -3.31845991313457489014e-02) (39, 1.78823158144950866699e-01) (40, 9.56957265734672546387e-02) (41, 3.51677745580673217773e-01) (42, -7.80676484107971191406e-01) (43, 2.78549581766128540039e-01) (44, 2.92941749095916748047e-01) (45, 1.70179510116577148438e+00) (46, 9.09120559692382812500e+00) (47, 2.18944437801837921143e-02) (48, 3.28426659107208251953e-01) (49, 9.07402896881103515625e+00) (50, 1.71870008111000061035e-01) (51, 5.01480400562286376953e-02) (52, -3.67423355579376220703e-01) (53, 3.59326340258121490479e-02) (54, -1.50362208485603332520e-01) (55, -4.48798388242721557617e-01) (56, 2.23957080841064453125e+01) (57, 2.92890697717666625977e-01) (58, 2.23174934387207031250e+01) (59, 9.08081245422363281250e+00) (60, 3.62492501735687255859e-01) (61, 5.18719591200351715088e-02) (62, -2.92102485895156860352e-01) (63, -3.61451357603073120117e-02) (64, 5.63901007175445556641e-01) (65, -1.53348994255065917969e+00) (66, 3.85152697563171386719e-01) (67, -1.24774854630231857300e-02) (68, 3.54771077632904052734e-01) (69, -1.08922719955444335938e-01) (70, 9.01938617229461669922e-01) (71, 9.23315715789794921875e+00) (72, 9.25835514068603515625e+00) (73, 4.14821475744247436523e-01) (74, 9.20164966583251953125e+00) (75, -1.09616659581661224365e-01) (76, -1.04582786560058593750e-01) (77, 3.27814608812332153320e-01) (78, -1.33463144302368164062e-01) (79, 7.18753218650817871094e-01) (80, 9.23807621002197265625e+00) (81, 9.25842666625976562500e+00) (82, 4.13463503122329711914e-01) (83, 9.14211463928222656250e+00) (84, -8.04796889424324035645e-02) (85, -5.07319092750549316406e-01) (86, -1.12311303615570068359e-01) (87, 2.23425407409667968750e+01) (88, 9.21767997741699218750e+00) (89, 9.17179012298583984375e+00) (90, -1.48398563265800476074e-01) (91, 6.98997974395751953125e-02) (92, 7.04754114151000976562e-01) (93, -9.44516658782958984375e-02) (94, 1.71863079071044921875e-01) (95, 2.24249095916748046875e+01) (96, 1.36060118675231933594e-01) (97, 9.11011981964111328125e+00) (98, -2.69671678543090820312e-01) (99, 7.93951511383056640625e-01) (100, -1.50784775614738464355e-01) (101, 2.23430652618408203125e+01) (102, 2.23609657287597656250e+01) (103, 2.59019225835800170898e-01) (104, 1.98332622647285461426e-01) (105, 9.26004409790039062500e+00) (106, 1.66282594203948974609e-01) (107, -3.45874309539794921875e-01) (108, 9.22409057617187500000e+00) (109, 9.19559192657470703125e+00) (110, 2.44262591004371643066e-01) (111, 9.19776248931884765625e+00) (112, 9.18961429595947265625e+00) (113, -2.46855115890502929688e+00) (114, 9.07547283172607421875e+00) (115, 2.07706138491630554199e-01) (116, 9.80062782764434814453e-02) (117, 9.59903448820114135742e-02) (118, -2.06292405724525451660e-01) (119, 4.65045601129531860352e-01) (120, -2.16137140989303588867e-01) (121, 4.13910776376724243164e-01) (122, 4.40759181976318359375e-01) (123, 9.07576656341552734375e+00) (124, -3.68457287549972534180e-01) (125, -9.95362848043441772461e-02) (0, -5.27920782566070556641e-01) (1, 2.67807555198669433594e+00) (2, -4.76774610579013824463e-02) (3, -6.54218643903732299805e-02) (4, 6.04657419025897979736e-02) (5, 2.23300552368164062500e+01) (6, 6.26899063587188720703e-01) (7, 5.55806159973144531250e-01) (8, 3.76269384287297725677e-03) (9, -1.83177575469017028809e-01) (10, 3.21358963847160339355e-02) (11, -1.57523417472839355469e+00) (12, 2.06455802917480468750e+00) (13, 1.58604118041694164276e-04) (14, 2.24566383361816406250e+01) (15, -2.04227920621633529663e-02) (16, 2.23660316467285156250e+01) (17, 8.47962945699691772461e-02) (18, -5.43527543544769287109e-01) (19, -4.20451670885086059570e-01) (20, -5.40744140744209289551e-03) (21, 1.04643315076828002930e-01) (22, 2.24806327819824218750e+01) (23, 2.23659038543701171875e+01) (24, -6.25753974914550781250e+00) (25, -2.65265703201293945312e+00) (26, -5.18440341949462890625e+00) (27, 1.14349770545959472656e+00) (28, 8.37729394435882568359e-01) (29, -4.86416339874267578125e+00) (30, -2.72724509239196777344e+00) (31, 2.82638978958129882812e+00) (32, 2.24336032867431640625e+01) (33, -1.76639124751091003418e-01) (34, 2.24131793975830078125e+01) (35, -3.58958959579467773438e-01) (36, 1.25828850269317626953e+00) (37, 2.24302368164062500000e+01) (38, 2.07269892096519470215e-01) (39, -2.17164218425750732422e-01) (40, 5.05634725093841552734e-01) (41, 5.43725013732910156250e-01) (42, -2.82796549797058105469e+00) (43, -1.17107421159744262695e-01) (44, 8.29042121767997741699e-02) (45, 3.57033681869506835938e+00) (46, 2.24196434020996093750e+01) (47, 5.62224611639976501465e-02) (48, 3.43056827783584594727e-01) (49, 2.23377380371093750000e+01) (50, 3.50378036499023437500e-01) (51, 1.59817743301391601562e+00) (52, -2.00559183955192565918e-01) (53, 3.08122992515563964844e-01) (54, -1.58975780010223388672e-01) (55, 1.82421773672103881836e-01) (56, 2.23303070068359375000e+01) (57, 6.23797893524169921875e-01) (58, 2.23246994018554687500e+01) (59, 2.23306503295898437500e+01) (60, 9.85282003879547119141e-01) (61, 8.30472350120544433594e-01) (62, -5.09062349796295166016e-01) (63, 4.36841100454330444336e-01) (64, 7.89473414421081542969e-01) (65, -2.93482208251953125000e+00) (66, 1.31633719429373741150e-02) (67, 3.77444982528686523438e-01) (68, -2.92887836694717407227e-02) (69, -6.93055629730224609375e-01) (70, 1.21983599662780761719e+00) (71, 2.24574775695800781250e+01) (72, 2.24934864044189453125e+01) (73, 1.04683771729469299316e-01) (74, 2.24703121185302734375e+01) (75, 3.69050711393356323242e-01) (76, -7.92128324508666992188e-01) (77, 8.58028419315814971924e-03) (78, -7.91580677032470703125e-01) (79, 1.24825787544250488281e+00) (80, 2.24225502014160156250e+01) (81, 2.24630508422851562500e+01) (82, 1.17765426635742187500e-01) (83, 2.24385910034179687500e+01) (84, 4.25081290304660797119e-02) (85, -1.71707773208618164062e+00) (86, -6.76066130399703979492e-02) (87, 2.23295421600341796875e+01) (88, 2.23698635101318359375e+01) (89, 2.24736938476562500000e+01) (90, -1.86938881874084472656e-01) (91, -7.94061899185180664062e-01) (92, 1.24198555946350097656e+00) (93, -1.81464374065399169922e-01) (94, 1.17569744586944580078e+00) (95, 2.24120788574218750000e+01) (96, 7.40166977047920227051e-02) (97, 2.24723682403564453125e+01) (98, -1.30188083648681640625e+00) (99, 1.22463250160217285156e+00) (100, 1.80822506546974182129e-01) (101, 2.23922691345214843750e+01) (102, 2.23477649688720703125e+01) (103, 6.89433753490447998047e-01) (104, 7.19273328781127929688e-01) (105, 2.23155059814453125000e+01) (106, -3.84078115224838256836e-01) (107, -1.40587091445922851562e+00) (108, 2.24003181457519531250e+01) (109, 2.24749965667724609375e+01) (110, 1.13756969571113586426e-01) (111, 2.23202972412109375000e+01) (112, 2.24354763031005859375e+01) (113, -1.44331789016723632812e+00) (114, 2.24563159942626953125e+01) (115, 1.80680081248283386230e-01) (116, -2.21547707915306091309e-01) (117, 8.77435028553009033203e-01) (118, -4.67400848865509033203e-01) (119, 1.50533318519592285156e-01) (120, 1.66610848903656005859e+00) (121, 4.74050045013427734375e-02) (122, 3.57875794172286987305e-01) (123, 2.24840717315673828125e+01) (124, -8.70633006095886230469e-01) (125, -3.48440259695053100586e-02) (0, -7.69349560141563415527e-02) (1, 2.24237899780273437500e+01) (2, 3.50869804620742797852e-01) (3, 3.53068828582763671875e-01) (4, 1.50764390826225280762e-01) (5, -2.64737653732299804688e+00) (6, -1.78600877523422241211e-01) (7, 2.23592720031738281250e+01) (8, 2.72881120443344116211e-01) (9, 1.81565269827842712402e-01) (10, 1.10889963805675506592e-01) (11, 7.69197285175323486328e-01) (12, -1.39776647090911865234e+00) (13, 2.29898586869239807129e-01) (14, 2.28799247741699218750e+00) (15, -1.50324523448944091797e-01) (16, 2.34935665130615234375e+00) (17, -6.70214712619781494141e-01) (18, -1.11436754465103149414e-01) (19, 3.33053588867187500000e-01) (20, 5.67597225308418273926e-02) (21, 3.31146210432052612305e-01) (22, 9.25937175750732421875e-01) (23, 2.62858390808105468750e-01) (24, 2.23626289367675781250e+01) (25, 2.24180183410644531250e+01) (26, 2.24646167755126953125e+01) (27, 2.23507118225097656250e+01) (28, -4.57504779100418090820e-01) (29, 2.24959392547607421875e+01) (30, 2.23324680328369140625e+01) (31, 4.06411290168762207031e-02) (32, 2.24171581268310546875e+01) (33, 5.12451708316802978516e-01) (34, 2.23857364654541015625e+01) (35, 4.57096427679061889648e-01) (36, -3.94276231527328491211e-01) (37, 2.23706436157226562500e+01) (38, -4.96764659881591796875e-01) (39, 9.00527536869049072266e-01) (40, -2.84211397171020507812e-01) (41, -3.83777678012847900391e-01) (42, 2.24336700439453125000e+01) (43, 2.70685702562332153320e-01) (44, 8.23234096169471740723e-02) (45, 2.23574104309082031250e+01) (46, 2.02108144760131835938e+00) (47, 6.74285069108009338379e-02) (48, -1.02772378921508789062e+00) (49, 1.75267124176025390625e+00) (50, 1.17370523512363433838e-02) (51, -8.33808779716491699219e-02) (52, 4.19630914926528930664e-01) (53, -9.53859806060791015625e-01) (54, 3.79158020019531250000e-01) (55, -3.16910028457641601562e-01) (56, 2.24033641815185546875e+01) (57, -4.26004827022552490234e-01) (58, 2.24993953704833984375e+01) (59, 1.79872322082519531250e+00) (60, -5.74403822422027587891e-01) (61, -2.03740626573562622070e-01) (62, 6.23779237270355224609e-01) (63, -8.71161743998527526855e-02) (64, -5.69802224636077880859e-01) (65, -2.94656962156295776367e-01) (66, 1.66286453604698181152e-01) (67, -9.59961041808128356934e-02) (68, -7.44925290346145629883e-02) (69, 2.23296051025390625000e+01) (70, 2.23916225433349609375e+01) (71, 1.77975130081176757812e+00) (72, 1.43277597427368164062e+00) (73, -7.06710517406463623047e-01) (74, 1.65111875534057617188e+00) (75, -6.86781033873558044434e-02) (76, 2.23775577545166015625e+01) (77, 5.71901686489582061768e-02) (78, 2.24067459106445312500e+01) (79, 2.24890403747558593750e+01) (80, 1.67337083816528320312e+00) (81, 1.40125036239624023438e+00) (82, -6.40126049518585205078e-01) (83, 1.76199722290039062500e+00) (84, -1.34662464261054992676e-01) (85, 2.24374580383300781250e+01) (86, 4.40698951482772827148e-01) (87, 2.24366436004638671875e+01) (88, 1.49840140342712402344e+00) (89, 1.45983505249023437500e+00) (90, 4.62812244892120361328e-01) (91, 2.24512214660644531250e+01) (92, 2.24358081817626953125e+01) (93, 4.48500722646713256836e-01) (94, -1.80552434921264648438e+00) (95, 2.24439754486083984375e+01) (96, 3.25606793165206909180e-01) (97, -1.35058927536010742188e+00) (98, 2.23532466888427734375e+01) (99, 2.24258460998535156250e+01) (100, -1.27867743372917175293e-01) (101, 2.24422969818115234375e+01) (102, 2.24046096801757812500e+01) (103, -4.18668031692504882812e-01) (104, -2.76328682899475097656e-01) (105, 2.10268402099609375000e+00) (106, 8.83209049701690673828e-01) (107, 2.23374328613281250000e+01) (108, 2.02338361740112304688e+00) (109, 1.62195873260498046875e+00) (110, 1.60587146878242492676e-01) (111, 2.09576797485351562500e+00) (112, -4.95474100112915039062e-01) (113, 1.00851941108703613281e+00) (114, 3.31700086593627929688e+00) (115, -3.34017723798751831055e-01) (116, 3.00805330276489257812e-01) (117, -2.55810308456420898438e+00) (118, -2.08425804972648620605e-01) (119, 3.63210499286651611328e-01) (120, 4.65566098690032958984e-01) (121, 2.90107667446136474609e-01) (122, 1.27395823597908020020e-01) (123, 1.70682907104492187500e-01) (124, -2.77949422597885131836e-01) (125, 3.34485799074172973633e-01) (0, 5.42388446629047393799e-02) (1, 1.65919566154479980469e+00) (2, 1.39223352074623107910e-01) (3, 7.24908486008644104004e-02) (4, 4.04057413339614868164e-01) (5, -1.27731412649154663086e-01) (6, 6.02627918124198913574e-02) (7, 3.79632186889648437500e+00) (8, 4.59549933671951293945e-01) (9, -2.87560015916824340820e-01) (10, -8.53560030460357666016e-01) (11, 3.74051451683044433594e-01) (12, -4.88310903310775756836e-01) (13, -3.21040362119674682617e-01) (14, 4.92658019065856933594e-02) (15, -3.20707440376281738281e-01) (16, 3.77003431320190429688e-01) (17, -1.66859738528728485107e-02) (18, -3.12369354069232940674e-02) (19, 5.14524638652801513672e-01) (20, 1.00410319864749908447e-01) (21, 3.42176884412765502930e-01) (22, 2.73539960384368896484e-01) (23, 4.33975607156753540039e-02) (24, 3.84172439575195312500e+00) (25, 4.03146266937255859375e+00) (26, 3.88241529464721679688e+00) (27, 3.66263008117675781250e+00) (28, -2.18474656343460083008e-01) (29, 3.76797533035278320312e+00) (30, 4.00203466415405273438e+00) (31, 3.35722506046295166016e-01) (32, 2.24433536529541015625e+01) (33, 5.38055717945098876953e-01) (34, 2.23154067993164062500e+01) (35, 3.23550969362258911133e-01) (36, -3.36493879556655883789e-01) (37, 2.23029232025146484375e+01) (38, -4.10116374492645263672e-01) (39, 1.00917138159275054932e-01) (40, -4.90846425294876098633e-01) (41, -5.56013822555541992188e-01) (42, 4.02622270584106445312e+00) (43, 1.54691234230995178223e-01) (44, 2.95333191752433776855e-02) (45, 1.70216441154479980469e+00) (46, 5.49395680427551269531e-01) (47, -3.70953261852264404297e-01) (48, -7.11263358592987060547e-01) (49, 1.80854678153991699219e-01) (50, -2.72069096565246582031e-01) (51, -3.04046690464019775391e-01) (52, 5.40548026561737060547e-01) (53, -8.67088496685028076172e-01) (54, 5.75346708297729492188e-01) (55, -2.05109372735023498535e-01) (56, 2.24506473541259765625e+01) (57, -7.33705937862396240234e-01) (58, 2.23243007659912109375e+01) (59, 2.51645326614379882812e-01) (60, -1.20507121086120605469e+00) (61, -5.54918386042118072510e-02) (62, 1.93792998790740966797e-01) (63, -7.24050581455230712891e-01) (64, -1.14136576652526855469e+00) (65, 1.23059475421905517578e+00) (66, -2.06632032990455627441e-01) (67, -7.51219213008880615234e-01) (68, 8.70958194136619567871e-02) (69, 4.24009609222412109375e+00) (70, 3.65509796142578125000e+00) (71, 1.77616536617279052734e-01) (72, 1.48347780108451843262e-01) (73, 8.52504149079322814941e-02) (74, 3.07607680559158325195e-01) (75, -2.23670676350593566895e-01) (76, 4.01287221908569335938e+00) (77, 7.61808976531028747559e-02) (78, 4.19984960556030273438e+00) (79, 3.66863536834716796875e+00) (80, 2.86389589309692382812e-01) (81, 2.71652460098266601562e-01) (82, -3.75052206218242645264e-02) (83, 2.86190867424011230469e-01) (84, -3.04541885852813720703e-01) (85, 9.02952480316162109375e+00) (86, 4.33718174695968627930e-01) (87, 2.24404335021972656250e+01) (88, 1.28891587257385253906e-01) (89, 2.32426777482032775879e-01) (90, 3.94610524177551269531e-01) (91, 3.96853113174438476562e+00) (92, 3.60253906250000000000e+00) (93, 4.75656837224960327148e-01) (94, -1.60788679122924804688e+00) (95, 2.24236087799072265625e+01) (96, 1.78597852587699890137e-01) (97, 2.76024043560028076172e-01) (98, 1.78245377540588378906e+00) (99, 3.70634984970092773438e+00) (100, -8.11858713626861572266e-01) (101, 2.24471111297607421875e+01) (102, 2.24675693511962890625e+01) (103, -7.81238138675689697266e-01) (104, -7.79665291309356689453e-01) (105, 5.52787065505981445312e-01) (106, 2.69912302494049072266e-01) (107, 3.71600961685180664062e+00) (108, 4.58321958780288696289e-01) (109, 2.00609341263771057129e-01) (110, 2.52023428678512573242e-01) (111, 6.09068393707275390625e-01) (112, -2.10362672805786132812e-03) (113, 1.29492056369781494141e+00) (114, 3.95879954099655151367e-01) (115, -8.94271910190582275391e-01) (116, 2.48274430632591247559e-02) (117, -5.24733006954193115234e-01) (118, -1.76392838358879089355e-01) (119, 3.46737802028656005859e-01) (120, 8.30664873123168945312e-01) (121, -3.21091681718826293945e-01) (122, -6.02376401424407958984e-01) (123, 1.98822781443595886230e-01) (124, 8.06036312133073806763e-03) (125, 4.29501384496688842773e-01) (0, 8.96242558956146240234e-02) (1, 8.38400781154632568359e-01) (2, -2.26833403110504150391e-01) (3, -9.41547155380249023438e-02) (4, -1.51186868548393249512e-01) (5, 3.82199192047119140625e+00) (6, 4.16784226894378662109e-01) (7, 3.32271754741668701172e-01) (8, -2.14030444622039794922e-01) (9, 1.83446988463401794434e-01) (10, 5.57208955287933349609e-01) (11, 1.11148858070373535156e+00) (12, 9.38806951045989990234e-01) (13, 4.08041775226593017578e-01) (14, 3.76583576202392578125e+00) (15, 3.84020805358886718750e-01) (16, 3.72392940521240234375e+00) (17, -9.12539213895797729492e-02) (18, 3.23627173900604248047e-01) (19, -5.08761703968048095703e-01) (20, 2.67736285924911499023e-01) (21, -1.48872226476669311523e-01) (22, 3.70448255538940429688e+00) (23, 3.73994493484497070312e+00) (24, -7.85521566867828369141e-01) (25, -7.18706309795379638672e-01) (26, -6.50336086750030517578e-01) (27, 9.62736010551452636719e-01) (28, 4.95638608932495117188e-01) (29, -4.72024172544479370117e-01) (30, -8.05168628692626953125e-01) (31, 1.49225878715515136719e+00) (32, 2.24432373046875000000e+01) (33, -1.56453222036361694336e-01) (34, 2.24862785339355468750e+01) (35, -2.48806044459342956543e-01) (36, 5.09732425212860107422e-01) (37, 2.23952941894531250000e+01) (38, 4.56377655267715454102e-01) (39, 1.97792366147041320801e-01) (40, 1.27737784385681152344e+00) (41, 6.37822270393371582031e-01) (42, -8.04109811782836914062e-01) (43, 3.10690134763717651367e-01) (44, 7.91474943980574607849e-04) (45, 9.42896306514739990234e-01) (46, 3.82476043701171875000e+00) (47, 5.92019140720367431641e-01) (48, 7.18737840652465820312e-01) (49, 3.73439311981201171875e+00) (50, 4.84914451837539672852e-01) (51, 9.77939784526824951172e-01) (52, -1.13580718636512756348e-01) (53, 4.88940536975860595703e-01) (54, 5.91429993510246276855e-02) (55, 3.40618252754211425781e-01) (56, 2.23588333129882812500e+01) (57, 1.45524632930755615234e+00) (58, 2.23503017425537109375e+01) (59, 3.88288164138793945312e+00) (60, 1.94636678695678710938e+00) (61, 4.60923135280609130859e-01) (62, -6.98017895221710205078e-01) (63, 5.28834164142608642578e-01) (64, 8.46295237541198730469e-01) (65, -3.76475214958190917969e-01) (66, 2.12978243827819824219e-01) (67, 4.56775814294815063477e-01) (68, 2.02737584710121154785e-01) (69, -2.10604667663574218750e-01) (70, 8.96139919757843017578e-01) (71, 3.70356369018554687500e+00) (72, 3.79324102401733398438e+00) (73, 9.58941504359245300293e-03) (74, 3.87779664993286132812e+00) (75, 5.62853038311004638672e-01) (76, 7.51794576644897460938e-02) (77, 1.72121167182922363281e-01) (78, -1.15583419799804687500e-01) (79, 9.29549813270568847656e-01) (80, 3.83874702453613281250e+00) (81, 3.71329307556152343750e+00) (82, -1.10338523983955383301e-01) (83, 3.78379869461059570312e+00) (84, 2.87043869495391845703e-01) (85, -4.53958868980407714844e-01) (86, -1.07832029461860656738e-01) (87, 2.24724445343017578125e+01) (88, 3.72477769851684570312e+00) (89, 3.89763164520263671875e+00) (90, -1.04979619383811950684e-01) (91, -4.70350980758666992188e-02) (92, 8.97749483585357666016e-01) (93, -1.01971134543418884277e-01) (94, 6.04140639305114746094e-01) (95, 2.24394989013671875000e+01) (96, -5.49029484391212463379e-02) (97, 3.76415586471557617188e+00) (98, -5.34498691558837890625e-02) (99, 8.03924381732940673828e-01) (100, 4.16427344083786010742e-01) (101, 2.23998870849609375000e+01) (102, 2.23298473358154296875e+01) (103, 8.79263877868652343750e-01) (104, 7.78723657131195068359e-01) (105, 3.70507287979125976562e+00) (106, 2.46823713183403015137e-01) (107, -3.13356518745422363281e-02) (108, 3.80942630767822265625e+00) (109, 3.79831027984619140625e+00) (110, 2.84985452890396118164e-01) (111, 3.74907112121582031250e+00) (112, 3.81250190734863281250e+00) (113, -1.69654965400695800781e-01) (114, 3.83376789093017578125e+00) (115, 1.35516166687011718750e+00) (116, 1.16657666862010955811e-01) (117, 4.61923688650131225586e-01) (118, 6.29737138748168945312e-01) (119, -7.17125553637742996216e-03) (120, 1.04011130332946777344e+00) (121, 3.00057321786880493164e-01) (122, 5.31932353973388671875e-01) (123, 3.69973707199096679688e+00) (124, 3.06171596050262451172e-01) (125, -6.17966689169406890869e-02) (0, -4.74920511245727539062e-01) (1, 7.24869430065155029297e-01) (2, 3.63513797521591186523e-01) (3, -1.71495735645294189453e-01) (4, -1.75666823983192443848e-01) (5, 1.59558713436126708984e+00) (6, 3.18788260221481323242e-01) (7, 3.80809336900711059570e-01) (8, -1.28377258777618408203e-01) (9, 2.26102828979492187500e-01) (10, 4.48982357978820800781e-01) (11, 3.15080642700195312500e-01) (12, 9.98971402645111083984e-01) (13, 3.82677316665649414062e-01) (14, 3.71376514434814453125e+00) (15, 2.89080679416656494141e-01) (16, 3.76603031158447265625e+00) (17, -5.95549494028091430664e-02) (18, -7.71653890609741210938e-01) (19, -7.60711610317230224609e-01) (20, 1.21264815330505371094e-01) (21, -1.26242995262145996094e-01) (22, 2.67685651779174804688e+00) (23, 2.74175310134887695312e+00) (24, 2.00407385826110839844e+00) (25, -7.04492032527923583984e-01) (26, -5.89088916778564453125e-01) (27, 8.71201515197753906250e-01) (28, 4.89037364721298217773e-01) (29, -6.38893008232116699219e-01) (30, -7.88621962070465087891e-01) (31, 5.01541972160339355469e-01) (32, 2.23628368377685546875e+01) (33, -1.15959346294403076172e-01) (34, 2.23316745758056640625e+01) (35, -4.17645484209060668945e-01) (36, 4.28975135087966918945e-01) (37, 2.23488388061523437500e+01) (38, 3.07014495134353637695e-01) (39, 1.25373601913452148438e-01) (40, 1.15111565589904785156e+00) (41, 5.81559062004089355469e-01) (42, -7.22804903984069824219e-01) (43, 1.93045511841773986816e-01) (44, 3.23355942964553833008e-02) (45, 9.72130715847015380859e-01) (46, 1.94227015972137451172e+00) (47, 3.90556693077087402344e-01) (48, 6.57288193702697753906e-01) (49, 2.60226392745971679688e+00) (50, 3.52968961000442504883e-01) (51, -5.59205889701843261719e-01) (52, -1.13774389028549194336e-01) (53, 4.92275506258010864258e-01) (54, -2.17365488409996032715e-01) (55, 3.53688597679138183594e-01) (56, 2.23871231079101562500e+01) (57, 1.56005024909973144531e+00) (58, 2.23567638397216796875e+01) (59, 2.64603757858276367188e+00) (60, 1.88430190086364746094e+00) (61, 4.83931571245193481445e-01) (62, -2.70409315824508666992e-01) (63, 5.37609040737152099609e-01) (64, 9.83346641063690185547e-01) (65, -3.12864392995834350586e-01) (66, 1.70228525996208190918e-01) (67, 5.53482830524444580078e-01) (68, 1.64167091250419616699e-01) (69, -9.28149223327636718750e-02) (70, 8.09224903583526611328e-01) (71, 2.00752687454223632812e+00) (72, 1.90331614017486572266e+00) (73, 3.97930666804313659668e-03) (74, 2.63446617126464843750e+00) (75, 3.68318408727645874023e-01) (76, 9.88036394119262695312e-02) (77, 2.35264331102371215820e-01) (78, -1.69115543365478515625e-01) (79, 8.24846088886260986328e-01) (80, 1.99940955638885498047e+00) (81, 1.91249716281890869141e+00) (82, -8.25997143983840942383e-02) (83, 2.72076225280761718750e+00) (84, -2.72625610232353210449e-02) (85, -3.82663249969482421875e-01) (86, -1.69709071516990661621e-01) (87, 2.23936691284179687500e+01) (88, 1.82121932506561279297e+00) (89, 1.96870195865631103516e+00) (90, -1.17437332868576049805e-01) (91, 6.69995546340942382812e-02) (92, 8.71486067771911621094e-01) (93, -1.51940688490867614746e-01) (94, 5.54255783557891845703e-01) (95, 2.24828815460205078125e+01) (96, -9.08439978957176208496e-02) (97, 3.69911909103393554688e+00) (98, -6.46007061004638671875e-02) (99, 9.29412841796875000000e-01) (100, 1.09129130840301513672e-01) (101, 2.25018215179443359375e+01) (102, 2.24389572143554687500e+01) (103, 5.73296666145324707031e-01) (104, 7.26594686508178710938e-01) (105, 2.00050020217895507812e+00) (106, 1.36359632015228271484e-01) (107, 8.86126756668090820312e-02) (108, 1.96799671649932861328e+00) (109, 2.72500801086425781250e+00) (110, 2.49454647302627563477e-01) (111, 1.94796216487884521484e+00) (112, 1.47177779674530029297e+00) (113, -1.21517038345336914062e+00) (114, 2.00732088088989257812e+00) (115, 1.00667500495910644531e+00) (116, 2.24793359637260437012e-01) (117, 5.08176624774932861328e-01) (118, 5.23375630378723144531e-01) (119, 6.96710571646690368652e-02) (120, 5.97713589668273925781e-01) (121, 2.12028503417968750000e-01) (122, 5.36345601081848144531e-01) (123, 2.78398036956787109375e+00) (124, 1.29053682088851928711e-01) (125, -9.19572263956069946289e-02) (0, -2.05970004200935363770e-01) (1, 3.60543155670166015625e+00) (2, -4.14471834897994995117e-01) (3, 2.63225883245468139648e-02) (4, -1.87639370560646057129e-01) (5, 8.40846896171569824219e-02) (6, -4.42427843809127807617e-01) (7, 1.85469686985015869141e+00) (8, 1.05203166604042053223e-01) (9, 5.59222579002380371094e-01) (10, -5.38198590278625488281e-01) (11, 2.24906384944915771484e-01) (12, -1.18649029731750488281e+00) (13, -2.30611428618431091309e-01) (14, 5.99320530891418457031e-01) (15, 3.10749709606170654297e-01) (16, 4.89262908697128295898e-01) (17, 1.99421256780624389648e-01) (18, -1.37032151222229003906e-01) (19, -1.09194144606590270996e-01) (20, -1.48134455084800720215e-01) (21, -6.42793327569961547852e-02) (22, 6.52598321437835693359e-01) (23, 6.04031443595886230469e-01) (24, 9.35438632965087890625e-01) (25, 3.00529432296752929688e+00) (26, 1.50831782817840576172e+00) (27, 3.29338645935058593750e+00) (28, -5.49097836017608642578e-01) (29, 2.00018811225891113281e+00) (30, 2.92531538009643554688e+00) (31, 3.90959799289703369141e-01) (32, 2.23907890319824218750e+01) (33, -7.22750499844551086426e-02) (34, 2.23710575103759765625e+01) (35, 1.52563050389289855957e-01) (36, -5.34652590751647949219e-01) (37, 2.23159370422363281250e+01) (38, -1.64491996169090270996e-01) (39, -8.55160783976316452026e-03) (40, -6.59908279776573181152e-02) (41, -2.70923882722854614258e-01) (42, 2.96768379211425781250e+00) (43, 3.21289628744125366211e-01) (44, 3.04888516664505004883e-01) (45, 3.88445472717285156250e+00) (46, 4.33009147644042968750e-01) (47, -3.26781183481216430664e-01) (48, -1.19294859468936920166e-02) (49, 4.64186251163482666016e-01) (50, -4.48166400194168090820e-01) (51, -1.80931210517883300781e-01) (52, 4.60826069116592407227e-01) (53, -2.85407662391662597656e-01) (54, 3.00781220197677612305e-01) (55, -9.00303721427917480469e-02) (56, 2.24145717620849609375e+01) (57, 3.87901216745376586914e-02) (58, 2.23879928588867187500e+01) (59, 7.87008464336395263672e-01) (60, -6.23156763613224029541e-02) (61, 5.96394576132297515869e-02) (62, -2.49793216586112976074e-01) (63, -5.13327002525329589844e-01) (64, -2.41428494453430175781e-01) (65, -3.11844706535339355469e-01) (66, -1.70549884438514709473e-01) (67, -3.86167943477630615234e-01) (68, -5.93471117317676544189e-02) (69, 7.58355569839477539062e+00) (70, 3.26685428619384765625e+00) (71, 7.30066597461700439453e-01) (72, 4.91902112960815429688e-01) (73, 2.16178700327873229980e-01) (74, 5.50275802612304687500e-01) (75, -1.35716065764427185059e-01) (76, 3.24637174606323242188e+00) (77, -3.34991246461868286133e-01) (78, 7.63801050186157226562e+00) (79, 3.28397798538208007812e+00) (80, 8.48006665706634521484e-01) (81, 3.86315017938613891602e-01) (82, 1.63808375597000122070e-01) (83, 4.40573155879974365234e-01) (84, -1.82576090097427368164e-01) (85, 3.31349229812622070312e+00) (86, -4.98345084488391876221e-02) (87, 2.24465656280517578125e+01) (88, 4.24691706895828247070e-01) (89, 4.67039525508880615234e-01) (90, -1.14952839910984039307e-01) (91, 3.29031801223754882812e+00) (92, 3.30652093887329101562e+00) (93, 6.82630911469459533691e-02) (94, 3.64752441644668579102e-01) (95, 2.24237346649169921875e+01) (96, -1.90186545252799987793e-01) (97, 8.44611227512359619141e-02) (98, 3.20832633972167968750e+00) (99, 3.29634666442871093750e+00) (100, -4.67060774564743041992e-01) (101, 2.24680366516113281250e+01) (102, 2.24103298187255859375e+01) (103, -1.45133674144744873047e-01) (104, -5.65786398947238922119e-02) (105, 5.18714427947998046875e-01) (106, 2.73200627416372299194e-02) (107, 1.55443727970123291016e+00) (108, 5.31030595302581787109e-01) (109, 9.16749179363250732422e-01) (110, -1.26250132918357849121e-01) (111, 4.52389448881149291992e-01) (112, 4.14987206459045410156e-01) (113, -2.84303426742553710938e-01) (114, 7.56607711315155029297e-01) (115, -7.42999762296676635742e-02) (116, 4.44250442087650299072e-02) (117, -2.23099812865257263184e-01) (118, -7.02095702290534973145e-02) (119, -1.53179600834846496582e-01) (120, 3.85736346244812011719e-01) (121, -1.58618420362472534180e-01) (122, 3.02682965993881225586e-02) (123, 1.58027648925781250000e-01) (124, -3.31362068653106689453e-01) (125, 2.75710672140121459961e-02) (0, 3.08756470680236816406e-01) (1, 3.77055788040161132812e+00) (2, 1.12121276557445526123e-01) (3, 6.15912377834320068359e-02) (4, 1.49344310164451599121e-01) (5, -3.91444772481918334961e-01) (6, -2.65389710664749145508e-01) (7, 1.76663827896118164062e+00) (8, 2.31086313724517822266e-02) (9, -4.16211068630218505859e-01) (10, -1.61445625126361846924e-02) (11, 2.90577769279479980469e-01) (12, -2.23859930038452148438e+00) (13, -5.17910718917846679688e-01) (14, 5.46491980552673339844e-01) (15, -3.91100674867630004883e-01) (16, 7.27942049503326416016e-01) (17, 1.46766737103462219238e-01) (18, 5.67501425743103027344e-01) (19, 2.24693894386291503906e-01) (20, -4.25511710345745086670e-02) (21, 1.04359261691570281982e-01) (22, 2.82397389411926269531e-01) (23, 1.91508978605270385742e-01) (24, 3.89080381393432617188e+00) (25, 8.66965675354003906250e+00) (26, 3.83806991577148437500e+00) (27, 8.53472042083740234375e+00) (28, -5.03753781318664550781e-01) (29, 1.85423958301544189453e+00) (30, 8.58479499816894531250e+00) (31, 2.76765316724777221680e-01) (32, 2.23451805114746093750e+01) (33, 2.00844362378120422363e-01) (34, 2.24161663055419921875e+01) (35, 1.82892665266990661621e-01) (36, -9.27948176860809326172e-01) (37, 2.24542865753173828125e+01) (38, -5.17603158950805664062e-01) (39, -6.72097057104110717773e-02) (40, -6.68133974075317382812e-01) (41, -7.26450622081756591797e-01) (42, 8.50325489044189453125e+00) (43, -2.26612821221351623535e-01) (44, 3.84821519255638122559e-02) (45, 3.82429027557373046875e+00) (46, 5.64610481262207031250e-01) (47, -4.91308450698852539062e-01) (48, -7.31824696063995361328e-01) (49, 3.69219273328781127930e-01) (50, -3.05998921394348144531e-01) (51, 5.28537444770336151123e-02) (52, 2.93989449739456176758e-01) (53, -4.38943058252334594727e-01) (54, 1.22800998389720916748e-01) (55, -3.75775456428527832031e-01) (56, 2.23407230377197265625e+01) (57, -6.44406557083129882812e-01) (58, 2.23900623321533203125e+01) (59, 4.52199071645736694336e-01) (60, -1.27785539627075195312e+00) (61, -1.16156086325645446777e-01) (62, 3.75352203845977783203e-01) (63, -3.40763002634048461914e-01) (64, -1.38243126869201660156e+00) (65, 2.65080153942108154297e-01) (66, -3.76956939697265625000e-01) (67, -4.39844638109207153320e-01) (68, 1.25906709581613540649e-03) (69, 8.64578247070312500000e+00) (70, 8.38171672821044921875e+00) (71, 5.05158185958862304688e-01) (72, 3.97072046995162963867e-01) (73, 3.38512696325778961182e-02) (74, 4.58101391792297363281e-01) (75, -2.52397596836090087891e-01) (76, 8.53853416442871093750e+00) (77, 1.35989055037498474121e-01) (78, 8.65246105194091796875e+00) (79, 8.42155265808105468750e+00) (80, 5.34562349319458007812e-01) (81, 3.03808540105819702148e-01) (82, 1.79172530770301818848e-01) (83, 4.64061141014099121094e-01) (84, 1.06486696749925613403e-02) (85, 8.39013576507568359375e+00) (86, 1.94608941674232482910e-01) (87, 2.24805259704589843750e+01) (88, 3.96269351243972778320e-01) (89, 3.21736365556716918945e-01) (90, 2.39499837160110473633e-01) (91, 8.50216197967529296875e+00) (92, 8.48669910430908203125e+00) (93, 1.77495434880256652832e-01) (94, -9.55942928791046142578e-01) (95, 2.24578533172607421875e+01) (96, -2.79755294322967529297e-01) (97, 8.07665586471557617188e-02) (98, 3.60390996932983398438e+00) (99, 8.43633079528808593750e+00) (100, -3.24094146490097045898e-01) (101, 2.23562545776367187500e+01) (102, 2.23204879760742187500e+01) (103, -1.06118190288543701172e+00) (104, -7.16244995594024658203e-01) (105, 6.23098433017730712891e-01) (106, -6.25023320317268371582e-02) (107, 1.75178921222686767578e+00) (108, 5.88441491127014160156e-01) (109, 4.67381030321121215820e-01) (110, 9.53741222620010375977e-02) (111, 5.67860364913940429688e-01) (112, -8.86923074722290039062e-03) (113, 1.24877357482910156250e+00) (114, 8.09166550636291503906e-01) (115, -9.27485048770904541016e-01) (116, -6.88192695379257202148e-02) (117, -6.14885091781616210938e-01) (118, -1.06823384761810302734e-01) (119, -2.18443185091018676758e-01) (120, 6.93987607955932617188e-01) (121, -3.74872386455535888672e-01) (122, -7.79567301273345947266e-01) (123, 1.37703180313110351562e-01) (124, -2.85820931196212768555e-01) (125, 3.42057555913925170898e-01) (0, -4.65790420770645141602e-01) (1, 2.73361897468566894531e+00) (2, 1.91087275743484497070e-01) (3, -1.80372253060340881348e-01) (4, 3.59864160418510437012e-02) (5, 2.24257450103759765625e+01) (6, 6.99753701686859130859e-01) (7, 5.49130439758300781250e-01) (8, -1.30842640995979309082e-01) (9, -1.69429823756217956543e-01) (10, 4.18693423271179199219e-01) (11, -1.45590758323669433594e+00) (12, 2.06344819068908691406e+00) (13, 5.13245880603790283203e-01) (14, 2.23570137023925781250e+01) (15, 5.43763898313045501709e-02) (16, 2.23433952331542968750e+01) (17, 7.18819648027420043945e-02) (18, -5.70525467395782470703e-01) (19, -4.79603767395019531250e-01) (20, -1.38644069433212280273e-01) (21, -1.38096719980239868164e-01) (22, 2.23226184844970703125e+01) (23, 2.24503288269042968750e+01) (24, -6.30370426177978515625e+00) (25, -2.69930982589721679688e+00) (26, -5.06368446350097656250e+00) (27, 1.14475178718566894531e+00) (28, 8.75935375690460205078e-01) (29, -4.79832649230957031250e+00) (30, -2.65366339683532714844e+00) (31, 2.87105369567871093750e+00) (32, 2.23549842834472656250e+01) (33, -2.16254651546478271484e-01) (34, 2.23175067901611328125e+01) (35, -6.22129559516906738281e-01) (36, 7.02301084995269775391e-01) (37, 2.24074192047119140625e+01) (38, 3.55776727199554443359e-01) (39, -2.57518202066421508789e-01) (40, 3.91600549221038818359e-01) (41, 3.57912600040435791016e-01) (42, -2.74899291992187500000e+00) (43, -1.41294464468955993652e-01) (44, -2.57005602121353149414e-01) (45, 3.54968595504760742188e+00) (46, 2.24321765899658203125e+01) (47, 4.13738071918487548828e-01) (48, 3.09491693973541259766e-01) (49, 2.23232707977294921875e+01) (50, 3.05494248867034912109e-01) (51, 2.39325493574142456055e-01) (52, -2.99885243177413940430e-01) (53, 3.80472123622894287109e-01) (54, -9.80860739946365356445e-02) (55, 3.65776240825653076172e-01) (56, 2.23560047149658203125e+01) (57, 6.62140250205993652344e-01) (58, 2.23093090057373046875e+01) (59, 2.23388805389404296875e+01) (60, 8.89461398124694824219e-01) (61, 8.88662815093994140625e-01) (62, -1.35675954818725585938e+00) (63, 4.09523814916610717773e-01) (64, 1.93439388275146484375e+00) (65, -2.97760009765625000000e+00) (66, -6.09405385330319404602e-03) (67, 3.72140020132064819336e-01) (68, 1.05115562677383422852e-01) (69, -7.63806343078613281250e-01) (70, 1.17480492591857910156e+00) (71, 2.23307247161865234375e+01) (72, 2.24897994995117187500e+01) (73, 1.66354298591613769531e-01) (74, 2.24812927246093750000e+01) (75, 2.36522287130355834961e-01) (76, -7.78837919235229492188e-01) (77, -5.46331554651260375977e-02) (78, -7.93599843978881835938e-01) (79, 1.22798323631286621094e+00) (80, 2.24315967559814453125e+01) (81, 2.24913959503173828125e+01) (82, 1.30688846111297607422e-01) (83, 2.24771575927734375000e+01) (84, -5.67983575165271759033e-02) (85, -1.78653097152709960938e+00) (86, 2.93467849493026733398e-01) (87, 2.24559307098388671875e+01) (88, 2.23387527465820312500e+01) (89, 2.24802207946777343750e+01) (90, -1.55778229236602783203e-01) (91, -7.20993280410766601562e-01) (92, 1.30670452117919921875e+00) (93, -1.93949967622756958008e-01) (94, 1.07432556152343750000e+00) (95, 2.23557090759277343750e+01) (96, 1.87530890107154846191e-02) (97, 2.23517379760742187500e+01) (98, -1.16292786598205566406e+00) (99, 1.30377340316772460938e+00) (100, 1.89442589879035949707e-01) (101, 2.24861907958984375000e+01) (102, 2.25001525878906250000e+01) (103, 6.94367647171020507812e-01) (104, 5.94259381294250488281e-01) (105, 2.24788742065429687500e+01) (106, -5.19536197185516357422e-01) (107, -1.26471757888793945312e+00) (108, 2.23871974945068359375e+01) (109, 2.23863773345947265625e+01) (110, -2.36466601490974426270e-02) (111, 2.23162231445312500000e+01) (112, 2.23752002716064453125e+01) (113, -1.50951600074768066406e+00) (114, 2.24908065795898437500e+01) (115, 4.83080863952636718750e-01) (116, -3.79667460918426513672e-01) (117, 9.33845937252044677734e-01) (118, -1.92904293537139892578e-01) (119, 4.21556755900382995605e-02) (120, 1.72904789447784423828e+00) (121, 1.48833066225051879883e-01) (122, 2.64182180166244506836e-01) (123, 2.24117298126220703125e+01) (124, -2.40282848477363586426e-01) (125, 3.09245139360427856445e-01) (0, -4.99325245618820190430e-01) (1, 2.80623269081115722656e+00) (2, -2.66466081142425537109e-01) (3, -1.11146181821823120117e-01) (4, 4.80934046208858489990e-02) (5, 2.23151550292968750000e+01) (6, 3.58439683914184570312e-01) (7, 5.02937316894531250000e-01) (8, -4.00643162429332733154e-02) (9, -2.96528667211532592773e-01) (10, 4.27929192781448364258e-01) (11, 6.16679072380065917969e-01) (12, 2.00894308090209960938e+00) (13, 4.36288803815841674805e-01) (14, 2.23489513397216796875e+01) (15, -3.14010754227638244629e-02) (16, 2.24990577697753906250e+01) (17, 1.24528557062149047852e-01) (18, -1.26980468630790710449e-01) (19, -3.10260355472564697266e-01) (20, -6.51626437902450561523e-02) (21, -4.70821149647235870361e-02) (22, 2.24464397430419921875e+01) (23, 2.23200511932373046875e+01) (24, -6.26896953582763671875e+00) (25, -2.76097059249877929688e+00) (26, -5.08306312561035156250e+00) (27, 1.21423745155334472656e+00) (28, 9.99125897884368896484e-01) (29, -4.91512775421142578125e+00) (30, -2.77505397796630859375e+00) (31, 2.84446763992309570312e+00) (32, 2.23107967376708984375e+01) (33, -9.61923450231552124023e-02) (34, 2.23601455688476562500e+01) (35, -4.92175668478012084961e-01) (36, 9.24323737621307373047e-01) (37, 2.24492187500000000000e+01) (38, 1.27281963825225830078e-01) (39, -3.65159302949905395508e-01) (40, 4.50684815645217895508e-01) (41, 4.50909405946731567383e-01) (42, -2.78750395774841308594e+00) (43, -1.36715039610862731934e-01) (44, 5.55695965886116027832e-03) (45, 3.50311231613159179688e+00) (46, 2.23509769439697265625e+01) (47, 4.70041811466217041016e-01) (48, 3.15564453601837158203e-01) (49, 2.24599552154541015625e+01) (50, 4.46425288915634155273e-01) (51, 1.51092982292175292969e+00) (52, -1.20992641896009445190e-02) (53, 3.29940319061279296875e-01) (54, -1.48809552192687988281e-01) (55, 3.41484248638153076172e-01) (56, 2.24438114166259765625e+01) (57, 5.92038393020629882812e-01) (58, 2.23545017242431640625e+01) (59, 2.24336357116699218750e+01) (60, 7.71491169929504394531e-01) (61, 8.12465310096740722656e-01) (62, -8.53118896484375000000e-01) (63, 3.78432691097259521484e-01) (64, 6.77492439746856689453e-01) (65, -2.86679077148437500000e+00) (66, -1.07231386005878448486e-01) (67, 3.91231745481491088867e-01) (68, 5.77247552573680877686e-02) (69, -7.81182289123535156250e-01) (70, 1.16187834739685058594e+00) (71, 2.23424186706542968750e+01) (72, 2.23654212951660156250e+01) (73, 8.71874243021011352539e-02) (74, 2.24975662231445312500e+01) (75, 4.88032788038253784180e-01) (76, -6.76849126815795898438e-01) (77, -1.19558401405811309814e-01) (78, -7.61032819747924804688e-01) (79, 1.13604474067687988281e+00) (80, 2.23033542633056640625e+01) (81, 2.23496093750000000000e+01) (82, 1.18304491043090820312e-01) (83, 2.24898872375488281250e+01) (84, 1.69237658381462097168e-01) (85, -1.84963893890380859375e+00) (86, -3.92801798880100250244e-02) (87, 2.23514213562011718750e+01) (88, 2.24055423736572265625e+01) (89, 2.23138542175292968750e+01) (90, -3.66869680583477020264e-02) (91, -8.41106653213500976562e-01) (92, 1.26413893699645996094e+00) (93, -1.35534837841987609863e-01) (94, 1.17461180686950683594e+00) (95, 2.24533195495605468750e+01) (96, -3.39195355772972106934e-02) (97, 2.24993972778320312500e+01) (98, -1.21936440467834472656e+00) (99, 1.22560667991638183594e+00) (100, 1.68635234236717224121e-01) (101, 2.24168262481689453125e+01) (102, 2.24336795806884765625e+01) (103, 7.00270414352416992188e-01) (104, 6.24120354652404785156e-01) (105, 2.24286727905273437500e+01) (106, -5.37370145320892333984e-01) (107, -1.28352975845336914062e+00) (108, 2.24720726013183593750e+01) (109, 2.24011096954345703125e+01) (110, 1.23884886503219604492e-01) (111, 2.24728546142578125000e+01) (112, 2.24481468200683593750e+01) (113, -1.43265080451965332031e+00) (114, 2.24601707458496093750e+01) (115, 1.01727932691574096680e-01) (116, -8.26697796583175659180e-02) (117, 8.91647756099700927734e-01) (118, -3.20651084184646606445e-01) (119, -1.90146844834089279175e-02) (120, 1.72048151493072509766e+00) (121, 1.15198358893394470215e-01) (122, 2.24616661667823791504e-01) (123, 2.23605976104736328125e+01) (124, -2.15502455830574035645e-01) (125, -2.71141342818737030029e-03) (0, 1.25574514269828796387e-01) (1, 2.24514751434326171875e+01) (2, 3.92063587903976440430e-01) (3, 3.53351056575775146484e-01) (4, 2.15341582894325256348e-01) (5, -2.66728019714355468750e+00) (6, -3.53759974241256713867e-01) (7, 2.24738426208496093750e+01) (8, 4.00613874197006225586e-01) (9, 1.34684890508651733398e-02) (10, -1.68570786714553833008e-01) (11, 1.03676748275756835938e+00) (12, -1.24352204799652099609e+00) (13, -1.77808240056037902832e-01) (14, 2.30060386657714843750e+00) (15, -1.85952126979827880859e-01) (16, 2.20140790939331054688e+00) (17, -6.44931375980377197266e-01) (18, -1.75431556999683380127e-03) (19, 3.88958930969238281250e-01) (20, 3.09089338406920433044e-03) (21, 3.84291619062423706055e-01) (22, 9.96055364608764648438e-01) (23, 1.52117252349853515625e-01) (24, 2.23295593261718750000e+01) (25, 2.23425083160400390625e+01) (26, 2.24216690063476562500e+01) (27, 2.23843841552734375000e+01) (28, -4.56486910581588745117e-01) (29, 2.23667144775390625000e+01) (30, 2.23803043365478515625e+01) (31, -4.05754446983337402344e-02) (32, 2.23156166076660156250e+01) (33, 4.01481986045837402344e-01) (34, 2.23048019409179687500e+01) (35, 2.52526402473449707031e-01) (36, 2.28864350356161594391e-03) (37, 2.23145503997802734375e+01) (38, -6.55076444149017333984e-01) (39, 7.60586678981781005859e-01) (40, -4.18552637100219726562e-01) (41, -3.14350128173828125000e-01) (42, 2.23802261352539062500e+01) (43, 4.51785683631896972656e-01) (44, 2.51244127750396728516e-01) (45, 2.23165779113769531250e+01) (46, 2.11550807952880859375e+00) (47, -2.18799576163291931152e-01) (48, -1.04327189922332763672e+00) (49, 1.62213754653930664062e+00) (50, -1.11385665833950042725e-01) (51, -1.52597814798355102539e-01) (52, 3.42242479324340820312e-01) (53, -3.03860962390899658203e-01) (54, 3.26052159070968627930e-01) (55, -4.27367687225341796875e-01) (56, 2.24748497009277343750e+01) (57, -2.48910799622535705566e-01) (58, 2.24226093292236328125e+01) (59, 1.67122793197631835938e+00) (60, -5.26534795761108398438e-01) (61, -3.26900966465473175049e-02) (62, 6.15067183971405029297e-01) (63, -2.01465561985969543457e-01) (64, -5.09721398353576660156e-01) (65, 1.16562634706497192383e-01) (66, 2.39730164408683776855e-01) (67, -2.27465867996215820312e-01) (68, -8.24402272701263427734e-02) (69, 2.24447383880615234375e+01) (70, 2.23808898925781250000e+01) (71, 1.60982155799865722656e+00) (72, 1.41733551025390625000e+00) (73, -5.70887207984924316406e-01) (74, 1.61124324798583984375e+00) (75, -1.15197993814945220947e-01) (76, 2.24725513458251953125e+01) (77, 6.13341450691223144531e-01) (78, 2.23811988830566406250e+01) (79, 2.23684844970703125000e+01) (80, 1.79738807678222656250e+00) (81, 1.45257997512817382812e+00) (82, -6.29899263381958007812e-01) (83, 1.60862636566162109375e+00) (84, -2.34339416027069091797e-01) (85, 2.24677276611328125000e+01) (86, 3.76870214939117431641e-01) (87, 2.23064537048339843750e+01) (88, 1.50576400756835937500e+00) (89, 1.51922035217285156250e+00) (90, 4.05128002166748046875e-01) (91, 2.23064517974853515625e+01) (92, 2.24662456512451171875e+01) (93, 3.82104396820068359375e-01) (94, -1.80396521091461181641e+00) (95, 2.23344917297363281250e+01) (96, 1.69564113020896911621e-01) (97, -1.27558565139770507812e+00) (98, 2.23729705810546875000e+01) (99, 2.23240623474121093750e+01) (100, -1.37733131647109985352e-01) (101, 2.24512882232666015625e+01) (102, 2.23328971862792968750e+01) (103, -2.43973955512046813965e-01) (104, -3.31515222787857055664e-01) (105, 1.99109649658203125000e+00) (106, 8.11383187770843505859e-01) (107, 2.23772373199462890625e+01) (108, 1.96634721755981445312e+00) (109, 1.72458505630493164062e+00) (110, 4.46797639131546020508e-01) (111, 1.96274876594543457031e+00) (112, -5.41518449783325195312e-01) (113, 4.19276058673858642578e-01) (114, 3.23061060905456542969e+00) (115, -3.81737351417541503906e-01) (116, 2.02011302113533020020e-01) (117, -2.50832200050354003906e+00) (118, -1.86334058642387390137e-01) (119, 3.30317437648773193359e-01) (120, 9.70526099205017089844e-01) (121, 2.54515081644058227539e-01) (122, 1.49734333157539367676e-01) (123, 3.10285091400146484375e-01) (124, -1.79938226938247680664e-01) (125, 3.58383387327194213867e-01) (0, -6.34385108947753906250e-01) (1, 2.66521215438842773438e+00) (2, -1.85208737850189208984e-01) (3, -1.18966355919837951660e-01) (4, -2.05477159470319747925e-02) (5, 2.24442062377929687500e+01) (6, 6.56191527843475341797e-01) (7, 4.46724414825439453125e-01) (8, -8.27376395463943481445e-02) (9, -5.89906945824623107910e-02) (10, 4.35997158288955688477e-01) (11, -1.41927719116210937500e+00) (12, 2.03193855285644531250e+00) (13, 4.60166573524475097656e-01) (14, 2.24050045013427734375e+01) (15, 4.16209958493709564209e-02) (16, 2.24369163513183593750e+01) (17, 1.30815312266349792480e-01) (18, -6.57803177833557128906e-01) (19, -3.40762048959732055664e-01) (20, 2.30335108935832977295e-02) (21, -6.97214230895042419434e-02) (22, 2.23225307464599609375e+01) (23, 2.23406791687011718750e+01) (24, -6.29282188415527343750e+00) (25, -2.79003620147705078125e+00) (26, -5.04554653167724609375e+00) (27, 1.25501608848571777344e+00) (28, 8.84304106235504150391e-01) (29, -4.81430530548095703125e+00) (30, -2.69358730316162109375e+00) (31, 2.76649999618530273438e+00) (32, 2.24705982208251953125e+01) (33, -3.71588505804538726807e-02) (34, 2.24743595123291015625e+01) (35, -4.02977973222732543945e-01) (36, 4.02273058891296386719e-01) (37, 2.23207092285156250000e+01) (38, 2.54169076681137084961e-01) (39, -3.70987504720687866211e-01) (40, 5.20293891429901123047e-01) (41, 4.73608702421188354492e-01) (42, -2.82583189010620117188e+00) (43, -9.69875976443290710449e-02) (44, 5.76726123690605163574e-02) (45, 3.52083826065063476562e+00) (46, 2.24637279510498046875e+01) (47, 3.69875133037567138672e-01) (48, 3.39577168226242065430e-01) (49, 2.24675445556640625000e+01) (50, 4.75720256567001342773e-01) (51, 1.42313885688781738281e+00) (52, -2.71480660885572433472e-02) (53, 2.75361478328704833984e-01) (54, -2.15972274541854858398e-01) (55, 3.02582323551177978516e-01) (56, 2.23601665496826171875e+01) (57, 5.62392234802246093750e-01) (58, 2.23563785552978515625e+01) (59, 2.24070835113525390625e+01) (60, 9.73734140396118164062e-01) (61, 6.95808649063110351562e-01) (62, -4.92517918348312377930e-01) (63, 4.05553907155990600586e-01) (64, 9.50935959815979003906e-01) (65, -2.85709762573242187500e+00) (66, -5.40919648483395576477e-03) (67, 2.53462880849838256836e-01) (68, 1.38907715678215026855e-01) (69, -8.64728927612304687500e-01) (70, 1.23775219917297363281e+00) (71, 2.24403324127197265625e+01) (72, 2.23045730590820312500e+01) (73, 1.24733671545982360840e-01) (74, 2.24352092742919921875e+01) (75, 3.89159709215164184570e-01) (76, -8.21576833724975585938e-01) (77, -6.91660195589065551758e-02) (78, -7.60072708129882812500e-01) (79, 1.21532940864562988281e+00) (80, 2.23613376617431640625e+01) (81, 2.24199008941650390625e+01) (82, 1.09798297286033630371e-01) (83, 2.23328208923339843750e+01) (84, -3.34029980003833770752e-02) (85, -1.72530794143676757812e+00) (86, -3.52478660643100738525e-02) (87, 2.24834899902343750000e+01) (88, 2.25002269744873046875e+01) (89, 2.23197631835937500000e+01) (90, -1.13202556967735290527e-01) (91, -6.75245046615600585938e-01) (92, 1.15339112281799316406e+00) (93, -1.34537622332572937012e-01) (94, 1.11996054649353027344e+00) (95, 2.24849472045898437500e+01) (96, -1.33233540691435337067e-03) (97, 2.23980579376220703125e+01) (98, -1.25727295875549316406e+00) (99, 1.31748008728027343750e+00) (100, 1.34839847683906555176e-01) (101, 2.24547920227050781250e+01) (102, 2.24234676361083984375e+01) (103, 6.54538273811340332031e-01) (104, 6.01847290992736816406e-01) (105, 2.23561038970947265625e+01) (106, -4.33118075132369995117e-01) (107, -1.35274648666381835938e+00) (108, 2.24498958587646484375e+01) (109, 2.24574642181396484375e+01) (110, 1.33953705430030822754e-01) (111, 2.23086624145507812500e+01) (112, 2.23747940063476562500e+01) (113, -1.43108820915222167969e+00) (114, 2.23389110565185546875e+01) (115, 3.70213359594345092773e-01) (116, -1.56776115298271179199e-01) (117, 9.74420845508575439453e-01) (118, -5.74306137859821319580e-02) (119, 1.56399689149111509323e-03) (120, 1.60916376113891601562e+00) (121, 9.51430797576904296875e-02) (122, 2.11056545376777648926e-01) (123, 2.23385334014892578125e+01) (124, -2.34560504555702209473e-01) (125, -1.94321535527706146240e-02) (0, -1.37315702438354492188e+00) (1, 2.79186964035034179688e+00) (2, -1.23946264386177062988e-01) (3, -1.49450898170471191406e-01) (4, 6.77537024021148681641e-02) (5, 2.24993801116943359375e+01) (6, 6.29212081432342529297e-01) (7, 4.25596237182617187500e-01) (8, 2.67328452318906784058e-02) (9, -8.11528936028480529785e-02) (10, 8.22192505002021789551e-02) (11, -1.45357942581176757812e+00) (12, 2.20592403411865234375e+00) (13, -8.45201611518859863281e-02) (14, 2.24019985198974609375e+01) (15, 6.48981034755706787109e-02) (16, 2.23540840148925781250e+01) (17, 1.77168592810630798340e-01) (18, -2.58338063955307006836e-01) (19, -4.07129019498825073242e-01) (20, 1.04667656123638153076e-02) (21, 6.72959536314010620117e-02) (22, 2.23901462554931640625e+01) (23, 2.24462280273437500000e+01) (24, -6.45346450805664062500e+00) (25, -2.73714852333068847656e+00) (26, -5.21057605743408203125e+00) (27, 1.17661595344543457031e+00) (28, 9.77836310863494873047e-01) (29, -4.83691787719726562500e+00) (30, -2.82016587257385253906e+00) (31, 2.85113239288330078125e+00) (32, 2.23746433258056640625e+01) (33, -1.02475002408027648926e-01) (34, 2.23285064697265625000e+01) (35, -2.10632011294364929199e-01) (36, 9.30353343486785888672e-01) (37, 2.23478775024414062500e+01) (38, 4.47859972715377807617e-01) (39, -3.94058436155319213867e-01) (40, 6.66521906852722167969e-01) (41, 6.68818533420562744141e-01) (42, -2.68320512771606445312e+00) (43, 5.85295632481575012207e-03) (44, 2.66425877809524536133e-01) (45, 3.46045732498168945312e+00) (46, 2.24279251098632812500e+01) (47, -4.46198973804712295532e-03) (48, 1.44165658950805664062e+00) (49, 2.23116283416748046875e+01) (50, 3.37627500295639038086e-01) (51, 1.59654426574707031250e+00) (52, -6.40147179365158081055e-02) (53, 1.62859745323657989502e-02) (54, -9.09900888800621032715e-02) (55, 3.23040902614593505859e-01) (56, 2.24178256988525390625e+01) (57, 6.76317155361175537109e-01) (58, 2.24984359741210937500e+01) (59, 2.23582744598388671875e+01) (60, 8.65046322345733642578e-01) (61, 7.11288690567016601562e-01) (62, -6.56694293022155761719e-01) (63, 4.84507471323013305664e-01) (64, 9.01099860668182373047e-01) (65, -2.96712636947631835938e+00) (66, 1.47148579359054565430e-01) (67, 2.88579374551773071289e-01) (68, 5.60476593673229217529e-02) (69, -7.05808401107788085938e-01) (70, 1.15470385551452636719e+00) (71, 2.23244075775146484375e+01) (72, 2.24265346527099609375e+01) (73, 1.84311926364898681641e-01) (74, 2.24602031707763671875e+01) (75, -7.05265998840332031250e-02) (76, -8.22379827499389648438e-01) (77, 6.75256736576557159424e-03) (78, -7.48237371444702148438e-01) (79, 1.20049929618835449219e+00) (80, 2.23946151733398437500e+01) (81, 2.23688907623291015625e+01) (82, 6.83734938502311706543e-02) (83, 2.23472003936767578125e+01) (84, -3.29288482666015625000e-01) (85, -1.88777828216552734375e+00) (86, -4.11001848988234996796e-04) (87, 2.24949092864990234375e+01) (88, 2.24516830444335937500e+01) (89, 2.24966583251953125000e+01) (90, -1.68559566140174865723e-01) (91, -8.32478761672973632812e-01) (92, 1.14576697349548339844e+00) (93, -1.36103197932243347168e-01) (94, 1.15808391571044921875e+00) (95, 2.24274883270263671875e+01) (96, 8.70735719799995422363e-02) (97, 2.24238834381103515625e+01) (98, -1.17471098899841308594e+00) (99, 1.32302570343017578125e+00) (100, 2.39098176360130310059e-01) (101, 2.24543056488037109375e+01) (102, 2.23130893707275390625e+01) (103, 5.61245381832122802734e-01) (104, 6.60938858985900878906e-01) (105, 2.24707202911376953125e+01) (106, -3.18097203969955444336e-01) (107, -1.29445695877075195312e+00) (108, 2.23537063598632812500e+01) (109, 2.23843212127685546875e+01) (110, -2.25878041237592697144e-02) (111, 2.24457473754882812500e+01) (112, 2.24506397247314453125e+01) (113, -1.42905449867248535156e+00) (114, 2.24903755187988281250e+01) (115, 3.73748362064361572266e-01) (116, -1.17212817072868347168e-01) (117, 1.78482383489608764648e-01) (118, -3.00815314054489135742e-01) (119, -7.41824507713317871094e-03) (120, 1.77236092090606689453e+00) (121, 7.10513442754745483398e-02) (122, 2.44840934872627258301e-01) (123, 2.24941043853759765625e+01) (124, -3.12968164682388305664e-01) (125, -1.47524505853652954102e-01) (0, -5.45172631740570068359e-01) (1, 2.68234753608703613281e+00) (2, -2.62125711888074874878e-02) (3, -1.68776854872703552246e-01) (4, -3.62225435674190521240e-02) (5, 2.23818607330322265625e+01) (6, 8.09399425983428955078e-01) (7, 4.11241054534912109375e-01) (8, -1.06479689478874206543e-01) (9, -7.99451842904090881348e-02) (10, 6.00799843668937683105e-02) (11, -1.54937100410461425781e+00) (12, 2.10349178314208984375e+00) (13, -8.04499387741088867188e-02) (14, 2.24330615997314453125e+01) (15, 5.92449307441711425781e-03) (16, 2.24952411651611328125e+01) (17, 8.40788334608078002930e-02) (18, -6.34856879711151123047e-01) (19, -3.14507454633712768555e-01) (20, -5.30162043869495391846e-02) (21, 4.99193482100963592529e-02) (22, 2.24690704345703125000e+01) (23, 2.24237709045410156250e+01) (24, -6.27982330322265625000e+00) (25, -2.69502806663513183594e+00) (26, -5.02939414978027343750e+00) (27, 1.18404126167297363281e+00) (28, 9.75529372692108154297e-01) (29, -4.85366535186767578125e+00) (30, -2.74083256721496582031e+00) (31, 2.74693775177001953125e+00) (32, 2.24483737945556640625e+01) (33, -1.25408038496971130371e-01) (34, 2.24049854278564453125e+01) (35, -2.40877255797386169434e-01) (36, 9.61814939975738525391e-01) (37, 2.24045429229736328125e+01) (38, 3.80786180496215820312e-01) (39, -3.45323652029037475586e-01) (40, 3.83174628019332885742e-01) (41, 5.45185387134552001953e-01) (42, -2.73026204109191894531e+00) (43, -1.62553235888481140137e-01) (44, 3.75609030015766620636e-03) (45, 3.44446468353271484375e+00) (46, 2.23624649047851562500e+01) (47, -9.37165319919586181641e-02) (48, 4.16467249393463134766e-01) (49, 2.23892288208007812500e+01) (50, 3.06383281946182250977e-01) (51, 1.42397928237915039062e+00) (52, -1.85823172330856323242e-01) (53, -1.54355745762586593628e-02) (54, -8.60116705298423767090e-02) (55, 3.56905758380889892578e-01) (56, 2.24323787689208984375e+01) (57, 6.62476778030395507812e-01) (58, 2.23397274017333984375e+01) (59, 2.23705196380615234375e+01) (60, 8.34459006786346435547e-01) (61, 8.31912398338317871094e-01) (62, -1.24923515319824218750e+00) (63, 5.00787913799285888672e-01) (64, 7.98790514469146728516e-01) (65, -2.98259639739990234375e+00) (66, -4.80796443298459053040e-03) (67, 4.41960424184799194336e-01) (68, 9.72444713115692138672e-02) (69, -7.37510681152343750000e-01) (70, 1.16067671775817871094e+00) (71, 2.24615516662597656250e+01) (72, 2.24504909515380859375e+01) (73, 1.43227785825729370117e-01) (74, 2.23908596038818359375e+01) (75, 4.81161445379257202148e-01) (76, -6.79456472396850585938e-01) (77, -1.47764245048165321350e-02) (78, -8.63662242889404296875e-01) (79, 1.23434042930603027344e+00) (80, 2.23374099731445312500e+01) (81, 2.23469753265380859375e+01) (82, 1.29649430513381958008e-01) (83, 2.23502197265625000000e+01) (84, -1.29126876592636108398e-01) (85, -1.82152414321899414062e+00) (86, -1.63525879383087158203e-01) (87, 2.24599781036376953125e+01) (88, 2.23040962219238281250e+01) (89, 2.23748340606689453125e+01) (90, -1.73279047012329101562e-01) (91, -8.10652017593383789062e-01) (92, 1.14456629753112792969e+00) (93, -5.07398881018161773682e-02) (94, 1.02305424213409423828e+00) (95, 2.23239765167236328125e+01) (96, 1.56966939568519592285e-01) (97, 2.25017528533935546875e+01) (98, -1.12098312377929687500e+00) (99, 1.23411583900451660156e+00) (100, 1.65753021836280822754e-01) (101, 2.23140068054199218750e+01) (102, 2.23613224029541015625e+01) (103, 6.31369769573211669922e-01) (104, 6.79555356502532958984e-01) (105, 2.24496097564697265625e+01) (106, -3.64284843206405639648e-01) (107, -1.33291769027709960938e+00) (108, 2.23977909088134765625e+01) (109, 2.24227085113525390625e+01) (110, -2.72068064659833908081e-02) (111, 2.24326305389404296875e+01) (112, 2.24671115875244140625e+01) (113, -1.37239766120910644531e+00) (114, 2.24802780151367187500e+01) (115, 5.02663016319274902344e-01) (116, -1.94301560521125793457e-01) (117, 7.87509977817535400391e-01) (118, 2.89834052324295043945e-01) (119, -3.20930741727352142334e-02) (120, 1.67732393741607666016e+00) (121, 2.08146572113037109375e-01) (122, 2.41992726922035217285e-01) (123, 2.23978672027587890625e+01) (124, -2.37759307026863098145e-01) (125, -8.54023396968841552734e-02) (0, -5.44920444488525390625e-01) (1, 2.74696993827819824219e+00) (2, -8.62216204404830932617e-02) (3, -1.14796802401542663574e-01) (4, 1.39490172266960144043e-01) (5, 2.23680191040039062500e+01) (6, 3.82605493068695068359e-01) (7, 4.35186386108398437500e-01) (8, -1.05637900531291961670e-01) (9, -1.47648066282272338867e-01) (10, 3.30914378166198730469e-01) (11, -1.53927683830261230469e+00) (12, 2.19732880592346191406e+00) (13, 4.34469938278198242188e-01) (14, 2.24815444946289062500e+01) (15, -1.04857474565505981445e-01) (16, 2.23290424346923828125e+01) (17, 1.49031206965446472168e-01) (18, -4.88981992006301879883e-01) (19, -4.90803360939025878906e-01) (20, -2.10778601467609405518e-02) (21, 1.18705481290817260742e-01) (22, 2.23195610046386718750e+01) (23, 2.23877639770507812500e+01) (24, -6.43571281433105468750e+00) (25, -2.73957371711730957031e+00) (26, -5.15603733062744140625e+00) (27, 1.22530436515808105469e+00) (28, 8.90418350696563720703e-01) (29, -4.78557777404785156250e+00) (30, -2.83744740486145019531e+00) (31, 2.80640697479248046875e+00) (32, 2.23810844421386718750e+01) (33, -8.20319354534149169922e-02) (34, 2.23184356689453125000e+01) (35, -3.32455039024353027344e-01) (36, 4.81212526559829711914e-01) (37, 2.24316730499267578125e+01) (38, 3.13153862953186035156e-01) (39, -2.59508162736892700195e-01) (40, 5.42601406574249267578e-01) (41, 4.27510708570480346680e-01) (42, -2.83435225486755371094e+00) (43, -1.09289519488811492920e-01) (44, -1.41220251098275184631e-02) (45, 3.58885622024536132812e+00) (46, 2.23049468994140625000e+01) (47, 3.90207231044769287109e-01) (48, 4.25810903310775756836e-01) (49, 2.24775867462158203125e+01) (50, 3.46011012792587280273e-01) (51, 1.46526122093200683594e+00) (52, -2.86805313080549240112e-02) (53, 3.42683762311935424805e-01) (54, -1.26765787601470947266e-01) (55, 3.58159720897674560547e-01) (56, 2.24779510498046875000e+01) (57, 5.41108131408691406250e-01) (58, 2.23822441101074218750e+01) (59, 2.24753112792968750000e+01) (60, 9.81177210807800292969e-01) (61, 7.77814507484436035156e-01) (62, -1.28497552871704101562e+00) (63, 3.23482096195220947266e-01) (64, 7.88068711757659912109e-01) (65, -2.90488767623901367188e+00) (66, 1.47897034883499145508e-01) (67, 3.69535028934478759766e-01) (68, 2.08299700170755386353e-03) (69, -8.17293167114257812500e-01) (70, 1.26530385017395019531e+00) (71, 2.23258152008056640625e+01) (72, 2.23059120178222656250e+01) (73, 1.43764823675155639648e-01) (74, 2.23083896636962890625e+01) (75, 3.18702965974807739258e-01) (76, -7.34527826309204101562e-01) (77, -1.54765635728836059570e-01) (78, -8.10197353363037109375e-01) (79, 1.18861222267150878906e+00) (80, 2.24857788085937500000e+01) (81, 2.24400672912597656250e+01) (82, 1.25203445553779602051e-01) (83, 2.24557304382324218750e+01) (84, -1.45914524793624877930e-01) (85, -1.82069635391235351562e+00) (86, -5.67619837820529937744e-02) (87, 2.24887638092041015625e+01) (88, 2.23835544586181640625e+01) (89, 2.23241138458251953125e+01) (90, -5.76699227094650268555e-02) (91, -7.84474611282348632812e-01) (92, 1.23974919319152832031e+00) (93, -1.52903199195861816406e-01) (94, 1.12865936756134033203e+00) (95, 2.24084377288818359375e+01) (96, 1.32512465119361877441e-01) (97, 2.23952083587646484375e+01) (98, -1.21771025657653808594e+00) (99, 1.31449985504150390625e+00) (100, 1.79425671696662902832e-01) (101, 2.23219070434570312500e+01) (102, 2.23059711456298828125e+01) (103, 7.00462043285369873047e-01) (104, 6.87992632389068603516e-01) (105, 2.23117885589599609375e+01) (106, -2.57651031017303466797e-01) (107, -1.37955141067504882812e+00) (108, 2.23199806213378906250e+01) (109, 2.23828067779541015625e+01) (110, 8.04308205842971801758e-02) (111, 2.23031864166259765625e+01) (112, 2.23203029632568359375e+01) (113, -1.46920609474182128906e+00) (114, 2.24563446044921875000e+01) (115, 3.39067429304122924805e-01) (116, -9.02822017669677734375e-02) (117, 8.70340406894683837891e-01) (118, -3.04085940122604370117e-01) (119, -4.86146360635757446289e-02) (120, 1.70943534374237060547e+00) (121, 2.06914186477661132812e-01) (122, 2.51648455858230590820e-01) (123, 2.23251609802246093750e+01) (124, -3.41154992580413818359e-01) (125, -1.70141518115997314453e-01) (0, 3.24444144964218139648e-01) (1, 1.00624036788940429688e+00) (2, -1.98451888561248779297e+00) (3, -2.08881354331970214844e+00) (4, -1.02843344211578369141e+00) (5, -1.74141913652420043945e-01) (6, -2.30398595333099365234e-01) (7, 5.95644652843475341797e-01) (8, -2.04776215553283691406e+00) (9, -4.70061689615249633789e-01) (10, -1.72189331054687500000e+00) (11, -9.91603732109069824219e-03) (12, 9.28672552108764648438e-02) (13, 3.75597812235355377197e-02) (14, 5.25465250015258789062e-01) (15, -5.98307907581329345703e-01) (16, 5.66858291625976562500e-01) (17, -1.01774609088897705078e+00) (18, 4.85590130090713500977e-01) (19, -7.97254562377929687500e-01) (20, 3.17348122596740722656e-01) (21, -3.91818380355834960938e+00) (22, 5.46817600727081298828e-01) (23, 4.59026515483856201172e-01) (24, 1.41401898860931396484e+00) (25, 3.02894639968872070312e+00) (26, 2.62484252452850341797e-02) (27, 8.64784419536590576172e-01) (28, -7.55766779184341430664e-02) (29, 1.10417664051055908203e+00) (30, 2.99593114852905273438e+00) (31, 4.88512903451919555664e-01) (32, 2.24616069793701171875e+01) (33, -2.07235383987426757812e+00) (34, 2.24156303405761718750e+01) (35, -1.99867153167724609375e+00) (36, 3.23637016117572784424e-02) (37, 2.24517955780029296875e+01) (38, -1.30964612960815429688e+00) (39, 1.22066333889961242676e-01) (40, -2.49509498476982116699e-01) (41, -2.24477887153625488281e-01) (42, 2.91972684860229492188e+00) (43, -1.58916556835174560547e+00) (44, -1.50729465484619140625e+00) (45, 1.14202904701232910156e+00) (46, 5.06789684295654296875e-01) (47, -3.83148998022079467773e-01) (48, 2.82829761505126953125e-01) (49, 6.17987811565399169922e-01) (50, 1.89982466399669647217e-02) (51, -4.98229682445526123047e-01) (52, -2.01196312904357910156e+00) (53, -3.02931368350982666016e-01) (54, -1.35964441299438476562e+00) (55, -5.21747708320617675781e-01) (56, 2.23835067749023437500e+01) (57, -4.49716672301292419434e-03) (58, 2.24817466735839843750e+01) (59, 5.67528128623962402344e-01) (60, 6.85369297862052917480e-02) (61, 8.60665738582611083984e-02) (62, -3.61634850502014160156e-01) (63, -1.12637177109718322754e-01) (64, 4.30350713431835174561e-02) (65, 1.38736620545387268066e-01) (66, -2.41578385233879089355e-01) (67, -9.87299978733062744141e-02) (68, -1.58718883991241455078e-01) (69, -3.85973453521728515625e-02) (70, 8.05879354476928710938e-01) (71, 6.69004619121551513672e-01) (72, 4.91832107305526733398e-01) (73, -8.90516579151153564453e-01) (74, 6.87798082828521728516e-01) (75, -1.31650000810623168945e-01) (76, -1.55874490737915039062e-02) (77, 4.64550815522670745850e-02) (78, -4.74865436553955078125e-02) (79, 9.43046450614929199219e-01) (80, 6.17926657199859619141e-01) (81, 5.71835935115814208984e-01) (82, -2.44446352124214172363e-01) (83, 7.11609065532684326172e-01) (84, -1.12722679972648620605e-01) (85, -2.96275854110717773438e-01) (86, -2.01735854148864746094e+00) (87, 2.24152736663818359375e+01) (88, 5.40561318397521972656e-01) (89, 5.43287634849548339844e-01) (90, -1.94423949718475341797e+00) (91, 8.80916118621826171875e-02) (92, 9.39913034439086914062e-01) (93, -1.99930918216705322266e+00) (94, 1.22905589640140533447e-01) (95, 2.23860073089599609375e+01) (96, -3.78084748983383178711e-01) (97, 1.16026341915130615234e-01) (98, -1.06542348861694335938e-01) (99, 9.52646374702453613281e-01) (100, -3.91195751726627349854e-02) (101, 2.24565353393554687500e+01) (102, 2.24242897033691406250e+01) (103, -5.54568409919738769531e-01) (104, -6.61253035068511962891e-01) (105, 5.66516935825347900391e-01) (106, -4.18590694665908813477e-01) (107, 3.70899051427841186523e-01) (108, 5.66455841064453125000e-01) (109, 4.94407534599304199219e-01) (110, -1.16587150096893310547e+00) (111, 6.65559053421020507812e-01) (112, 1.61366641521453857422e-01) (113, 1.64706632494926452637e-01) (114, 9.80813086032867431641e-01) (115, -1.38047397136688232422e+00) (116, -2.03851985931396484375e+00) (117, -1.80064707994461059570e-01) (118, -9.21551227569580078125e-01) (119, -1.28176927566528320312e+00) (120, 8.60995292663574218750e-01) (121, -9.14192795753479003906e-01) (122, -4.75530236959457397461e-01) (123, 3.57905387878417968750e-01) (124, -5.01001179218292236328e-01) (125, -2.06682538986206054688e+00) (0, -1.21098804473876953125e+00) (1, 2.84634351730346679688e+00) (2, 3.12727987766265869141e-01) (3, -1.67673259973526000977e-01) (4, 1.10628679394721984863e-01) (5, 2.23549919128417968750e+01) (6, 3.33028882741928100586e-01) (7, 4.69292163848876953125e-01) (8, -1.33630022406578063965e-01) (9, -1.49708092212677001953e-01) (10, 5.08674025535583496094e-01) (11, -1.49010133743286132812e+00) (12, 2.13315463066101074219e+00) (13, 4.07640874385833740234e-01) (14, 2.23330478668212890625e+01) (15, 1.27612054347991943359e-02) (16, 2.23618888854980468750e+01) (17, 5.44704981148242950439e-02) (18, -1.85928857326507568359e+00) (19, -4.53143596649169921875e-01) (20, -2.61357843875885009766e-01) (21, 1.22714806348085403442e-02) (22, 2.24152145385742187500e+01) (23, 2.23647041320800781250e+01) (24, -6.43410778045654296875e+00) (25, -2.79072618484497070312e+00) (26, -5.02964401245117187500e+00) (27, 1.22412562370300292969e+00) (28, 8.73289763927459716797e-01) (29, -4.95129013061523437500e+00) (30, -2.71303629875183105469e+00) (31, 2.82083463668823242188e+00) (32, 2.23147449493408203125e+01) (33, -2.01720565557479858398e-01) (34, 2.23407592773437500000e+01) (35, -3.12580615282058715820e-01) (36, 8.21130931377410888672e-01) (37, 2.24044189453125000000e+01) (38, 2.16674193739891052246e-01) (39, -3.06090027093887329102e-01) (40, 4.78444486856460571289e-01) (41, 4.21254217624664306641e-01) (42, -2.83175849914550781250e+00) (43, -1.84743806719779968262e-01) (44, 7.57146850228309631348e-02) (45, 3.44295310974121093750e+00) (46, 2.23471107482910156250e+01) (47, 5.12890517711639404297e-01) (48, 3.85347336530685424805e-01) (49, 2.23684902191162109375e+01) (50, 3.15835207700729370117e-01) (51, 3.96289616823196411133e-01) (52, -1.91024392843246459961e-01) (53, 3.98680090904235839844e-01) (54, -2.26745977997779846191e-01) (55, -1.44939035177230834961e-01) (56, 2.24827957153320312500e+01) (57, 5.67520797252655029297e-01) (58, 2.23671398162841796875e+01) (59, 2.24307765960693359375e+01) (60, 8.41878294944763183594e-01) (61, 8.87121081352233886719e-01) (62, -1.31508135795593261719e+00) (63, 1.98673933744430541992e-01) (64, 8.56426477432250976562e-01) (65, -2.91267013549804687500e+00) (66, 4.70602288842201232910e-02) (67, 3.29120427370071411133e-01) (68, 1.67046666145324707031e-01) (69, -7.79223680496215820312e-01) (70, 1.23310446739196777344e+00) (71, 2.24794998168945312500e+01) (72, 2.24606456756591796875e+01) (73, 1.14159017801284790039e-01) (74, 2.23866176605224609375e+01) (75, 1.70433506369590759277e-01) (76, -7.10036516189575195312e-01) (77, -3.43718677759170532227e-02) (78, -8.42942237854003906250e-01) (79, 1.17264008522033691406e+00) (80, 2.24970760345458984375e+01) (81, 2.23676662445068359375e+01) (82, 3.23097631335258483887e-02) (83, 2.24514961242675781250e+01) (84, 1.22197270393371582031e-01) (85, -1.81357002258300781250e+00) (86, -2.21734076738357543945e-01) (87, 2.24772014617919921875e+01) (88, 2.24170932769775390625e+01) (89, 2.24908504486083984375e+01) (90, -3.88463318347930908203e-01) (91, -6.90234899520874023438e-01) (92, 1.31579256057739257812e+00) (93, -3.91043163836002349854e-02) (94, 1.01726198196411132812e+00) (95, 2.23528404235839843750e+01) (96, 3.85285094380378723145e-02) (97, 2.23829727172851562500e+01) (98, -1.25892663002014160156e+00) (99, 1.18547987937927246094e+00) (100, 1.20334923267364501953e-01) (101, 2.24484901428222656250e+01) (102, 2.23306350708007812500e+01) (103, 6.81032299995422363281e-01) (104, 5.84970712661743164062e-01) (105, 2.24146804809570312500e+01) (106, -4.32508915662765502930e-01) (107, -1.45808267593383789062e+00) (108, 2.23432674407958984375e+01) (109, 2.23752040863037109375e+01) (110, -1.40721183270215988159e-02) (111, 2.23377704620361328125e+01) (112, 2.24402980804443359375e+01) (113, -1.45660257339477539062e+00) (114, 2.24866943359375000000e+01) (115, 4.42657470703125000000e-01) (116, -4.99645650386810302734e-01) (117, 8.82531940937042236328e-01) (118, -5.19746184349060058594e-01) (119, 4.65372111648321151733e-03) (120, 5.79057455062866210938e-01) (121, 4.28472161293029785156e-02) (122, 1.99156716465950012207e-01) (123, 2.23801326751708984375e+01) (124, -1.91423073410987854004e-01) (125, -2.80844002962112426758e-01) (0, 4.98733371496200561523e-01) (1, 2.82947731018066406250e+00) (2, -1.16820558905601501465e-01) (3, -2.32460334897041320801e-01) (4, 3.42942737042903900146e-02) (5, -1.04719829559326171875e+00) (6, -1.69337332248687744141e-01) (7, 3.10777997970581054688e+00) (8, -4.66163098812103271484e-01) (9, -3.76244008541107177734e-01) (10, -2.82458633184432983398e-01) (11, 4.89871442317962646484e-01) (12, -8.98260653018951416016e-01) (13, -4.79245573282241821289e-01) (14, 1.37863993644714355469e-01) (15, -5.30851781368255615234e-01) (16, 4.35890555381774902344e-02) (17, -5.47169506549835205078e-01) (18, 1.39170184731483459473e-01) (19, -7.39021718502044677734e-01) (20, 1.04547590017318725586e-01) (21, -2.26288318634033203125e-01) (22, 8.71866047382354736328e-01) (23, 2.31630086898803710938e-01) (24, 1.08987975120544433594e+00) (25, 3.34446954727172851562e+00) (26, 1.06698477268218994141e+00) (27, 2.99542236328125000000e+00) (28, -1.69352635741233825684e-01) (29, 2.93475008010864257812e+00) (30, 3.45573616027832031250e+00) (31, 3.19233536720275878906e-02) (32, 2.24664554595947265625e+01) (33, -1.26750573515892028809e-01) (34, 2.23617534637451171875e+01) (35, -2.23273932933807373047e-01) (36, 2.52816248685121536255e-02) (37, 2.24826602935791015625e+01) (38, -3.25291007757186889648e-01) (39, 3.92607778310775756836e-01) (40, -1.70165225863456726074e-01) (41, -1.41178593039512634277e-01) (42, 3.33882665634155273438e+00) (43, -6.81505620479583740234e-01) (44, -3.43467116355895996094e-01) (45, 3.76489114761352539062e+00) (46, 7.41400778293609619141e-01) (47, -5.11066615581512451172e-01) (48, -3.50273177027702331543e-02) (49, 7.34084546566009521484e-01) (50, 1.36865928769111633301e-01) (51, -5.92565596103668212891e-01) (52, -2.09800407290458679199e-01) (53, -3.91778707504272460938e-01) (54, -9.20915510505437850952e-03) (55, -3.39186161756515502930e-01) (56, 2.23413047790527343750e+01) (57, -1.90501689910888671875e-01) (58, 2.24045886993408203125e+01) (59, 8.84273707866668701172e-01) (60, -3.43325227499008178711e-01) (61, -4.65354360640048980713e-02) (62, 3.37428860366344451904e-02) (63, -2.24447354674339294434e-01) (64, -7.88909375667572021484e-01) (65, -8.92961025238037109375e-02) (66, -1.11677384376525878906e+00) (67, -1.97516366839408874512e-01) (68, -1.02873504161834716797e-01) (69, 6.39629125595092773438e+00) (70, 2.93052101135253906250e+00) (71, 7.63291239738464355469e-01) (72, 5.94780087471008300781e-01) (73, -8.66961777210235595703e-01) (74, 6.97855532169342041016e-01) (75, -1.05896450579166412354e-01) (76, 1.93231713771820068359e+00) (77, -1.06152713298797607422e+00) (78, 3.27164506912231445312e+00) (79, 3.04274940490722656250e+00) (80, 6.98183476924896240234e-01) (81, 6.86056256294250488281e-01) (82, -1.04361867904663085938e+00) (83, 7.78627157211303710938e-01) (84, 1.09686195850372314453e-01) (85, 1.85088622570037841797e+00) (86, -1.95824548602104187012e-01) (87, 2.24013080596923828125e+01) (88, 7.60553479194641113281e-01) (89, 7.53997385501861572266e-01) (90, -1.67990624904632568359e-01) (91, 1.82396233081817626953e+00) (92, 2.93005752563476562500e+00) (93, -8.86994749307632446289e-02) (94, -3.95317077636718750000e-01) (95, 2.23898353576660156250e+01) (96, -1.85699656605720520020e-01) (97, -9.96051907539367675781e-01) (98, 1.50371563434600830078e+00) (99, 2.90011405944824218750e+00) (100, 8.00974816083908081055e-02) (101, 2.23501853942871093750e+01) (102, 2.24068470001220703125e+01) (103, -4.90645676851272583008e-01) (104, -3.70367109775543212891e-01) (105, 6.98934674263000488281e-01) (106, 3.25094997882843017578e-01) (107, 8.14350414276123046875e+00) (108, 6.63033545017242431641e-01) (109, 7.61734366416931152344e-01) (110, -1.51266619563102722168e-01) (111, 6.72040462493896484375e-01) (112, -4.04262542724609375000e-02) (113, 8.19344043731689453125e-01) (114, 1.53541553020477294922e+00) (115, -1.95132225751876831055e-01) (116, -3.93781632184982299805e-01) (117, -7.10664391517639160156e-01) (118, -8.40124934911727905273e-02) (119, -3.86789768934249877930e-01) (120, 1.41732788085937500000e+00) (121, -2.05302977561950683594e+00) (122, 8.00532698631286621094e-02) (123, 1.39632225036621093750e-01) (124, -4.24205422401428222656e-01) (125, -8.67738574743270874023e-02) (0, 1.07358291745185852051e-01) (1, 3.80903100967407226562e+00) (2, -2.60668665170669555664e-01) (3, 3.08429688215255737305e-01) (4, 4.75535243749618530273e-01) (5, -1.03081703186035156250e-01) (6, -1.11957743763923645020e-01) (7, 3.74346590042114257812e+00) 