FANN_FLO_2.1
num_layers=3
learning_rate=0.700000
connection_rate=1.000000
network_type=0
learning_momentum=0.400000
training_algorithm=0
train_error_function=1
train_stop_function=0
cascade_output_change_fraction=0.010000
quickprop_decay=-0.000100
quickprop_mu=1.750000
rprop_increase_factor=1.200000
rprop_decrease_factor=0.500000
rprop_delta_min=0.000000
rprop_delta_max=50.000000
rprop_delta_zero=0.100000
cascade_output_stagnation_epochs=12
cascade_candidate_change_fraction=0.010000
cascade_candidate_stagnation_epochs=12
cascade_max_out_epochs=150
cascade_min_out_epochs=50
cascade_max_cand_epochs=150
cascade_min_cand_epochs=50
cascade_num_candidate_groups=2
bit_fail_limit=3.49999994039535522461e-01
cascade_candidate_limit=1.00000000000000000000e+03
cascade_weight_multiplier=4.00000005960464477539e-01
cascade_activation_functions_count=10
cascade_activation_functions=3 5 7 8 10 11 14 15 16 17 
cascade_activation_steepnesses_count=4
cascade_activation_steepnesses=2.50000000000000000000e-01 5.00000000000000000000e-01 7.50000000000000000000e-01 1.00000000000000000000e+00 
layer_sizes=49 97 4 
scale_included=0
neurons (num_inputs, activation_function, activation_steepness)=(0, 0, 0.00000000000000000000e+00) (0, 0, 0.00000000000000000000e+00) (0, 0, 0.00000000000000000000e+00) (0, 0, 0.00000000000000000000e+00) (0, 0, 0.00000000000000000000e+00) (0, 0, 0.00000000000000000000e+00) (0, 0, 0.00000000000000000000e+00) (0, 0, 0.00000000000000000000e+00) (0, 0, 0.00000000000000000000e+00) (0, 0, 0.00000000000000000000e+00) (0, 0, 0.00000000000000000000e+00) (0, 0, 0.00000000000000000000e+00) (0, 0, 0.00000000000000000000e+00) (0, 0, 0.00000000000000000000e+00) (0, 0, 0.00000000000000000000e+00) (0, 0, 0.00000000000000000000e+00) (0, 0, 0.00000000000000000000e+00) (0, 0, 0.00000000000000000000e+00) (0, 0, 0.00000000000000000000e+00) (0, 0, 0.00000000000000000000e+00) (0, 0, 0.00000000000000000000e+00) (0, 0, 0.00000000000000000000e+00) (0, 0, 0.00000000000000000000e+00) (0, 0, 0.00000000000000000000e+00) (0, 0, 0.00000000000000000000e+00) (0, 0, 0.00000000000000000000e+00) (0, 0, 0.00000000000000000000e+00) (0, 0, 0.00000000000000000000e+00) (0, 0, 0.00000000000000000000e+00) (0, 0, 0.00000000000000000000e+00) (0, 0, 0.00000000000000000000e+00) (0, 0, 0.00000000000000000000e+00) (0, 0, 0.00000000000000000000e+00) (0, 0, 0.00000000000000000000e+00) (0, 0, 0.00000000000000000000e+00) (0, 0, 0.00000000000000000000e+00) (0, 0, 0.00000000000000000000e+00) (0, 0, 0.00000000000000000000e+00) (0, 0, 0.00000000000000000000e+00) (0, 0, 0.00000000000000000000e+00) (0, 0, 0.00000000000000000000e+00) (0, 0, 0.00000000000000000000e+00) (0, 0, 0.00000000000000000000e+00) (0, 0, 0.00000000000000000000e+00) (0, 0, 0.00000000000000000000e+00) (0, 0, 0.00000000000000000000e+00) (0, 0, 0.00000000000000000000e+00) (0, 0, 0.00000000000000000000e+00) (0, 0, 0.00000000000000000000e+00) (49, 4, 5.00000000000000000000e-01) (49, 4, 5.00000000000000000000e-01) (49, 4, 5.00000000000000000000e-01) (49, 4, 5.00000000000000000000e-01) (49, 4, 5.00000000000000000000e-01) (49, 4, 5.00000000000000000000e-01) (49, 4, 5.00000000000000000000e-01) (49, 4, 5.00000000000000000000e-01) (49, 4, 5.00000000000000000000e-01) (49, 4, 5.00000000000000000000e-01) (49, 4, 5.00000000000000000000e-01) (49, 4, 5.00000000000000000000e-01) (49, 4, 5.00000000000000000000e-01) (49, 4, 5.00000000000000000000e-01) (49, 4, 5.00000000000000000000e-01) (49, 4, 5.00000000000000000000e-01) (49, 4, 5.00000000000000000000e-01) (49, 4, 5.00000000000000000000e-01) (49, 4, 5.00000000000000000000e-01) (49, 4, 5.00000000000000000000e-01) (49, 4, 5.00000000000000000000e-01) (49, 4, 5.00000000000000000000e-01) (49, 4, 5.00000000000000000000e-01) (49, 4, 5.00000000000000000000e-01) (49, 4, 5.00000000000000000000e-01) (49, 4, 5.00000000000000000000e-01) (49, 4, 5.00000000000000000000e-01) (49, 4, 5.00000000000000000000e-01) (49, 4, 5.00000000000000000000e-01) (49, 4, 5.00000000000000000000e-01) (49, 4, 5.00000000000000000000e-01) (49, 4, 5.00000000000000000000e-01) (49, 4, 5.00000000000000000000e-01) (49, 4, 5.00000000000000000000e-01) (49, 4, 5.00000000000000000000e-01) (49, 4, 5.00000000000000000000e-01) (49, 4, 5.00000000000000000000e-01) (49, 4, 5.00000000000000000000e-01) (49, 4, 5.00000000000000000000e-01) (49, 4, 5.00000000000000000000e-01) (49, 4, 5.00000000000000000000e-01) (49, 4, 5.00000000000000000000e-01) (49, 4, 5.00000000000000000000e-01) (49, 4, 5.00000000000000000000e-01) (49, 4, 5.00000000000000000000e-01) (49, 4, 5.00000000000000000000e-01) (49, 4, 5.00000000000000000000e-01) (49, 4, 5.00000000000000000000e-01) (49, 4, 5.00000000000000000000e-01) (49, 4, 5.00000000000000000000e-01) (49, 4, 5.00000000000000000000e-01) (49, 4, 5.00000000000000000000e-01) (49, 4, 5.00000000000000000000e-01) (49, 4, 5.00000000000000000000e-01) (49, 4, 5.00000000000000000000e-01) (49, 4, 5.00000000000000000000e-01) (49, 4, 5.00000000000000000000e-01) (49, 4, 5.00000000000000000000e-01) (49, 4, 5.00000000000000000000e-01) (49, 4, 5.00000000000000000000e-01) (49, 4, 5.00000000000000000000e-01) (49, 4, 5.00000000000000000000e-01) (49, 4, 5.00000000000000000000e-01) (49, 4, 5.00000000000000000000e-01) (49, 4, 5.00000000000000000000e-01) (49, 4, 5.00000000000000000000e-01) (49, 4, 5.00000000000000000000e-01) (49, 4, 5.00000000000000000000e-01) (49, 4, 5.00000000000000000000e-01) (49, 4, 5.00000000000000000000e-01) (49, 4, 5.00000000000000000000e-01) (49, 4, 5.00000000000000000000e-01) (49, 4, 5.00000000000000000000e-01) (49, 4, 5.00000000000000000000e-01) (49, 4, 5.00000000000000000000e-01) (49, 4, 5.00000000000000000000e-01) (49, 4, 5.00000000000000000000e-01) (49, 4, 5.00000000000000000000e-01) (49, 4, 5.00000000000000000000e-01) (49, 4, 5.00000000000000000000e-01) (49, 4, 5.00000000000000000000e-01) (49, 4, 5.00000000000000000000e-01) (49, 4, 5.00000000000000000000e-01) (49, 4, 5.00000000000000000000e-01) (49, 4, 5.00000000000000000000e-01) (49, 4, 5.00000000000000000000e-01) (49, 4, 5.00000000000000000000e-01) (49, 4, 5.00000000000000000000e-01) (49, 4, 5.00000000000000000000e-01) (49, 4, 5.00000000000000000000e-01) (49, 4, 5.00000000000000000000e-01) (49, 4, 5.00000000000000000000e-01) (49, 4, 5.00000000000000000000e-01) (49, 4, 5.00000000000000000000e-01) (49, 4, 5.00000000000000000000e-01) (49, 4, 5.00000000000000000000e-01) (0, 0, 0.00000000000000000000e+00) (97, 4, 5.00000000000000000000e-01) (97, 4, 5.00000000000000000000e-01) (97, 4, 5.00000000000000000000e-01) (0, 0, 0.00000000000000000000e+00) 
connections (connected_to_neuron, weight)=(0, -8.64511653780937194824e-02) (1, -1.95404410362243652344e-01) (2, -1.39054417610168457031e-01) (3, -7.91938453912734985352e-02) (4, -2.77992576360702514648e-01) (5, -2.13015362620353698730e-01) (6, -8.80329683423042297363e-02) (7, -1.07681355439126491547e-03) (8, -2.28022292256355285645e-01) (9, -3.32495868206024169922e-01) (10, -1.32760658860206604004e-01) (11, -9.89149734377861022949e-02) (12, -4.05345559120178222656e-01) (13, -1.39982447028160095215e-01) (14, 5.02126924693584442139e-02) (15, -3.30011136829853057861e-02) (16, -2.03848898410797119141e-01) (17, -4.31369364261627197266e-01) (18, -1.15940116345882415771e-01) (19, -1.67397946119308471680e-01) (20, -2.13420495390892028809e-01) (21, -2.08943948149681091309e-01) (22, -1.65138356387615203857e-02) (23, -3.70867885649204254150e-02) (24, -3.27567547559738159180e-01) (25, -2.92502433061599731445e-01) (26, -2.92828738689422607422e-01) (27, -2.56513088941574096680e-01) (28, -3.44471037387847900391e-01) (29, -4.57838959991931915283e-02) (30, -7.17166885733604431152e-02) (31, 1.94828793406486511230e-01) (32, -4.97481301426887512207e-02) (33, -3.86234730482101440430e-01) (34, -2.72864311933517456055e-01) (35, -1.70804396271705627441e-01) (36, -2.17668488621711730957e-01) (37, -4.30323295295238494873e-02) (38, -1.09970048069953918457e-02) (39, -8.13809335231781005859e-02) (40, 8.23789983987808227539e-02) (41, -1.49550944566726684570e-01) (42, 1.51067137718200683594e-01) (43, -3.85178774595260620117e-01) (44, -2.46302917599678039551e-01) (45, -1.17059044539928436279e-01) (46, 4.70196418464183807373e-02) (47, -6.10791929066181182861e-02) (48, -1.55654919147491455078e+00) (0, -4.65352497994899749756e-02) (1, -1.12322747707366943359e-01) (2, -2.05106422305107116699e-01) (3, -6.24002739787101745605e-02) (4, -2.68887281417846679688e-01) (5, -1.31616234779357910156e-01) (6, -1.86946123838424682617e-01) (7, -8.50382149219512939453e-02) (8, -1.38030514121055603027e-01) (9, -2.31990918517112731934e-01) (10, -9.13234427571296691895e-02) (11, -9.10120904445648193359e-02) (12, -2.53366768360137939453e-01) (13, -1.20859719812870025635e-01) (14, -4.72384598106145858765e-03) (15, -1.71522483229637145996e-01) (16, -1.59580513834953308105e-01) (17, -3.90373468399047851562e-01) (18, -1.39711111783981323242e-01) (19, -2.72606343030929565430e-01) (20, -2.92643696069717407227e-01) (21, -1.37498080730438232422e-01) (22, -1.14725261926651000977e-01) (23, -8.74196887016296386719e-02) (24, -1.75450131297111511230e-01) (25, -2.35111132264137268066e-01) (26, -3.46634447574615478516e-01) (27, -2.90092855691909790039e-01) (28, -2.52971708774566650391e-01) (29, -2.29797869920730590820e-01) (30, -2.03016534447669982910e-01) (31, 4.64384034276008605957e-02) (32, -1.81025519967079162598e-01) (33, -3.98070067167282104492e-01) (34, -2.55017399787902832031e-01) (35, -3.80642920732498168945e-01) (36, -2.46272161602973937988e-01) (37, -1.47729337215423583984e-01) (38, -1.00385047495365142822e-01) (39, -2.76360996067523956299e-02) (40, -2.63448891928419470787e-04) (41, -1.92054867744445800781e-01) (42, -3.99273075163364410400e-02) (43, -3.75849395990371704102e-01) (44, -2.27154985070228576660e-01) (45, -1.25327453017234802246e-01) (46, -3.33889275789260864258e-02) (47, -8.69284756481647491455e-03) (48, -1.48536360263824462891e+00) (0, -1.10576011240482330322e-01) (1, -1.86629980802536010742e-01) (2, -1.74994572997093200684e-01) (3, -2.78253704309463500977e-01) (4, 1.09305463731288909912e-01) (5, -1.07545062899589538574e-01) (6, -1.47439360618591308594e-01) (7, -1.38747826218605041504e-01) (8, 5.87557442486286163330e-02) (9, 1.22779101133346557617e-01) (10, 4.55298880115151405334e-03) (11, -5.12535348534584045410e-02) (12, -1.50669410824775695801e-01) (13, -4.80002611875534057617e-01) (14, -1.07012957334518432617e-01) (15, -1.77866574376821517944e-02) (16, 2.01664671301841735840e-01) (17, 2.60205179452896118164e-01) (18, -7.16719627380371093750e-02) (19, -1.92116126418113708496e-01) (20, 1.05045884847640991211e-01) (21, -1.78131386637687683105e-02) (22, 1.72840222716331481934e-01) (23, 2.77858376502990722656e-01) (24, 3.06559771299362182617e-01) (25, 1.21497467160224914551e-01) (26, 1.87121197581291198730e-01) (27, -4.57812622189521789551e-02) (28, -1.30167439579963684082e-01) (29, -1.62598147988319396973e-01) (30, 1.65224269032478332520e-01) (31, 2.63936072587966918945e-01) (32, -2.25437313318252563477e-01) (33, 1.34066522121429443359e-01) (34, 1.94311201572418212891e-01) (35, -9.00218337774276733398e-02) (36, 9.97925736010074615479e-03) (37, -1.16495184600353240967e-01) (38, 8.61833840608596801758e-02) (39, -4.31709550321102142334e-02) (40, -2.23174035549163818359e-01) (41, -4.28045578300952911377e-02) (42, -9.24445688724517822266e-02) (43, 6.49458393454551696777e-02) (44, -3.35327275097370147705e-02) (45, -2.23440155386924743652e-02) (46, -5.88120184838771820068e-02) (47, -1.44058883190155029297e-01) (48, -1.63839650154113769531e+00) (0, -1.28447771072387695312e-01) (1, -9.64466407895088195801e-02) (2, -3.00883561372756958008e-01) (3, -2.32395887374877929688e-01) (4, -3.28486770391464233398e-01) (5, -7.48862996697425842285e-02) (6, -9.54831838607788085938e-02) (7, -1.90613135695457458496e-01) (8, -1.47324472665786743164e-01) (9, -4.57051247358322143555e-01) (10, -3.54178279638290405273e-01) (11, -3.31346720457077026367e-01) (12, -3.32427322864532470703e-01) (13, -6.66229203343391418457e-02) (14, 1.20342560112476348877e-01) (15, 2.08105333149433135986e-02) (16, -1.79237827658653259277e-01) (17, -4.35143351554870605469e-01) (18, -3.63804161548614501953e-01) (19, -5.18912017345428466797e-01) (20, -4.60803240537643432617e-01) (21, -3.88038814067840576172e-01) (22, -3.46952736377716064453e-01) (23, -3.70270490646362304688e-01) (24, -6.42778649926185607910e-02) (25, -1.35859727859497070312e-01) (26, -3.63953530788421630859e-01) (27, -3.89017671346664428711e-01) (28, -4.93515342473983764648e-01) (29, -4.74360764026641845703e-01) (30, -4.54155743122100830078e-01) (31, -5.53254246711730957031e-01) (32, -1.41348526813089847565e-03) (33, -3.51854085922241210938e-01) (34, -3.02828460931777954102e-01) (35, -5.01764357089996337891e-01) (36, -6.41163051128387451172e-01) (37, -4.60143238306045532227e-01) (38, -4.39298450946807861328e-01) (39, -1.50744035840034484863e-01) (40, 1.14662584383040666580e-03) (41, -2.36798867583274841309e-01) (42, -5.62354363501071929932e-02) (43, -6.01236820220947265625e-01) (44, -5.57577133178710937500e-01) (45, -3.06220889091491699219e-01) (46, -1.80196747183799743652e-01) (47, -1.65961027145385742188e-01) (48, -1.03130292892456054688e+00) (0, -1.60261094570159912109e-01) (1, -9.97321829199790954590e-02) (2, -1.31366327404975891113e-01) (3, -9.22323018312454223633e-02) (4, -4.09247249364852905273e-01) (5, -1.95400983095169067383e-01) (6, -2.42528319358825683594e-02) (7, 1.93677514791488647461e-01) (8, -8.52487683296203613281e-02) (9, -2.10784018039703369141e-01) (10, -3.96991558372974395752e-02) (11, -1.80178195238113403320e-01) (12, -4.55775052309036254883e-01) (13, -1.48731842637062072754e-01) (14, -1.49982482194900512695e-01) (15, 2.48398706316947937012e-01) (16, -3.16932827234268188477e-01) (17, -6.22339434921741485596e-02) (18, -8.96009206771850585938e-02) (19, -4.04236346483230590820e-01) (20, -4.21853959560394287109e-01) (21, -3.53806793689727783203e-01) (22, -3.11160624027252197266e-01) (23, -5.40331006050109863281e-01) (24, -1.34413346648216247559e-01) (25, -1.98668148368597030640e-02) (26, -4.19198155403137207031e-01) (27, -4.21536415815353393555e-01) (28, -4.83343154191970825195e-01) (29, -4.02142286300659179688e-01) (30, -6.46621108055114746094e-01) (31, -5.77434778213500976562e-01) (32, 3.85268688201904296875e-01) (33, -3.77158194780349731445e-01) (34, -4.53796416521072387695e-01) (35, -5.95098614692687988281e-01) (36, -6.53193354606628417969e-01) (37, -5.19632041454315185547e-01) (38, -3.53229671716690063477e-01) (39, -1.43682986497879028320e-01) (40, 3.25188636779785156250e-01) (41, -1.71036377549171447754e-01) (42, -1.77525356411933898926e-01) (43, -8.02307009696960449219e-01) (44, -6.33960187435150146484e-01) (45, -4.44674879312515258789e-01) (46, -1.32195234298706054688e-01) (47, -2.03756421804428100586e-01) (48, -1.07693505287170410156e+00) (0, -5.12815713882446289062e-02) (1, -1.51269689202308654785e-01) (2, -2.62682348489761352539e-01) (3, -2.44621142745018005371e-01) (4, -1.25253032892942428589e-02) (5, 3.41482609510421752930e-02) (6, 1.79443713277578353882e-02) (7, 3.46318744122982025146e-02) (8, -7.98068791627883911133e-02) (9, -1.43948450684547424316e-01) (10, -1.12919941544532775879e-01) (11, -1.37430891394615173340e-01) (12, -2.05565214157104492188e-01) (13, -1.85983389616012573242e-01) (14, -6.85912445187568664551e-02) (15, -5.73567412793636322021e-02) (16, 4.76398393511772155762e-02) (17, 3.10755353420972824097e-02) (18, -1.21529474854469299316e-01) (19, -2.78159886598587036133e-01) (20, -1.79682612419128417969e-01) (21, -1.87365949153900146484e-01) (22, -2.04871237277984619141e-01) (23, 1.23060084879398345947e-01) (24, 7.44607821106910705566e-02) (25, 8.67158249020576477051e-02) (26, 1.26629685983061790466e-02) (27, -3.05033437907695770264e-02) (28, -3.12388211488723754883e-01) (29, -4.01942320168018341064e-02) (30, -6.33294694125652313232e-03) (31, 5.95480762422084808350e-02) (32, -9.68636646866798400879e-02) (33, 2.07782369107007980347e-02) (34, -3.59468571841716766357e-02) (35, -1.57183244824409484863e-01) (36, -1.84652999043464660645e-01) (37, -1.29119278863072395325e-02) (38, -4.75236587226390838623e-02) (39, -1.10593505203723907471e-01) (40, -9.28090661764144897461e-02) (41, -8.02755579352378845215e-02) (42, 2.82854083925485610962e-02) (43, 5.09591512382030487061e-02) (44, -6.58564120531082153320e-02) (45, 4.86358329653739929199e-02) (46, -1.16236425936222076416e-01) (47, -1.43050566315650939941e-01) (48, -1.56887173652648925781e+00) (0, -2.25577522069215774536e-02) (1, 1.07293874025344848633e-02) (2, -3.33245664834976196289e-01) (3, -4.09211099147796630859e-01) (4, -8.28273370862007141113e-02) (5, -1.19017988443374633789e-01) (6, -1.00167103111743927002e-01) (7, -1.71806700527667999268e-02) (8, -7.21631124615669250488e-02) (9, 8.43752846121788024902e-02) (10, 1.28855243325233459473e-01) (11, -7.64715597033500671387e-02) (12, -6.54200077056884765625e-01) (13, -4.16123092174530029297e-01) (14, -8.59410762786865234375e-02) (15, -2.29534491896629333496e-01) (16, 3.86546552181243896484e-01) (17, 4.65100377798080444336e-01) (18, 9.90119297057390213013e-03) (19, -1.95771187543869018555e-01) (20, -4.06941235065460205078e-01) (21, -4.19302761554718017578e-01) (22, -3.62115770578384399414e-01) (23, 2.87628442049026489258e-01) (24, 5.40067255496978759766e-01) (25, 5.27747929096221923828e-01) (26, 4.81817394495010375977e-01) (27, 2.05532506108283996582e-01) (28, -1.38879090547561645508e-01) (29, 1.53665628749877214432e-03) (30, 1.51926204562187194824e-01) (31, 1.69244781136512756348e-01) (32, -8.56447815895080566406e-02) (33, 3.52938652038574218750e-01) (34, 6.18415951728820800781e-01) (35, 4.71915841102600097656e-01) (36, 1.75070032477378845215e-01) (37, 1.38822719454765319824e-01) (38, -4.07775640487670898438e-02) (39, 7.24120140075683593750e-02) (40, -2.19149053096771240234e-01) (41, -9.52400565147399902344e-02) (42, 2.57549256086349487305e-01) (43, 4.46992009878158569336e-01) (44, 4.93376553058624267578e-01) (45, 4.91250634193420410156e-01) (46, -8.06569680571556091309e-03) (47, -1.79107502102851867676e-01) (48, -1.73708593845367431641e+00) (0, 9.04936119914054870605e-02) (1, 9.98929589986801147461e-02) (2, 7.62968929484486579895e-03) (3, -3.52871753275394439697e-02) (4, -7.07576274871826171875e-02) (5, 1.11494399607181549072e-02) (6, -8.65884497761726379395e-02) (7, -1.77319586277008056641e-01) (8, -1.28984570503234863281e-01) (9, -2.33998578041791915894e-02) (10, 4.38708923757076263428e-02) (11, -2.07038819789886474609e-01) (12, -1.52281627058982849121e-01) (13, -4.79954071342945098877e-02) (14, -6.68526440858840942383e-02) (15, -3.12223315238952636719e-01) (16, 2.18943044543266296387e-01) (17, 1.26691520214080810547e-01) (18, -6.61472827196121215820e-02) (19, -8.62366259098052978516e-02) (20, -2.98078715801239013672e-01) (21, -1.35127410292625427246e-01) (22, 5.65150268375873565674e-02) (23, 3.00097793340682983398e-01) (24, 1.84514567255973815918e-01) (25, 1.93698301911354064941e-01) (26, 1.51917830109596252441e-01) (27, 6.05647973716259002686e-02) (28, -1.76246047019958496094e-01) (29, -6.44945725798606872559e-02) (30, 2.85657197237014770508e-01) (31, 2.82114773988723754883e-01) (32, -2.25122302770614624023e-01) (33, 1.21113218367099761963e-01) (34, 2.89965271949768066406e-01) (35, 7.24695846438407897949e-02) (36, -1.98164358735084533691e-01) (37, 9.77802723646163940430e-02) (38, -3.70010710321366786957e-03) (39, -4.96145896613597869873e-02) (40, -1.51990130543708801270e-01) (41, -7.35219195485115051270e-02) (42, -1.62730384618043899536e-02) (43, 1.22010953724384307861e-01) (44, 5.43209165334701538086e-02) (45, 7.36499056220054626465e-02) (46, 9.55335516482591629028e-03) (47, 2.24062483757734298706e-02) (48, -1.65287244319915771484e+00) (0, -2.45081126689910888672e-01) (1, -7.55184218287467956543e-02) (2, -6.31768405437469482422e-02) (3, -1.23111397027969360352e-01) (4, -7.90318399667739868164e-02) (5, 1.03664524853229522705e-01) (6, -1.15581184625625610352e-01) (7, -5.41350152343511581421e-03) (8, -2.54531294107437133789e-01) (9, -5.03597129136323928833e-03) (10, 5.67601956427097320557e-02) (11, -4.49791997671127319336e-02) (12, -1.95542052388191223145e-02) (13, -1.57692283391952514648e-02) (14, -1.50092944502830505371e-01) (15, -2.48570993542671203613e-01) (16, -1.16785116493701934814e-01) (17, -8.40827822685241699219e-02) (18, 9.74636450409889221191e-02) (19, 1.43120631575584411621e-01) (20, 1.31342127919197082520e-01) (21, 2.60981529951095581055e-01) (22, 3.11418712139129638672e-01) (23, 1.90902557224035263062e-02) (24, -3.80261312238872051239e-03) (25, -3.85253578424453735352e-02) (26, -1.73228420317173004150e-02) (27, 1.27350492402911186218e-02) (28, -2.28864047676324844360e-02) (29, 3.14602762460708618164e-01) (30, 1.71081393957138061523e-01) (31, 2.80918359756469726562e-01) (32, 2.01319381594657897949e-02) (33, 3.47517728805541992188e-02) (34, 2.26749002933502197266e-01) (35, 3.74130398035049438477e-01) (36, 1.34686499834060668945e-01) (37, 1.53201177716255187988e-01) (38, 2.26710677146911621094e-01) (39, -1.43763825297355651855e-01) (40, 8.52611288428306579590e-02) (41, 2.04526454210281372070e-01) (42, 1.91489562392234802246e-01) (43, 1.39705702662467956543e-01) (44, -1.11885905265808105469e-01) (45, -5.67336082458496093750e-02) (46, -2.37138152122497558594e-01) (47, -1.09320126473903656006e-01) (48, -1.68800163269042968750e+00) (0, -1.04164019227027893066e-01) (1, 6.34379535913467407227e-02) (2, 1.86391696333885192871e-02) (3, -2.30907455086708068848e-01) (4, 3.62781226634979248047e-01) (5, 1.02785103023052215576e-01) (6, -1.10458560287952423096e-01) (7, -4.41462546586990356445e-02) (8, -3.54350715875625610352e-01) (9, 5.36130368709564208984e-01) (10, 2.79231220483779907227e-01) (11, 1.17841646075248718262e-01) (12, -4.55119848251342773438e-01) (13, -4.34666335582733154297e-01) (14, -3.37910175323486328125e-01) (15, -3.44634294509887695312e-01) (16, 4.63460892438888549805e-01) (17, 7.02973842620849609375e-01) (18, 1.82753592729568481445e-01) (19, 3.36602598428726196289e-01) (20, -7.55873546004295349121e-02) (21, 2.45418205857276916504e-01) (22, 3.36131602525711059570e-01) (23, 9.51107144355773925781e-01) (24, 5.87993919849395751953e-01) (25, 5.49360215663909912109e-01) (26, 5.33705413341522216797e-01) (27, 2.51702785491943359375e-01) (28, -1.65338128805160522461e-01) (29, 6.21751010417938232422e-01) (30, 7.54392862319946289062e-01) (31, 1.13228380680084228516e+00) (32, -3.88447530567646026611e-02) (33, 8.48712623119354248047e-01) (34, 1.07679939270019531250e+00) (35, 7.08461880683898925781e-01) (36, 1.85336098074913024902e-01) (37, 6.98935925960540771484e-01) (38, 5.16139090061187744141e-01) (39, 2.27510213851928710938e-01) (40, -1.68023511767387390137e-01) (41, 4.49916601181030273438e-01) (42, -1.12662106752395629883e-01) (43, 1.09384417533874511719e+00) (44, 3.95293086767196655273e-01) (45, 5.17880737781524658203e-01) (46, -7.11661279201507568359e-02) (47, -1.13770075142383575439e-01) (48, -1.15930497646331787109e+00) (0, -2.89375603199005126953e-01) (1, -2.14158102869987487793e-01) (2, -4.72482591867446899414e-02) (3, -1.16279572248458862305e-01) (4, 3.25028508901596069336e-01) (5, 8.29099342226982116699e-02) (6, -3.78422588109970092773e-01) (7, -1.11540071666240692139e-01) (8, -5.23567557334899902344e-01) (9, 1.74106806516647338867e-01) (10, 3.29086959362030029297e-01) (11, 1.97890996932983398438e-01) (12, 1.62208542227745056152e-01) (13, -3.32011401653289794922e-01) (14, -3.80234479904174804688e-01) (15, -2.71857112646102905273e-01) (16, 1.17056462913751602173e-02) (17, 3.49885016679763793945e-01) (18, 2.42597237229347229004e-01) (19, 3.33562463521957397461e-01) (20, 2.66715258359909057617e-01) (21, 3.38677465915679931641e-01) (22, 6.49294376373291015625e-01) (23, 4.47107642889022827148e-01) (24, 1.57395124435424804688e-01) (25, 7.71656930446624755859e-02) (26, 3.50720643997192382812e-01) (27, 8.17243456840515136719e-02) (28, -1.33533909916877746582e-01) (29, 1.39313533902168273926e-01) (30, 3.59518080949783325195e-01) (31, 5.79764842987060546875e-01) (32, -3.14875063486397266388e-03) (33, 4.79985922574996948242e-01) (34, 2.65421569347381591797e-01) (35, 1.39372438192367553711e-01) (36, 1.42663374543190002441e-01) (37, 7.67764076590538024902e-02) (38, 4.01650816202163696289e-01) (39, -2.07565426826477050781e-01) (40, 1.33730530738830566406e-01) (41, 1.83149084448814392090e-01) (42, -6.86577335000038146973e-02) (43, 2.15498432517051696777e-01) (44, 7.00905919075012207031e-02) (45, -2.18386143445968627930e-01) (46, -3.91852200031280517578e-01) (47, -2.48597979545593261719e-01) (48, -1.77523910999298095703e+00) (0, -1.16134345531463623047e-01) (1, -9.12836641073226928711e-02) (2, -1.56286284327507019043e-01) (3, -1.97071850299835205078e-01) (4, -3.90935868024826049805e-01) (5, -2.17948272824287414551e-01) (6, -3.27514880336821079254e-03) (7, -9.92430523037910461426e-02) (8, 7.62200579047203063965e-02) (9, -2.13524743914604187012e-01) (10, -2.18920201063156127930e-01) (11, -2.53016412258148193359e-01) (12, -2.81864821910858154297e-01) (13, -4.64821532368659973145e-02) (14, -7.40114599466323852539e-02) (15, -1.78281292319297790527e-02) (16, -1.24132782220840454102e-01) (17, -1.42562553286552429199e-01) (18, -1.36635690927505493164e-01) (19, -3.79885464906692504883e-01) (20, -3.39688479900360107422e-01) (21, -2.85540878772735595703e-01) (22, -1.10691078007221221924e-01) (23, -3.84398519992828369141e-01) (24, -1.68180793523788452148e-01) (25, -1.97779566049575805664e-01) (26, -3.84633243083953857422e-01) (27, -2.49618232250213623047e-01) (28, -2.84291833639144897461e-01) (29, -3.07618588209152221680e-01) (30, -4.32372152805328369141e-01) (31, -4.38677608966827392578e-01) (32, -6.51663765311241149902e-02) (33, -2.85928905010223388672e-01) (34, -4.34995114803314208984e-01) (35, -5.37907898426055908203e-01) (36, -3.35961043834686279297e-01) (37, -3.82490456104278564453e-01) (38, -2.77193576097488403320e-01) (39, -1.71562731266021728516e-02) (40, 7.75192156434059143066e-02) (41, -1.41717210412025451660e-01) (42, -3.46147008240222930908e-02) (43, -6.65684580802917480469e-01) (44, -4.52319175004959106445e-01) (45, -3.07137906551361083984e-01) (46, -1.30176067352294921875e-01) (47, -4.65601459145545959473e-02) (48, -1.22860836982727050781e+00) (0, -6.90832957625389099121e-02) (1, 2.75865476578474044800e-02) (2, 3.80283474922180175781e-01) (3, 2.85783320665359497070e-01) (4, -7.73629784584045410156e-01) (5, -7.10776329040527343750e-01) (6, -5.39907455444335937500e-01) (7, 6.30572671070694923401e-03) (8, 6.58517658710479736328e-01) (9, -2.61654844507575035095e-03) (10, -1.73314005136489868164e-01) (11, -2.01316267251968383789e-01) (12, -8.82626473903656005859e-01) (13, -2.81337946653366088867e-01) (14, -1.04368247091770172119e-01) (15, 3.00510734319686889648e-01) (16, -4.15164887905120849609e-01) (17, -6.56245052814483642578e-02) (18, -3.43173623085021972656e-01) (19, -4.31223362684249877930e-01) (20, -9.18497323989868164062e-01) (21, -4.82456833124160766602e-01) (22, -3.27971875667572021484e-01) (23, -9.68405783176422119141e-01) (24, -1.95024337153881788254e-03) (25, -5.50617575645446777344e-01) (26, -8.10187280178070068359e-01) (27, -7.30010688304901123047e-01) (28, -4.38619732856750488281e-01) (29, -7.22701251506805419922e-01) (30, -1.16284155845642089844e+00) (31, -7.32554078102111816406e-01) (32, -3.43461066484451293945e-01) (33, -8.89949202537536621094e-01) (34, -1.10371387004852294922e+00) (35, -1.49951469898223876953e+00) (36, -7.73101568222045898438e-01) (37, -5.98721385002136230469e-01) (38, -9.93799567222595214844e-02) (39, 3.40875908732414245605e-02) (40, -1.60449415445327758789e-01) (41, -7.15077936649322509766e-01) (42, -2.02110126614570617676e-01) (43, -1.94036090373992919922e+00) (44, -6.51654124259948730469e-01) (45, -5.25070130825042724609e-01) (46, 3.38365703821182250977e-01) (47, 8.59222467988729476929e-03) (48, -4.86253574490547180176e-02) (0, -3.74624803662300109863e-02) (1, -1.97177439928054809570e-01) (2, -2.66532242298126220703e-01) (3, -1.04176267981529235840e-01) (4, -3.09617906808853149414e-01) (5, -3.30734044313430786133e-01) (6, -8.89323279261589050293e-02) (7, -1.62128061056137084961e-01) (8, 9.47087630629539489746e-03) (9, -4.64071691036224365234e-01) (10, -2.02762916684150695801e-01) (11, -1.97943896055221557617e-01) (12, -1.04384206235408782959e-01) (13, -2.07718595862388610840e-01) (14, 1.06347337365150451660e-01) (15, -1.91224366426467895508e-01) (16, -3.98224472999572753906e-01) (17, -5.35118162631988525391e-01) (18, -3.71716439723968505859e-01) (19, -3.73977065086364746094e-01) (20, -3.23493510484695434570e-01) (21, -2.28327333927154541016e-01) (22, -2.12856292724609375000e-01) (23, -2.14700400829315185547e-01) (24, -3.59059602022171020508e-01) (25, -5.77024221420288085938e-01) (26, -3.96805107593536376953e-01) (27, -5.26985049247741699219e-01) (28, -2.65634298324584960938e-01) (29, -4.08766776323318481445e-01) (30, -1.70313403010368347168e-01) (31, -1.22829899191856384277e-01) (32, -2.12148204445838928223e-01) (33, -7.15635895729064941406e-01) (34, -6.57641589641571044922e-01) (35, -6.65199995040893554688e-01) (36, -4.89634692668914794922e-01) (37, -2.67837673425674438477e-01) (38, -2.49830901622772216797e-01) (39, -6.52906969189643859863e-02) (40, 2.87009347230195999146e-02) (41, -3.43646973371505737305e-01) (42, -1.09944440424442291260e-01) (43, -6.92440509796142578125e-01) (44, -4.23566073179244995117e-01) (45, -2.45607748627662658691e-01) (46, -2.08837300539016723633e-01) (47, -1.17739148437976837158e-01) (48, -1.14913630485534667969e+00) (0, -1.25897079706192016602e-01) (1, -1.73644602298736572266e-01) (2, -3.57304573059082031250e-01) (3, -3.02860915660858154297e-01) (4, -3.84527444839477539062e-01) (5, -1.13936737179756164551e-01) (6, -3.69947887957096099854e-02) (7, -1.03884294629096984863e-01) (8, -3.73456627130508422852e-02) (9, -1.92285984754562377930e-01) (10, -2.95690506696701049805e-01) (11, -3.38129729032516479492e-01) (12, -2.15870931744575500488e-01) (13, -2.39065900444984436035e-01) (14, -1.01344354450702667236e-01) (15, -4.46324534714221954346e-02) (16, -1.44179180264472961426e-01) (17, -1.44702792167663574219e-01) (18, -2.71407872438430786133e-01) (19, -3.65816175937652587891e-01) (20, -4.10165876150131225586e-01) (21, -2.98447847366333007812e-01) (22, -3.33126068115234375000e-01) (23, -3.75251561403274536133e-01) (24, 2.05784700810909271240e-02) (25, -2.24674656987190246582e-01) (26, -7.59370401501655578613e-02) (27, -3.77489715814590454102e-01) (28, -4.68633592128753662109e-01) (29, -2.79772222042083740234e-01) (30, -3.45983892679214477539e-01) (31, -5.49097239971160888672e-01) (32, -1.67617499828338623047e-02) (33, -3.28369766473770141602e-01) (34, -2.75698035955429077148e-01) (35, -2.99637258052825927734e-01) (36, -5.09642481803894042969e-01) (37, -3.49525064229965209961e-01) (38, -4.19782310724258422852e-01) (39, -9.54384878277778625488e-02) (40, -1.46697208285331726074e-01) (41, -1.70084625482559204102e-01) (42, -7.95860663056373596191e-02) (43, -4.38089400529861450195e-01) (44, -4.74830865859985351562e-01) (45, -2.43037596344947814941e-01) (46, -1.87433496117591857910e-01) (47, -3.66548523306846618652e-02) (48, -1.25346541404724121094e+00) (0, -1.12382471561431884766e-01) (1, -7.61813148856163024902e-02) (2, -8.07642266154289245605e-02) (3, -1.66209220886230468750e-01) (4, -2.01487749814987182617e-01) (5, -1.07901349663734436035e-01) (6, -6.84923380613327026367e-02) (7, 9.67410206794738769531e-02) (8, -6.09364248812198638916e-02) (9, -2.79832512140274047852e-01) (10, -1.32829308509826660156e-01) (11, -1.08446858823299407959e-01) (12, -3.48887920379638671875e-01) (13, -1.21461182832717895508e-01) (14, -1.23108506202697753906e-01) (15, -1.47582180798053741455e-02) (16, -1.42270818352699279785e-01) (17, -3.12583833932876586914e-01) (18, -1.77375197410583496094e-01) (19, -2.77017503976821899414e-01) (20, -1.75287410616874694824e-01) (21, -1.37436628341674804688e-01) (22, -1.67224183678627014160e-01) (23, -2.31289505958557128906e-01) (24, -1.73795461654663085938e-01) (25, -1.69272854924201965332e-01) (26, -2.35622778534889221191e-01) (27, -1.67821511626243591309e-01) (28, -2.22775176167488098145e-01) (29, -1.69975921511650085449e-01) (30, -1.56938999891281127930e-01) (31, 1.53324296697974205017e-02) (32, -8.62273573875427246094e-02) (33, -2.34916970133781433105e-01) (34, -3.17285627126693725586e-01) (35, -2.13056266307830810547e-01) (36, -1.28235191106796264648e-01) (37, -1.18809692561626434326e-01) (38, 3.60283181071281433105e-02) (39, -8.90704467892646789551e-02) (40, 1.31792798638343811035e-01) (41, -7.45302438735961914062e-03) (42, -7.65139684081077575684e-02) (43, -4.85519379377365112305e-01) (44, -3.30221056938171386719e-01) (45, -2.42672964930534362793e-01) (46, -7.49261975288391113281e-02) (47, -1.70564204454421997070e-01) (48, -1.48749303817749023438e+00) (0, -8.08838941156864166260e-03) (1, -2.35935136675834655762e-01) (2, -2.25084900856018066406e-01) (3, -6.91650956869125366211e-02) (4, -5.12188911437988281250e-01) (5, -3.31409603357315063477e-01) (6, -1.91617738455533981323e-02) (7, -5.51174283027648925781e-02) (8, 1.16101261228322982788e-02) (9, -6.41752064228057861328e-01) (10, -4.16006177663803100586e-01) (11, -3.13265711069107055664e-01) (12, -2.32667341828346252441e-01) (13, -1.84664204716682434082e-01) (14, 2.19282642006874084473e-01) (15, 7.24774599075317382812e-02) (16, -5.87829113006591796875e-01) (17, -7.78062760829925537109e-01) (18, -5.14856278896331787109e-01) (19, -4.27946656942367553711e-01) (20, -4.25210803747177124023e-01) (21, -4.72804576158523559570e-01) (22, -2.77905672788619995117e-01) (23, -4.48774546384811401367e-01) (24, -6.58067107200622558594e-01) (25, -6.55228555202484130859e-01) (26, -7.69195318222045898438e-01) (27, -7.39180624485015869141e-01) (28, -4.13401812314987182617e-01) (29, -6.32100105285644531250e-01) (30, -5.35194039344787597656e-01) (31, -4.63308244943618774414e-01) (32, -1.92075759172439575195e-01) (33, -9.60715472698211669922e-01) (34, -9.55619990825653076172e-01) (35, -1.23256933689117431641e+00) (36, -6.04325532913208007812e-01) (37, -3.72743904590606689453e-01) (38, -3.97000044584274291992e-01) (39, -2.14743554592132568359e-01) (40, 1.44945219159126281738e-01) (41, -4.81263041496276855469e-01) (42, -1.10513590276241302490e-01) (43, -1.33171153068542480469e+00) (44, -7.27321743965148925781e-01) (45, -5.62735021114349365234e-01) (46, -1.03993065655231475830e-01) (47, -6.66895508766174316406e-02) (48, -4.30232018232345581055e-01) (0, -1.10574193298816680908e-01) (1, -2.39617228507995605469e-01) (2, -2.52766758203506469727e-01) (3, -1.93305492401123046875e-01) (4, -5.10136902332305908203e-01) (5, -1.51452898979187011719e-01) (6, -1.29777029156684875488e-01) (7, 4.41338866949081420898e-02) (8, -6.95050582289695739746e-02) (9, -2.92984515428543090820e-01) (10, -1.88357859849929809570e-01) (11, -3.43542963266372680664e-01) (12, -4.38080072402954101562e-01) (13, -3.74767243862152099609e-01) (14, -1.26789629459381103516e-01) (15, 5.15553802251815795898e-02) (16, -1.14799059927463531494e-01) (17, -7.79396146535873413086e-02) (18, -1.81016027927398681641e-01) (19, -5.70761024951934814453e-01) (20, -4.75006252527236938477e-01) (21, -4.16415601968765258789e-01) (22, -2.83860534429550170898e-01) (23, -3.41643959283828735352e-01) (24, 2.39873975515365600586e-01) (25, 2.11675856262445449829e-02) (26, 2.14024763554334640503e-02) (27, -3.16311001777648925781e-01) (28, -5.81478714942932128906e-01) (29, -4.46033805608749389648e-01) (30, -4.22259598970413208008e-01) (31, -6.81479275226593017578e-01) (32, 1.24876514077186584473e-01) (33, -1.18274852633476257324e-01) (34, 3.48580972058698534966e-04) (35, -1.48245871067047119141e-01) (36, -5.32602131366729736328e-01) (37, -5.02641081809997558594e-01) (38, -4.57757979631423950195e-01) (39, -2.39876851439476013184e-01) (40, -4.83472645282745361328e-02) (41, -2.42884457111358642578e-01) (42, -7.40445256233215332031e-02) (43, -2.16390907764434814453e-01) (44, -6.51671469211578369141e-01) (45, -3.00581037998199462891e-01) (46, -1.17358453571796417236e-01) (47, -2.54713624715805053711e-01) (48, -1.32433664798736572266e+00) (0, -1.12501092255115509033e-01) (1, -9.94455143809318542480e-02) (2, -7.38107487559318542480e-02) (3, -5.59869185090065002441e-02) (4, -2.55648851394653320312e-01) (5, -1.27274543046951293945e-01) (6, -1.20388239622116088867e-01) (7, -1.29184536635875701904e-02) (8, -1.33872404694557189941e-01) (9, -1.44206896424293518066e-01) (10, 7.86852836608886718750e-03) (11, -1.55978262424468994141e-01) (12, -2.76547223329544067383e-01) (13, -1.13254841417074203491e-02) (14, -1.12432390451431274414e-01) (15, -9.47891697287559509277e-02) (16, -1.83890759944915771484e-02) (17, -2.56172209978103637695e-01) (18, -1.16298802196979522705e-01) (19, -6.75373598933219909668e-02) (20, -1.38539314270019531250e-01) (21, -1.68214172124862670898e-01) (22, -1.45087584853172302246e-01) (23, 1.55309187248349189758e-02) (24, -2.15640321373939514160e-01) (25, -5.90979531407356262207e-02) (26, -7.07673206925392150879e-02) (27, -2.59334385395050048828e-01) (28, -1.85773268342018127441e-01) (29, -1.92122176289558410645e-01) (30, -1.19385965168476104736e-01) (31, 3.18412818014621734619e-02) (32, -3.55968140065670013428e-02) (33, -1.50411337614059448242e-01) (34, -1.26297861337661743164e-01) (35, -1.47825047373771667480e-01) (36, -1.63411423563957214355e-01) (37, -1.45904406905174255371e-01) (38, -7.39457842428237199783e-04) (39, 4.51444983482360839844e-02) (40, -5.02088712528347969055e-03) (41, -6.05269894003868103027e-02) (42, -1.00730128586292266846e-01) (43, -1.88036814332008361816e-01) (44, -2.09007024765014648438e-01) (45, -8.69453623890876770020e-02) (46, -1.01812876760959625244e-01) (47, -9.38251521438360214233e-03) (48, -1.56552040576934814453e+00) (0, 1.04334674775600433350e-01) (1, 3.46803739666938781738e-02) (2, 3.84326688945293426514e-02) (3, -1.84829413890838623047e-01) (4, 7.05997645854949951172e-02) (5, -1.06573700904846191406e-01) (6, -1.98530048131942749023e-01) (7, -7.95006006956100463867e-02) (8, 5.85771948099136352539e-02) (9, 1.97411492466926574707e-01) (10, 1.40511944890022277832e-01) (11, -1.77292022854089736938e-02) (12, -1.66060999035835266113e-01) (13, -3.31194847822189331055e-01) (14, -9.34700295329093933105e-02) (15, -3.72587352991104125977e-01) (16, 3.39597076177597045898e-01) (17, 1.01272776722908020020e-01) (18, -5.93231730163097381592e-02) (19, 7.55895525217056274414e-02) (20, -5.23242987692356109619e-02) (21, 6.96002393960952758789e-02) (22, -1.68836917728185653687e-02) (23, 3.11625361442565917969e-01) (24, 2.01823204755783081055e-01) (25, 1.55636385083198547363e-01) (26, 1.58275187015533447266e-01) (27, 1.84878960251808166504e-01) (28, 4.56059165298938751221e-02) (29, 4.15747649967670440674e-02) (30, 2.75219082832336425781e-01) (31, 3.16649585962295532227e-01) (32, -3.57583701610565185547e-01) (33, 1.26384422183036804199e-01) (34, 3.14617097377777099609e-01) (35, -1.97894833981990814209e-02) (36, -1.35556757450103759766e-01) (37, 1.49070650339126586914e-01) (38, 2.23057642579078674316e-01) (39, -7.63635486364364624023e-02) (40, -2.61091142892837524414e-01) (41, -2.53750737756490707397e-02) (42, -1.26880779862403869629e-01) (43, 2.30980575084686279297e-01) (44, 2.02084332704544067383e-01) (45, 1.82904116809368133545e-02) (46, 1.36707410216331481934e-01) (47, 3.02159879356622695923e-02) (48, -1.68576550483703613281e+00) (0, -1.79789233952760696411e-02) (1, -8.31914395093917846680e-02) (2, -1.54864758253097534180e-01) (3, -1.35430365800857543945e-01) (4, -2.10012510418891906738e-01) (5, -4.73409369587898254395e-02) (6, -1.62737548351287841797e-01) (7, -1.24577075242996215820e-01) (8, -7.26936478167772293091e-03) (9, -1.34088397026062011719e-01) (10, 5.82088753581047058105e-02) (11, -1.34845733642578125000e-01) (12, -1.52259618043899536133e-01) (13, -1.79989442229270935059e-01) (14, -1.30355179309844970703e-01) (15, 2.83013302832841873169e-02) (16, -4.53709531575441360474e-03) (17, -7.80379166826605796814e-03) (18, -8.74574631452560424805e-02) (19, -8.92749279737472534180e-02) (20, -1.40153124928474426270e-01) (21, -1.31718322634696960449e-01) (22, -3.23657877743244171143e-02) (23, -1.62895023822784423828e-01) (24, -2.38225813955068588257e-02) (25, -1.06121979653835296631e-01) (26, 4.11958284676074981689e-02) (27, -1.79774701595306396484e-01) (28, -1.11091971397399902344e-01) (29, -1.20971143245697021484e-01) (30, -1.12148739397525787354e-01) (31, -3.52558158338069915771e-02) (32, -1.38651445508003234863e-01) (33, -3.81152867339551448822e-03) (34, -3.94855998456478118896e-02) (35, -2.21037611365318298340e-01) (36, -2.95946240425109863281e-01) (37, -8.63038077950477600098e-02) (38, -1.19850024580955505371e-01) (39, -1.03848159313201904297e-01) (40, -4.18660864233970642090e-02) (41, -6.22407719492912292480e-02) (42, -2.87201274186372756958e-02) (43, -1.29968672990798950195e-01) (44, -8.85937139391899108887e-02) (45, -1.46533250808715820312e-01) (46, -1.41975983977317810059e-01) (47, -1.56483113765716552734e-01) (48, -1.55973863601684570312e+00) (0, -1.15524798631668090820e-01) (1, -2.12992653250694274902e-01) (2, 3.69512545876204967499e-03) (3, -2.44245675276033580303e-05) (4, -1.59799098968505859375e-01) (5, -2.47184187173843383789e-01) (6, -1.37886941432952880859e-01) (7, 1.76745623350143432617e-01) (8, -2.63227283954620361328e-01) (9, -4.23889383673667907715e-02) (10, 1.66888818144798278809e-01) (11, 9.25836488604545593262e-02) (12, -4.24008011817932128906e-01) (13, -1.03401213884353637695e-01) (14, -1.50433152914047241211e-01) (15, 1.08525142073631286621e-01) (16, -2.91175067424774169922e-01) (17, 1.12894810736179351807e-01) (18, 4.42030243575572967529e-02) (19, -7.59290531277656555176e-02) (20, -1.90941721200942993164e-01) (21, -1.28202214837074279785e-02) (22, 5.16918301582336425781e-02) (23, -2.13983669877052307129e-01) (24, -1.29960641264915466309e-01) (25, -1.57690376043319702148e-01) (26, -2.05528542399406433105e-01) (27, -3.08690190315246582031e-01) (28, -2.69907087087631225586e-01) (29, 5.30696613714098930359e-03) (30, -2.01503574848175048828e-01) (31, -1.20064802467823028564e-01) (32, 1.89353466033935546875e-01) (33, -6.07468597590923309326e-02) (34, -1.06560036540031433105e-01) (35, -2.82081782817840576172e-01) (36, -1.98676347732543945312e-01) (37, -1.97454050183296203613e-01) (38, 3.07975988835096359253e-03) (39, -2.68292814493179321289e-01) (40, 2.14056611061096191406e-01) (41, -6.53205513954162597656e-02) (42, 3.47748734056949615479e-02) (43, -5.15577375888824462891e-01) (44, -3.07045370340347290039e-01) (45, -2.26906701922416687012e-01) (46, -1.56443089246749877930e-01) (47, -1.78734719753265380859e-01) (48, -1.58536767959594726562e+00) (0, -3.34609784185886383057e-02) (1, 2.56541911512613296509e-02) (2, 1.10357545316219329834e-01) (3, -1.55201032757759094238e-01) (4, -2.06518217921257019043e-01) (5, -5.78393526375293731689e-02) (6, -1.86218604445457458496e-01) (7, -2.80066251754760742188e-01) (8, 6.10318742692470550537e-02) (9, 2.88190264254808425903e-02) (10, 6.53470754623413085938e-02) (11, -1.48903071880340576172e-01) (12, -1.84791326522827148438e-01) (13, -1.74917012453079223633e-01) (14, -1.32251009345054626465e-01) (15, -4.02911335229873657227e-01) (16, 3.02754163742065429688e-01) (17, 1.52681589126586914062e-01) (18, -6.88679590821266174316e-02) (19, 1.21082626283168792725e-02) (20, -3.61173272132873535156e-01) (21, -1.74663484096527099609e-01) (22, 4.87764999270439147949e-02) (23, 1.38202443718910217285e-01) (24, 3.24740290641784667969e-01) (25, 1.94160893559455871582e-01) (26, 1.47658631205558776855e-01) (27, 9.28562283515930175781e-02) (28, 5.25206141173839569092e-03) (29, -6.39797896146774291992e-02) (30, 1.13521620631217956543e-01) (31, 1.39014452695846557617e-01) (32, -3.51967751979827880859e-01) (33, 1.92724745720624923706e-02) (34, 2.59784758090972900391e-01) (35, 8.45647603273391723633e-02) (36, -1.40993952751159667969e-01) (37, 9.96685549616813659668e-02) (38, 7.80868902802467346191e-03) (39, -1.27562552690505981445e-01) (40, -3.16920071840286254883e-01) (41, -5.04383966326713562012e-02) (42, -1.42711266875267028809e-01) (43, 1.51499733328819274902e-01) (44, 1.74610599875450134277e-01) (45, 6.43714144825935363770e-02) (46, 2.57739797234535217285e-02) (47, 1.05465250089764595032e-02) (48, -1.67107641696929931641e+00) (0, -5.86953163146972656250e-02) (1, -1.34593188762664794922e-01) (2, 1.32157474756240844727e-01) (3, -3.67821529507637023926e-02) (4, -8.04813727736473083496e-02) (5, -6.75133839249610900879e-02) (6, -1.58124938607215881348e-01) (7, 7.46830254793167114258e-02) (8, -2.06300824880599975586e-01) (9, -8.37228894233703613281e-02) (10, -1.87537092715501785278e-02) (11, -1.21780171990394592285e-01) (12, -2.65007197856903076172e-01) (13, -3.15305404365062713623e-02) (14, -1.53490990400314331055e-01) (15, -1.56142055988311767578e-01) (16, 3.06185916997492313385e-04) (17, -1.87535826116800308228e-02) (18, 6.42290189862251281738e-02) (19, -2.48832423239946365356e-02) (20, -1.33670151233673095703e-01) (21, 3.43924723565578460693e-02) (22, 2.56180763244628906250e-01) (23, 9.56837236881256103516e-02) (24, -4.67051528394222259521e-02) (25, -1.20423644781112670898e-01) (26, -8.10446292161941528320e-02) (27, 2.04309802502393722534e-02) (28, -7.49770849943161010742e-02) (29, 2.51595795154571533203e-01) (30, 3.47729921340942382812e-01) (31, 2.71477431058883666992e-01) (32, 8.08035284280776977539e-02) (33, 1.44033193588256835938e-01) (34, 3.15121233463287353516e-01) (35, 2.56466865539550781250e-01) (36, -2.10097189992666244507e-02) (37, 2.09269389510154724121e-01) (38, 3.51616978645324707031e-01) (39, -1.30559459328651428223e-01) (40, -2.29049678891897201538e-02) (41, 1.00496843457221984863e-01) (42, 1.65848042815923690796e-02) (43, 2.37942770123481750488e-01) (44, 1.44498534500598907471e-02) (45, 4.54369783401489257812e-02) (46, 4.83394274488091468811e-03) (47, -2.13871151208877563477e-02) (48, -1.68494582176208496094e+00) (0, 8.42758491635322570801e-02) (1, -2.03127503395080566406e-01) (2, -3.71764540672302246094e-01) (3, -2.46841982007026672363e-01) (4, -4.93570476770401000977e-01) (5, -1.28267660737037658691e-01) (6, -9.30123403668403625488e-02) (7, -1.79293975234031677246e-01) (8, 1.93393696099519729614e-02) (9, -3.93205136060714721680e-01) (10, -2.76039302349090576172e-01) (11, -4.67518121004104614258e-01) (12, -2.02223747968673706055e-01) (13, -9.92555841803550720215e-02) (14, 1.45342618227005004883e-01) (15, 1.62632629275321960449e-01) (16, -3.31440806388854980469e-01) (17, -5.40789186954498291016e-01) (18, -3.55114221572875976562e-01) (19, -5.63606858253479003906e-01) (20, -4.32115435600280761719e-01) (21, -4.45494055747985839844e-01) (22, -2.81170159578323364258e-01) (23, -4.84300285577774047852e-01) (24, -1.64344176650047302246e-01) (25, -3.04765552282333374023e-01) (26, -3.95711094141006469727e-01) (27, -6.58797979354858398438e-01) (28, -4.57167595624923706055e-01) (29, -5.89925885200500488281e-01) (30, -5.14431953430175781250e-01) (31, -6.31032586097717285156e-01) (32, 6.27259910106658935547e-02) (33, -5.13284742832183837891e-01) (34, -5.27248620986938476562e-01) (35, -7.18020677566528320312e-01) (36, -7.04398632049560546875e-01) (37, -3.89993935823440551758e-01) (38, -6.42391026020050048828e-01) (39, -3.98239344358444213867e-02) (40, 1.23256228864192962646e-01) (41, -2.69831389188766479492e-01) (42, -5.64446821808815002441e-02) (43, -8.79754245281219482422e-01) (44, -7.32669234275817871094e-01) (45, -4.21257108449935913086e-01) (46, -2.15250417590141296387e-01) (47, -5.84703944623470306396e-02) (48, -7.22949147224426269531e-01) (0, -1.72615386545658111572e-02) (1, -3.09410248883068561554e-03) (2, -1.05905108153820037842e-01) (3, -1.66383564472198486328e-01) (4, -1.06607124209403991699e-01) (5, -3.05433049798011779785e-02) (6, -7.14594824239611625671e-03) (7, 3.99038381874561309814e-02) (8, -1.38420835137367248535e-01) (9, -5.46244159340858459473e-02) (10, -1.08482085168361663818e-01) (11, -3.78284677863121032715e-02) (12, -3.35734605789184570312e-01) (13, -8.00451710820198059082e-02) (14, -2.63555068522691726685e-02) (15, 1.29926428198814392090e-02) (16, -1.55669808387756347656e-01) (17, -1.57338187098503112793e-01) (18, 4.56775575876235961914e-02) (19, -2.08660706877708435059e-01) (20, -1.36392503976821899414e-01) (21, -1.07542246580123901367e-01) (22, -1.77923306822776794434e-01) (23, 9.61818322539329528809e-02) (24, -1.21473304927349090576e-01) (25, -1.01499795913696289062e-01) (26, -1.58733814954757690430e-01) (27, -1.66994053870439529419e-02) (28, -2.86856651306152343750e-01) (29, 1.03336628526449203491e-02) (30, 1.36145308613777160645e-01) (31, 4.02042977511882781982e-02) (32, 3.75319644808769226074e-02) (33, -9.32660251855850219727e-02) (34, -3.47497090697288513184e-02) (35, -2.97663062810897827148e-02) (36, -8.39825347065925598145e-02) (37, -7.94411525130271911621e-02) (38, 1.33435558527708053589e-02) (39, -5.37412613630294799805e-02) (40, -6.14162422716617584229e-02) (41, -1.52783095836639404297e-02) (42, -2.11101379245519638062e-02) (43, -1.42708867788314819336e-01) (44, -7.50551819801330566406e-02) (45, 3.33462730050086975098e-02) (46, -1.36769056320190429688e-01) (47, -1.34797081351280212402e-01) (48, -1.63597428798675537109e+00) (0, -3.99040207266807556152e-02) (1, -4.27691126242280006409e-03) (2, 4.47896681725978851318e-02) (3, -7.28097409009933471680e-02) (4, -3.35596829652786254883e-01) (5, -1.17013089358806610107e-01) (6, -4.11288708448410034180e-01) (7, -2.82613426446914672852e-01) (8, 3.41010600328445434570e-01) (9, 5.92558234930038452148e-02) (10, 6.07277974486351013184e-02) (11, -9.30469557642936706543e-02) (12, -1.28563269972801208496e-01) (13, -1.54926553368568420410e-01) (14, -2.33501642942428588867e-01) (15, -5.36598861217498779297e-01) (16, 3.37623745203018188477e-01) (17, 2.29310482740402221680e-01) (18, 6.70990422368049621582e-02) (19, -4.77267242968082427979e-02) (20, -4.18401449918746948242e-01) (21, -1.13284341990947723389e-01) (22, 4.19969744980335235596e-02) (23, 5.02410531044006347656e-02) (24, 3.50816011428833007812e-01) (25, 1.21383748948574066162e-01) (26, 2.78284311294555664062e-01) (27, 5.70766068994998931885e-02) (28, 1.59523800015449523926e-01) (29, -2.03366667032241821289e-01) (30, 1.75285965204238891602e-01) (31, 4.59018424153327941895e-02) (32, -3.49581509828567504883e-01) (33, 5.11628463864326477051e-02) (34, 6.75469860434532165527e-02) (35, 1.63280665874481201172e-02) (36, -3.47822487354278564453e-01) (37, 8.77038314938545227051e-02) (38, 7.31013715267181396484e-02) (39, -1.20602130889892578125e-01) (40, -5.02126812934875488281e-01) (41, -2.00886189937591552734e-01) (42, -4.25001457333564758301e-02) (43, 1.13449215888977050781e-01) (44, 2.64407750219106674194e-02) (45, 2.51917783170938491821e-02) (46, 6.37967139482498168945e-02) (47, 2.49626804143190383911e-02) (48, -1.83196544647216796875e+00) (0, -3.93076278269290924072e-02) (1, -1.60504430532455444336e-01) (2, -2.81816333532333374023e-01) (3, -1.32916629314422607422e-01) (4, -1.61576047539710998535e-01) (5, -6.16072826087474822998e-02) (6, -7.85631537437438964844e-02) (7, -6.87136575579643249512e-02) (8, 1.21706183999776840210e-02) (9, -2.14741036295890808105e-01) (10, -2.26975306868553161621e-01) (11, -1.94116249680519104004e-01) (12, -2.66894608736038208008e-01) (13, -3.43417972326278686523e-02) (14, 6.84538297355175018311e-03) (15, 1.01474925875663757324e-01) (16, -1.50250524282455444336e-01) (17, -1.55970543622970581055e-01) (18, -2.93592363595962524414e-01) (19, -2.59324550628662109375e-01) (20, -2.25308671593666076660e-01) (21, -3.31271797418594360352e-01) (22, -2.10361391305923461914e-01) (23, -1.58741906285285949707e-01) (24, -1.64161384105682373047e-01) (25, -7.19277039170265197754e-02) (26, -2.18589872121810913086e-01) (27, -3.34507584571838378906e-01) (28, -3.11870843172073364258e-01) (29, -2.86422222852706909180e-01) (30, -2.69529521465301513672e-01) (31, -3.46802294254302978516e-01) (32, 6.44992738962173461914e-02) (33, -2.79881387948989868164e-01) (34, -3.13347756862640380859e-01) (35, -3.05462509393692016602e-01) (36, -2.63372063636779785156e-01) (37, -2.63341009616851806641e-01) (38, -3.44435244798660278320e-01) (39, -5.06882481276988983154e-02) (40, -7.87911489605903625488e-02) (41, -1.25455081462860107422e-01) (42, -1.25461027026176452637e-01) (43, -4.05543893575668334961e-01) (44, -3.66095155477523803711e-01) (45, -1.02132879197597503662e-01) (46, -1.95460051298141479492e-01) (47, -3.93769294023513793945e-02) (48, -1.37799704074859619141e+00) (0, -2.44963690638542175293e-01) (1, -3.99233102798461914062e-02) (2, 3.44899706542491912842e-02) (3, -1.12643122673034667969e-01) (4, 7.26994350552558898926e-02) (5, 2.19136796658858656883e-04) (6, -2.00407356023788452148e-01) (7, -7.44906812906265258789e-02) (8, -2.17758163809776306152e-01) (9, 1.46726280450820922852e-01) (10, 2.95713245868682861328e-01) (11, 1.69070824980735778809e-01) (12, -1.84247940778732299805e-01) (13, -3.43246132135391235352e-01) (14, -2.91431963443756103516e-01) (15, 2.13942234404385089874e-03) (16, -9.84607487916946411133e-02) (17, 2.02212721109390258789e-01) (18, 7.74161517620086669922e-02) (19, 7.90099427103996276855e-02) (20, 1.96980834007263183594e-01) (21, 1.48186489939689636230e-01) (22, 3.97611409425735473633e-01) (23, 1.79712530225515365601e-02) (24, 9.50270071625709533691e-02) (25, -1.02221712470054626465e-01) (26, 7.60165005922317504883e-02) (27, -1.31478473544120788574e-01) (28, -2.18727901577949523926e-01) (29, -7.39696472883224487305e-02) (30, -5.06781227886676788330e-02) (31, 2.29293808341026306152e-01) (32, -1.30791112314909696579e-03) (33, 1.68398454785346984863e-01) (34, 1.53385400772094726562e-01) (35, -6.77856355905532836914e-02) (36, -1.16659730672836303711e-01) (37, -1.44096434116363525391e-01) (38, 2.38588273525238037109e-01) (39, -1.91194459795951843262e-01) (40, -2.40670852363109588623e-02) (41, 2.20481619238853454590e-01) (42, -1.46296888589859008789e-01) (43, -1.15760408341884613037e-01) (44, -6.81300684809684753418e-02) (45, -3.29631209373474121094e-01) (46, -1.26633524894714355469e-01) (47, -3.82424265146255493164e-01) (48, -1.63891744613647460938e+00) (0, -5.93878887593746185303e-02) (1, -8.80148038268089294434e-02) (2, -2.82005399465560913086e-01) (3, -1.56135126948356628418e-01) (4, -2.76993811130523681641e-01) (5, -1.17530666291713714600e-01) (6, -1.29598438739776611328e-01) (7, -1.05137370526790618896e-01) (8, 3.38337831199169158936e-02) (9, -1.44360721111297607422e-01) (10, -1.20910629630088806152e-01) (11, -2.63531953096389770508e-01) (12, -1.50329202413558959961e-01) (13, -1.33172795176506042480e-01) (14, -2.03916430473327636719e-02) (15, -4.00262773036956787109e-02) (16, -1.22380554676055908203e-01) (17, -2.46811240911483764648e-01) (18, -1.68455839157104492188e-01) (19, -3.10969799757003784180e-01) (20, -3.87293994426727294922e-01) (21, -2.85652726888656616211e-01) (22, -9.92421582341194152832e-02) (23, -2.76356846094131469727e-01) (24, 2.51037422567605972290e-02) (25, -1.47210195660591125488e-01) (26, -9.86971557140350341797e-02) (27, -2.38431259989738464355e-01) (28, -2.86832779645919799805e-01) (29, -3.76345545053482055664e-01) (30, -2.32912093400955200195e-01) (31, -2.28958398103713989258e-01) (32, -1.37085700407624244690e-02) (33, -2.51607269048690795898e-01) (34, -1.93527579307556152344e-01) (35, -3.74139487743377685547e-01) (36, -3.37466865777969360352e-01) (37, -1.46195322275161743164e-01) (38, -3.90279293060302734375e-01) (39, -1.38874188065528869629e-01) (40, -4.16934043169021606445e-02) (41, -8.09942111372947692871e-02) (42, -6.06557428836822509766e-02) (43, -3.03917050361633300781e-01) (44, -3.75867694616317749023e-01) (45, -2.02478259801864624023e-01) (46, -2.15962335467338562012e-01) (47, -6.79565891623497009277e-02) (48, -1.41070520877838134766e+00) (0, -8.05202201008796691895e-02) (1, -9.84387248754501342773e-02) (2, 1.25508913770318031311e-02) (3, -2.51473575830459594727e-01) (4, 5.74100110679864883423e-03) (5, 1.54369547963142395020e-01) (6, 3.73037066310644149780e-03) (7, 6.19482286274433135986e-02) (8, -2.49318093061447143555e-01) (9, 1.64878994226455688477e-01) (10, 5.61625808477401733398e-02) (11, 4.92141693830490112305e-02) (12, -1.63114815950393676758e-01) (13, -2.83761829137802124023e-01) (14, -1.48922517895698547363e-01) (15, -1.83849424123764038086e-01) (16, 1.49660989642143249512e-01) (17, 1.04515805840492248535e-01) (18, 4.79772053658962249756e-02) (19, 3.49634997546672821045e-02) (20, -1.22749030590057373047e-01) (21, 5.47255249693989753723e-03) (22, 3.49949486553668975830e-02) (23, 2.48853296041488647461e-01) (24, 1.17628335952758789062e-01) (25, 3.01890283823013305664e-01) (26, 1.88647598028182983398e-01) (27, 8.80322381854057312012e-02) (28, -5.62767349183559417725e-02) (29, 3.90579432249069213867e-01) (30, 3.02124351263046264648e-01) (31, 4.84055757522583007812e-01) (32, -2.12640240788459777832e-02) (33, 4.80593264102935791016e-01) (34, 5.57195425033569335938e-01) (35, 3.07773798704147338867e-01) (36, 4.13117147982120513916e-02) (37, 3.01145792007446289062e-01) (38, 1.99218407273292541504e-01) (39, 8.77414364367723464966e-03) (40, -5.77633529901504516602e-02) (41, 1.96179360151290893555e-01) (42, 2.82349307090044021606e-02) (43, 3.81271779537200927734e-01) (44, 1.27461537718772888184e-01) (45, 2.39529520273208618164e-01) (46, -5.43876439332962036133e-02) (47, -4.46368530392646789551e-02) (48, -1.65423691272735595703e+00) (0, 3.49068529903888702393e-02) (1, -1.81766152381896972656e-01) (2, -2.19382047653198242188e-01) (3, 1.28312073647975921631e-02) (4, -8.46735119819641113281e-01) (5, -7.80105531215667724609e-01) (6, -4.30297046899795532227e-01) (7, -1.53797388076782226562e-01) (8, 3.27393025159835815430e-01) (9, -6.15307867527008056641e-01) (10, -3.69851380586624145508e-01) (11, -4.22716647386550903320e-01) (12, -6.63201212882995605469e-01) (13, -3.44376027584075927734e-01) (14, 4.75286915898323059082e-02) (15, 2.23174598067998886108e-02) (16, -5.30772686004638671875e-01) (17, -9.79985475540161132812e-01) (18, -6.13029837608337402344e-01) (19, -4.38624113798141479492e-01) (20, -7.25622236728668212891e-01) (21, -2.64061570167541503906e-01) (22, -1.70663803815841674805e-01) (23, -6.19281530380249023438e-01) (24, -6.59881711006164550781e-01) (25, -9.54089283943176269531e-01) (26, -9.54324483871459960938e-01) (27, -8.58322203159332275391e-01) (28, -2.15946227312088012695e-01) (29, -6.71395480632781982422e-01) (30, -8.13967704772949218750e-01) (31, -5.20575225353240966797e-01) (32, -4.31503117084503173828e-01) (33, -1.22000479698181152344e+00) (34, -1.16253077983856201172e+00) (35, -1.36544013023376464844e+00) (36, -4.37301188707351684570e-01) (37, -3.92053246498107910156e-01) (38, -4.66294996440410614014e-02) (39, -2.33028963208198547363e-01) (40, 1.84378921985626220703e-02) (41, -7.73401319980621337891e-01) (42, 5.21472282707691192627e-03) (43, -1.83639943599700927734e+00) (44, -5.21999537944793701172e-01) (45, -3.41222226619720458984e-01) (46, 1.85539573431015014648e-01) (47, 1.41548253595829010010e-02) (48, -1.41381606459617614746e-01) (0, -1.43094539642333984375e-01) (1, 5.83064444363117218018e-02) (2, 1.00929170846939086914e-01) (3, -1.25946193933486938477e-01) (4, 7.29861706495285034180e-02) (5, -7.50883370637893676758e-02) (6, -2.96361476182937622070e-01) (7, -7.07098096609115600586e-02) (8, -7.31874406337738037109e-02) (9, 9.23918094485998153687e-03) (10, 1.23594477772712707520e-01) (11, 5.91735821217298507690e-03) (12, -2.25033193826675415039e-01) (13, -3.67755621671676635742e-01) (14, -1.70931056141853332520e-01) (15, -2.07619518041610717773e-01) (16, 1.26163974404335021973e-01) (17, 2.39787504076957702637e-01) (18, -1.02465432137250900269e-02) (19, -7.89748653769493103027e-02) (20, 7.63035416603088378906e-02) (21, 1.43976816907525062561e-02) (22, 1.68454095721244812012e-01) (23, 8.74706283211708068848e-02) (24, 1.88861519098281860352e-01) (25, 1.19534516707062721252e-02) (26, 9.74677503108978271484e-02) (27, -6.54909759759902954102e-02) (28, -9.36754420399665832520e-03) (29, -2.25998964160680770874e-02) (30, 8.34518522024154663086e-02) (31, 3.04166287183761596680e-01) (32, -1.02673120796680450439e-01) (33, 1.40234485268592834473e-01) (34, 1.63667932152748107910e-01) (35, -9.77314710617065429688e-02) (36, -4.93569150567054748535e-02) (37, 5.35794422030448913574e-02) (38, 7.62876719236373901367e-02) (39, -2.53625214099884033203e-02) (40, -1.31905809044837951660e-01) (41, -4.11627106368541717529e-02) (42, -2.27693319320678710938e-01) (43, -4.45490963757038116455e-02) (44, -1.03177480399608612061e-01) (45, 2.61863134801387786865e-03) (46, -9.34661626815795898438e-02) (47, -9.36682596802711486816e-02) (48, -1.61152100563049316406e+00) (0, 1.00233554840087890625e-02) (1, 1.59128695726394653320e-01) (2, 5.36720529198646545410e-02) (3, -1.04072764515876770020e-02) (4, -1.14238284528255462646e-01) (5, 6.71969028189778327942e-03) (6, -2.83065915107727050781e-01) (7, -5.85334636270999908447e-02) (8, 4.86132204532623291016e-02) (9, 1.99933856725692749023e-01) (10, 1.22287049889564514160e-01) (11, -9.85779017210006713867e-02) (12, -2.07751810550689697266e-01) (13, -3.06920967996120452881e-02) (14, -5.33076561987400054932e-02) (15, -3.93008857965469360352e-01) (16, 3.22925269603729248047e-01) (17, 4.51618283987045288086e-02) (18, 5.93162700533866882324e-02) (19, -1.57992038875818252563e-02) (20, -3.62242996692657470703e-01) (21, -1.54356122016906738281e-01) (22, -1.25413432717323303223e-01) (23, 3.19340705871582031250e-01) (24, 2.49045670032501220703e-01) (25, 1.56807482242584228516e-01) (26, 2.83293992280960083008e-01) (27, 1.45284026861190795898e-01) (28, 1.35855916887521743774e-02) (29, 3.60992997884750366211e-02) (30, 2.93145835399627685547e-01) (31, 2.55919665098190307617e-01) (32, -2.34981000423431396484e-01) (33, 3.49754914641380310059e-02) (34, 2.19720587134361267090e-01) (35, 1.26492530107498168945e-01) (36, -1.44214808940887451172e-01) (37, 2.31148779392242431641e-01) (38, 1.26745253801345825195e-01) (39, 1.01705476641654968262e-01) (40, -2.43248224258422851562e-01) (41, -1.04382291436195373535e-01) (42, -1.12159542739391326904e-01) (43, 2.41294384002685546875e-01) (44, 7.49206170439720153809e-02) (45, 3.31254564225673675537e-02) (46, 4.03589121997356414795e-02) (47, 1.84005901217460632324e-01) (48, -1.73286175727844238281e+00) (0, 7.43364021182060241699e-02) (1, -1.54787942767143249512e-01) (2, -1.16475149989128112793e-01) (3, -2.07751244306564331055e-01) (4, -1.41245454549789428711e-01) (5, -7.25826546549797058105e-02) (6, -2.06668764352798461914e-01) (7, -1.00184172391891479492e-01) (8, -1.00884668529033660889e-01) (9, -3.25956940650939941406e-02) (10, -6.91152289509773254395e-02) (11, -1.22177153825759887695e-01) (12, -1.98052644729614257812e-01) (13, -1.76336914300918579102e-01) (14, -2.19181627035140991211e-02) (15, -1.58545717597007751465e-01) (16, 1.26864582300186157227e-01) (17, -8.83734524250030517578e-02) (18, -1.75349578261375427246e-01) (19, -1.73585355281829833984e-01) (20, -2.60707259178161621094e-01) (21, -1.33676260709762573242e-01) (22, -2.27035582065582275391e-01) (23, -5.08558843284845352173e-03) (24, 4.98932935297489166260e-02) (25, 7.65312165021896362305e-02) (26, 6.92660920321941375732e-04) (27, -1.14950701594352722168e-01) (28, -1.78866386413574218750e-01) (29, -1.52846872806549072266e-01) (30, -5.28025440871715545654e-04) (31, -1.35128825902938842773e-01) (32, -1.02656647562980651855e-01) (33, -1.29642203450202941895e-01) (34, 1.81071591214276850224e-04) (35, -2.01379120349884033203e-01) (36, -2.48992800712585449219e-01) (37, -5.50737455487251281738e-02) (38, -5.85210733115673065186e-02) (39, -8.21186080574989318848e-02) (40, -1.74543693661689758301e-01) (41, -1.12242855131626129150e-01) (42, 6.82524638250470161438e-04) (43, -1.49190230295062065125e-02) (44, -6.47876486182212829590e-02) (45, 1.51380365714430809021e-02) (46, -1.86195537447929382324e-01) (47, -1.35193094611167907715e-02) (48, -1.59346365928649902344e+00) (0, -9.89264100790023803711e-02) (1, -1.85010731220245361328e-01) (2, -2.20906376838684082031e-01) (3, -2.03783363103866577148e-01) (4, -3.73475164175033569336e-01) (5, -5.13331405818462371826e-02) (6, -1.10113017261028289795e-01) (7, -1.21471241116523742676e-01) (8, 2.30175312608480453491e-02) (9, -1.97732672095298767090e-01) (10, -1.66719302535057067871e-01) (11, -2.91883766651153564453e-01) (12, -2.48854622244834899902e-01) (13, -1.02113615721464157104e-02) (14, 2.36184820532798767090e-02) (15, 5.53025454282760620117e-02) (16, -1.65810674428939819336e-01) (17, -1.87660470604896545410e-01) (18, -1.45470216870307922363e-01) (19, -4.13927555084228515625e-01) (20, -2.82570660114288330078e-01) (21, -3.57181489467620849609e-01) (22, -2.42945179343223571777e-01) (23, -4.14735525846481323242e-01) (24, -1.52941539883613586426e-01) (25, -2.79880315065383911133e-01) (26, -2.22764387726783752441e-01) (27, -4.41255152225494384766e-01) (28, -3.80497246980667114258e-01) (29, -3.24184834957122802734e-01) (30, -3.92668366432189941406e-01) (31, -4.08258229494094848633e-01) (32, 5.29817044734954833984e-02) (33, -3.51639598608016967773e-01) (34, -3.35693657398223876953e-01) (35, -5.81946432590484619141e-01) (36, -4.61872100830078125000e-01) (37, -3.73308241367340087891e-01) (38, -3.88342112302780151367e-01) (39, -3.10799777507781982422e-02) (40, 8.85711759328842163086e-02) (41, -1.01712800562381744385e-01) (42, -7.70486742258071899414e-02) (43, -5.67036032676696777344e-01) (44, -4.16434884071350097656e-01) (45, -2.23206698894500732422e-01) (46, -5.07295168936252593994e-02) (47, -1.09076268970966339111e-01) (48, -1.21912217140197753906e+00) (0, -9.44536104798316955566e-02) (1, -8.71317535638809204102e-02) (2, 3.29985134303569793701e-02) (3, -1.25923501327633857727e-02) (4, -4.94926244020462036133e-01) (5, -3.97969633340835571289e-01) (6, -1.76555827260017395020e-01) (7, 2.10712775588035583496e-01) (8, 1.59435197710990905762e-01) (9, -2.33940526843070983887e-01) (10, -3.02411913871765136719e-02) (11, -8.88920798897743225098e-02) (12, -5.84293663501739501953e-01) (13, -2.31727547943592071533e-02) (14, -1.59928798675537109375e-01) (15, 3.11149269342422485352e-01) (16, -2.78275281190872192383e-01) (17, -7.63312727212905883789e-02) (18, -1.34309887886047363281e-01) (19, -3.97333115339279174805e-01) (20, -5.91729760169982910156e-01) (21, -3.96093755960464477539e-01) (22, -4.10939365625381469727e-01) (23, -7.55861103534698486328e-01) (24, 3.42446602880954742432e-02) (25, -1.41436159610748291016e-01) (26, -5.04701197147369384766e-01) (27, -5.51030576229095458984e-01) (28, -5.30210435390472412109e-01) (29, -5.14311432838439941406e-01) (30, -8.18661808967590332031e-01) (31, -7.00459539890289306641e-01) (32, 2.20722988247871398926e-01) (33, -4.49441224336624145508e-01) (34, -6.65461122989654541016e-01) (35, -8.80994141101837158203e-01) (36, -6.37557923793792724609e-01) (37, -5.41210472583770751953e-01) (38, -3.96882653236389160156e-01) (39, 8.49251896142959594727e-02) (40, 2.09573462605476379395e-01) (41, -2.85988986492156982422e-01) (42, -2.92734265327453613281e-01) (43, -1.14797019958496093750e+00) (44, -8.19818675518035888672e-01) (45, -4.48046982288360595703e-01) (46, 2.96169123612344264984e-03) (47, 2.87849735468626022339e-03) (48, -6.94001138210296630859e-01) (0, 3.77233661711215972900e-02) (1, -1.87402020674198865891e-03) (2, 1.21001787483692169189e-02) (3, 1.21714174747467041016e-02) (4, -6.55855953693389892578e-01) (5, -3.63586306571960449219e-01) (6, -3.22158038616180419922e-01) (7, -1.01728968322277069092e-01) (8, 2.77313143014907836914e-01) (9, -2.50439345836639404297e-01) (10, -3.04420113563537597656e-01) (11, -2.92572379112243652344e-01) (12, -3.85788410902023315430e-01) (13, -1.03704504668712615967e-01) (14, -1.21918663382530212402e-01) (15, 7.28543251752853393555e-02) (16, -2.63423323631286621094e-01) (17, -2.41784736514091491699e-01) (18, -2.53834724426269531250e-01) (19, -2.76307642459869384766e-01) (20, -5.03014981746673583984e-01) (21, -5.27273654937744140625e-01) (22, -3.65850538015365600586e-01) (23, -7.50353157520294189453e-01) (24, -6.77260532975196838379e-02) (25, -4.29799169301986694336e-01) (26, -4.28472131490707397461e-01) (27, -5.37160336971282958984e-01) (28, -4.55002576112747192383e-01) (29, -6.09875380992889404297e-01) (30, -7.19771981239318847656e-01) (31, -6.99676930904388427734e-01) (32, -9.49757471680641174316e-02) (33, -6.08968913555145263672e-01) (34, -7.13250339031219482422e-01) (35, -1.06242847442626953125e+00) (36, -6.93436980247497558594e-01) (37, -5.04030287265777587891e-01) (38, -4.63007420301437377930e-01) (39, -2.56044678390026092529e-02) (40, -3.31678278744220733643e-02) (41, -3.15877795219421386719e-01) (42, -1.86630636453628540039e-01) (43, -1.04308462142944335938e+00) (44, -7.59967446327209472656e-01) (45, -3.73636156320571899414e-01) (46, 6.15800842642784118652e-02) (47, 1.56700104475021362305e-01) (48, -4.68034952878952026367e-01) (0, -9.07631963491439819336e-02) (1, -1.06822855770587921143e-01) (2, -1.44959434866905212402e-01) (3, -7.94622674584388732910e-02) (4, -2.33963266015052795410e-01) (5, -4.69168946146965026855e-02) (6, -5.50458095967769622803e-02) (7, -1.21555589139461517334e-01) (8, -9.66111049056053161621e-02) (9, -1.31150349974632263184e-01) (10, -2.51180250197649002075e-02) (11, -1.14246040582656860352e-01) (12, -1.84027239680290222168e-01) (13, -2.34414115548133850098e-01) (14, -2.05015048384666442871e-01) (15, -1.04505300521850585938e-01) (16, -7.53630325198173522949e-02) (17, -5.78300878405570983887e-02) (18, -1.38937830924987792969e-01) (19, -1.13413199782371520996e-01) (20, -6.17821551859378814697e-02) (21, -1.42798021435737609863e-01) (22, -8.06817710399627685547e-02) (23, -1.19502373039722442627e-01) (24, -3.34072299301624298096e-02) (25, -8.22933986783027648926e-02) (26, -7.04039772972464561462e-03) (27, -2.47284278273582458496e-01) (28, -2.62862116098403930664e-01) (29, -1.57553866505622863770e-01) (30, -1.69701635837554931641e-01) (31, -1.11555427312850952148e-01) (32, -9.94062200188636779785e-02) (33, -1.73645336180925369263e-02) (34, -5.63794709742069244385e-02) (35, -2.96184420585632324219e-01) (36, -2.64616370201110839844e-01) (37, -1.64505064487457275391e-01) (38, -1.87553182244300842285e-01) (39, -1.30091652274131774902e-01) (40, 2.69160307943820953369e-02) (41, 1.13294674083590507507e-02) (42, -5.81311583518981933594e-02) (43, -2.20436677336692810059e-01) (44, -3.39850276708602905273e-01) (45, -2.30500057339668273926e-01) (46, -1.08552254736423492432e-01) (47, -1.58455327153205871582e-01) (48, -1.52192652225494384766e+00) (0, -4.26619276404380798340e-02) (1, -2.11027354001998901367e-01) (2, -1.66324093937873840332e-01) (3, -1.26816362142562866211e-01) (4, -3.16456288099288940430e-01) (5, -2.17043668031692504883e-01) (6, 5.48518523573875427246e-02) (7, -2.49745193868875503540e-02) (8, -1.63296118378639221191e-01) (9, -3.51994305849075317383e-01) (10, -1.14222511649131774902e-01) (11, -8.47814828157424926758e-02) (12, -3.08993667364120483398e-01) (13, -1.65472194552421569824e-01) (14, 9.37391165643930435181e-03) (15, 1.09625294804573059082e-01) (16, -2.03500092029571533203e-01) (17, -2.99582928419113159180e-01) (18, -7.58545324206352233887e-02) (19, -2.87588119506835937500e-01) (20, -2.78760105371475219727e-01) (21, -2.83169537782669067383e-01) (22, -2.29063034057617187500e-01) (23, -3.77664357423782348633e-01) (24, -2.75338619947433471680e-01) (25, -8.76099765300750732422e-02) (26, -3.60599100589752197266e-01) (27, -3.20286780595779418945e-01) (28, -3.16734820604324340820e-01) (29, -2.37423866987228393555e-01) (30, -3.30667346715927124023e-01) (31, -2.57277190685272216797e-01) (32, 1.32033780217170715332e-01) (33, -3.02633702754974365234e-01) (34, -4.37970042228698730469e-01) (35, -5.29176771640777587891e-01) (36, -3.09316456317901611328e-01) (37, -3.98077785968780517578e-01) (38, -2.76466369628906250000e-01) (39, -7.49046728014945983887e-02) (40, 1.17515742778778076172e-01) (41, -8.03822502493858337402e-02) (42, 1.74790024757385253906e-02) (43, -5.82444906234741210938e-01) (44, -3.98827314376831054688e-01) (45, -2.82603591680526733398e-01) (46, -9.66069400310516357422e-02) (47, -9.36458930373191833496e-02) (48, -1.27195453643798828125e+00) (0, 4.17375825345516204834e-02) (1, -1.30004258826375007629e-02) (2, 1.07822485268115997314e-01) (3, 9.31154787540435791016e-02) (4, -1.80942922830581665039e-01) (5, 8.98855477571487426758e-02) (6, -2.55844652652740478516e-01) (7, -1.12271651625633239746e-01) (8, 9.33305360376834869385e-03) (9, 1.93888563662767410278e-02) (10, -9.38646420836448669434e-02) (11, -1.33642733097076416016e-01) (12, -1.51908397674560546875e-01) (13, 4.05633971095085144043e-02) (14, 2.64117345213890075684e-02) (15, -4.19806569814682006836e-01) (16, 1.99507966637611389160e-01) (17, 1.28389960154891014099e-02) (18, 7.74261429905891418457e-02) (19, -8.67135226726531982422e-02) (20, -3.79449188709259033203e-01) (21, -1.36804848909378051758e-01) (22, -2.05121502280235290527e-01) (23, 2.09904506802558898926e-01) (24, -5.82774914801120758057e-02) (25, -6.69747442007064819336e-02) (26, 3.05313849821686744690e-03) (27, -9.27074775099754333496e-02) (28, -2.39092603325843811035e-01) (29, 6.82006180286407470703e-02) (30, 3.09909462928771972656e-01) (31, 2.25510865449905395508e-01) (32, -1.63782522082328796387e-01) (33, -3.59909236431121826172e-03) (34, 1.74429535865783691406e-01) (35, 4.73566204309463500977e-02) (36, -2.22673371434211730957e-01) (37, 8.77674371004104614258e-02) (38, -2.94385831803083419800e-02) (39, 1.59137427806854248047e-01) (40, -8.26280266046524047852e-02) (41, -1.61128416657447814941e-01) (42, -1.43044702708721160889e-02) (43, -4.63192909955978393555e-02) (44, 3.63760367035865783691e-02) (45, -7.87355229258537292480e-02) (46, -8.16594809293746948242e-02) (47, 1.79115653038024902344e-01) (48, -1.64983367919921875000e+00) (0, 6.56126067042350769043e-04) (1, 4.45912070572376251221e-02) (2, 3.18652205169200897217e-02) (3, -1.93799048662185668945e-01) (4, 3.69922742247581481934e-02) (5, 6.01045824587345123291e-02) (6, -1.08853615820407867432e-01) (7, 6.04497641324996948242e-02) (8, -2.03686162829399108887e-01) (9, 2.90595084428787231445e-01) (10, 9.73432660102844238281e-02) (11, -4.24151234328746795654e-02) (12, -2.54431486129760742188e-01) (13, -2.29033619165420532227e-01) (14, -1.48638412356376647949e-01) (15, -1.99316963553428649902e-01) (16, 3.77715468406677246094e-01) (17, 2.58646816015243530273e-01) (18, 6.89520761370658874512e-02) (19, 9.09091606736183166504e-02) (20, -1.31144985556602478027e-01) (21, -1.07315875589847564697e-01) (22, -2.90322881191968917847e-02) (23, 4.03053969144821166992e-01) (24, 2.32007324695587158203e-01) (25, 3.24119687080383300781e-01) (26, 2.88919538259506225586e-01) (27, 6.00526034832000732422e-02) (28, -2.35091418027877807617e-01) (29, 2.89183586835861206055e-01) (30, 3.48162025213241577148e-01) (31, 4.73873317241668701172e-01) (32, 8.41355975717306137085e-03) (33, 3.51931750774383544922e-01) (34, 4.98005300760269165039e-01) (35, 2.21522510051727294922e-01) (36, -1.85829997062683105469e-02) (37, 3.32858115434646606445e-01) (38, 1.41902312636375427246e-01) (39, 6.56366422772407531738e-02) (40, 1.91799812018871307373e-02) (41, 1.68894112110137939453e-01) (42, 1.37375131249427795410e-01) (43, 4.48513716459274291992e-01) (44, 2.23032087087631225586e-01) (45, 2.27367222309112548828e-01) (46, -4.20599915087223052979e-02) (47, 5.94870410859584808350e-02) (48, -1.64461135864257812500e+00) (0, 5.33356629312038421631e-02) (1, -5.23219518363475799561e-02) (2, -7.57919102907180786133e-02) (3, -2.24266186356544494629e-01) (4, -2.58467376232147216797e-01) (5, -1.68290697038173675537e-02) (6, -2.15499594807624816895e-01) (7, -9.29988324642181396484e-02) (8, 2.32769995927810668945e-02) (9, -7.49001577496528625488e-02) (10, -2.06472724676132202148e-02) (11, -2.08929076790809631348e-01) (12, -2.36597076058387756348e-01) (13, -5.82502074539661407471e-02) (14, -6.26861080527305603027e-02) (15, -1.47354811429977416992e-01) (16, -2.09918767213821411133e-02) (17, -5.39337359368801116943e-02) (18, -2.21731126308441162109e-01) (19, -2.69760370254516601562e-01) (20, -1.82891324162483215332e-01) (21, -2.24255993962287902832e-01) (22, -6.77892714738845825195e-02) (23, -1.36750400066375732422e-01) (24, -3.70153076946735382080e-02) (25, -5.43721579015254974365e-02) (26, -1.36140659451484680176e-01) (27, -1.48573741316795349121e-01) (28, -2.79504984617233276367e-01) (29, -3.31622153520584106445e-01) (30, 6.49527786299586296082e-03) (31, -1.04047410190105438232e-01) (32, -9.06057730317115783691e-02) (33, -1.07662595808506011963e-01) (34, -1.30507303401827812195e-02) (35, -1.49737492203712463379e-01) (36, -2.66926616430282592773e-01) (37, -1.89005613327026367188e-01) (38, -1.60864919424057006836e-01) (39, -1.50975182652473449707e-01) (40, -5.14101125299930572510e-02) (41, -6.72628879547119140625e-02) (42, -1.80117666721343994141e-01) (43, -2.64391511678695678711e-01) (44, -1.83733537793159484863e-01) (45, -1.78017362486571073532e-03) (46, -1.14409811794757843018e-01) (47, -1.28558427095413208008e-01) (48, -1.50870895385742187500e+00) (0, -9.61626693606376647949e-02) (1, -1.46759897470474243164e-01) (2, 3.27156260609626770020e-02) (3, -1.09667152166366577148e-01) (4, -5.14269173145294189453e-01) (5, -2.35730037093162536621e-01) (6, -1.24302394688129425049e-01) (7, 2.02763140201568603516e-01) (8, -6.69910237193107604980e-02) (9, -2.52194941043853759766e-01) (10, -9.38896611332893371582e-02) (11, -1.50938361883163452148e-01) (12, -5.95852732658386230469e-01) (13, -3.08222435414791107178e-02) (14, -3.17239239811897277832e-02) (15, 2.53871381282806396484e-01) (16, -2.25354418158531188965e-01) (17, -1.32117539644241333008e-01) (18, -1.42702341079711914062e-01) (19, -3.54381501674652099609e-01) (20, -3.88663798570632934570e-01) (21, -2.54785239696502685547e-01) (22, -1.49555698037147521973e-01) (23, -6.02075755596160888672e-01) (24, -1.05085231363773345947e-01) (25, -2.79606699943542480469e-01) (26, -3.70547711849212646484e-01) (27, -3.78467649221420288086e-01) (28, -3.28824490308761596680e-01) (29, -3.93716961145401000977e-01) (30, -6.22083961963653564453e-01) (31, -4.36132550239562988281e-01) (32, 8.77108648419380187988e-02) (33, -3.05266469717025756836e-01) (34, -5.24800121784210205078e-01) (35, -6.32153511047363281250e-01) (36, -4.57131475210189819336e-01) (37, -3.69269549846649169922e-01) (38, -1.66897222399711608887e-01) (39, 1.33985029533505439758e-02) (40, 2.55198836326599121094e-01) (41, -1.69441878795623779297e-01) (42, -4.87740486860275268555e-02) (43, -9.88784909248352050781e-01) (44, -5.96058309078216552734e-01) (45, -3.90210062265396118164e-01) (46, 4.20429036021232604980e-02) (47, -1.35204434394836425781e-01) (48, -1.05845594406127929688e+00) (0, -1.41650572419166564941e-01) (1, 5.40501624345779418945e-02) (2, 2.29974731802940368652e-01) (3, -9.19666811823844909668e-02) (4, 9.93750393390655517578e-02) (5, 5.54659105837345123291e-02) (6, -2.53072440624237060547e-01) (7, -2.80630558729171752930e-01) (8, -5.47458045184612274170e-02) (9, 4.82126682996749877930e-01) (10, 2.92901426553726196289e-01) (11, 8.75637307763099670410e-02) (12, -8.89313444495201110840e-02) (13, -4.92054045200347900391e-01) (14, -4.02601093053817749023e-01) (15, -3.56189578771591186523e-01) (16, 5.74607908725738525391e-01) (17, 5.97352206707000732422e-01) (18, 9.29379612207412719727e-02) (19, 2.42470577359199523926e-01) (20, -1.09800472855567932129e-01) (21, 3.62369231879711151123e-02) (22, 3.61239761114120483398e-01) (23, 6.84398174285888671875e-01) (24, 5.08958816528320312500e-01) (25, 1.39645770192146301270e-01) (26, 4.27704811096191406250e-01) (27, 7.78546556830406188965e-02) (28, -1.50831909850239753723e-02) (29, 2.49751389026641845703e-01) (30, 6.56992435455322265625e-01) (31, 6.81920409202575683594e-01) (32, -1.04896374046802520752e-01) (33, 6.21868908405303955078e-01) (34, 6.66813373565673828125e-01) (35, -3.59769202768802642822e-02) (36, -1.59604266285896301270e-01) (37, 4.18942540884017944336e-01) (38, 3.77162873744964599609e-01) (39, 7.57112875580787658691e-02) (40, -3.59392195940017700195e-01) (41, 7.64895677566528320312e-02) (42, -3.14385801553726196289e-01) (43, 4.10737603902816772461e-01) (44, 1.97153866291046142578e-01) (45, 1.79268732666969299316e-01) (46, -6.27950206398963928223e-02) (47, 1.25786125659942626953e-01) (48, -1.51416897773742675781e+00) (0, -2.13808678090572357178e-02) (1, -2.53884077072143554688e-01) (2, -2.15498059988021850586e-01) (3, -7.44315981864929199219e-02) (4, -4.87146168947219848633e-01) (5, -4.82481047511100769043e-02) (6, -2.19791263341903686523e-01) (7, -2.07912903279066085815e-02) (8, 1.67129728943109512329e-02) (9, -2.56683707237243652344e-01) (10, -2.49444141983985900879e-01) (11, -2.85124182701110839844e-01) (12, -2.33406171202659606934e-01) (13, -1.32218480110168457031e-01) (14, -3.37536931037902832031e-02) (15, 4.75123301148414611816e-02) (16, -1.78616449236869812012e-01) (17, -2.30059832334518432617e-01) (18, -3.31377953290939331055e-01) (19, -4.63488727807998657227e-01) (20, -5.38746416568756103516e-01) (21, -4.29534554481506347656e-01) (22, -4.47172284126281738281e-01) (23, -4.90494906902313232422e-01) (24, 1.02643795311450958252e-01) (25, -2.65557736158370971680e-01) (26, -3.73145043849945068359e-01) (27, -5.23390352725982666016e-01) (28, -5.05193710327148437500e-01) (29, -4.12618815898895263672e-01) (30, -3.92219096422195434570e-01) (31, -5.96108376979827880859e-01) (32, 6.09794743359088897705e-02) (33, -3.05033534765243530273e-01) (34, -2.89122670888900756836e-01) (35, -6.84725880622863769531e-01) (36, -6.42538070678710937500e-01) (37, -4.92245942354202270508e-01) (38, -5.95714271068572998047e-01) (39, -1.11033851280808448792e-02) (40, 3.85195761919021606445e-02) (41, -1.62677004933357238770e-01) (42, -1.52025163173675537109e-01) (43, -5.22671699523925781250e-01) (44, -7.70105540752410888672e-01) (45, -3.62643122673034667969e-01) (46, -1.24636247754096984863e-01) (47, -7.75491371750831604004e-02) (48, -1.06858670711517333984e+00) (0, 1.11079528927803039551e-01) (1, -9.61598679423332214355e-02) (2, -1.03554390370845794678e-01) (3, -4.29652854800224304199e-02) (4, -1.71747863292694091797e-01) (5, 6.44986480474472045898e-02) (6, -2.27351784706115722656e-01) (7, -1.92629724740982055664e-01) (8, 3.94197031855583190918e-02) (9, -1.00690960884094238281e-01) (10, -1.60906478762626647949e-01) (11, -1.17289289832115173340e-01) (12, 1.05721019208431243896e-02) (13, -2.12243888527154922485e-02) (14, 9.61091667413711547852e-02) (15, -2.63423442840576171875e-01) (16, 3.62765975296497344971e-02) (17, 3.30127924680709838867e-02) (18, -1.64749130606651306152e-01) (19, -3.47847968339920043945e-01) (20, -4.64911937713623046875e-01) (21, -5.60833774507045745850e-02) (22, -2.12567940354347229004e-01) (23, 2.39128306508064270020e-01) (24, -4.16159592568874359131e-02) (25, -8.90756621956825256348e-02) (26, 1.95143446326255798340e-01) (27, -5.73512390255928039551e-02) (28, -1.76116660237312316895e-01) (29, -2.75687932968139648438e-01) (30, 2.34208628535270690918e-01) (31, -7.53519609570503234863e-02) (32, -2.18628838658332824707e-01) (33, -2.50228285789489746094e-01) (34, -3.83480601012706756592e-02) (35, -6.84541761875152587891e-02) (36, -3.05562436580657958984e-01) (37, -1.87425017356872558594e-02) (38, -1.85389488935470581055e-01) (39, -7.04645887017250061035e-02) (40, -1.83070018887519836426e-01) (41, -2.52401620149612426758e-01) (42, -2.07248911261558532715e-01) (43, -1.57540410757064819336e-01) (44, -8.19038078188896179199e-02) (45, 1.10000558197498321533e-01) (46, -2.28871274739503860474e-02) (47, 1.45556395873427391052e-02) (48, -1.61706137657165527344e+00) (0, 6.37075185775756835938e-01) (1, 8.74956846237182617188e-01) (2, 1.37549471855163574219e+00) (3, 1.29076242446899414062e+00) (4, -7.83406496047973632812e-01) (5, -2.20017358660697937012e-01) (6, -1.24763250350952148438e+00) (7, -2.97651886940002441406e-01) (8, 2.92771100997924804688e-01) (9, 9.89490807056427001953e-01) (10, 1.01732611656188964844e+00) (11, 5.52272856235504150391e-01) (12, 9.82781708240509033203e-01) (13, 5.58724284172058105469e-01) (14, -1.11938393115997314453e+00) (15, -1.30159723758697509766e+00) (16, 2.20541074872016906738e-01) (17, -8.58123600482940673828e-03) (18, 4.85766202211380004883e-01) (19, 1.28852534294128417969e+00) (20, 2.07265824079513549805e-01) (21, 1.34747850894927978516e+00) (22, 1.30555176734924316406e+00) (23, -2.49167099595069885254e-01) (24, -7.30563998222351074219e-01) (25, -1.60290166735649108887e-01) (26, -4.02331352233886718750e-01) (27, 4.96533095836639404297e-01) (28, 1.59438002109527587891e+00) (29, 3.26149076223373413086e-01) (30, 9.33905482292175292969e-01) (31, 3.31707358360290527344e-01) (32, -8.75590264797210693359e-01) (33, -6.43260300159454345703e-01) (34, -9.64058399200439453125e-01) (35, -9.59028303623199462891e-01) (36, -5.41075587272644042969e-01) (37, 3.54985415935516357422e-01) (38, 1.42134606838226318359e+00) (39, 3.77143770456314086914e-01) (40, -1.05928444862365722656e+00) (41, -3.10919106006622314453e-01) (42, -4.95678573846817016602e-01) (43, -8.45662534236907958984e-01) (44, -5.98664522171020507812e-01) (45, -5.36993682384490966797e-01) (46, 4.14368480443954467773e-01) (47, 3.92147123813629150391e-01) (48, -3.83861684799194335938e+00) (0, 9.42825153470039367676e-03) (1, -7.55006521940231323242e-02) (2, -1.16394616663455963135e-01) (3, -1.01107999682426452637e-01) (4, -4.87126201391220092773e-01) (5, -6.09333515167236328125e-01) (6, -3.35997164249420166016e-01) (7, -2.35344141721725463867e-01) (8, 1.88702270388603210449e-01) (9, -5.92732489109039306641e-01) (10, -2.05642938613891601562e-01) (11, -2.72329658269882202148e-01) (12, -5.96678614616394042969e-01) (13, -2.25118458271026611328e-01) (14, -1.11437074840068817139e-01) (15, -1.28859207034111022949e-01) (16, -4.97029632329940795898e-01) (17, -6.12156510353088378906e-01) (18, -2.73865580558776855469e-01) (19, -3.11117738485336303711e-01) (20, -4.86466228961944580078e-01) (21, -3.08954060077667236328e-01) (22, -8.32103490829467773438e-02) (23, -1.05803437530994415283e-01) (24, -5.43375968933105468750e-01) (25, -5.78617990016937255859e-01) (26, -7.04473614692687988281e-01) (27, -4.30716007947921752930e-01) (28, -3.45124185085296630859e-01) (29, -3.53134632110595703125e-01) (30, -2.44264185428619384766e-01) (31, 1.54953390359878540039e-01) (32, -3.23266178369522094727e-01) (33, -7.97169506549835205078e-01) (34, -5.52430152893066406250e-01) (35, -6.80034995079040527344e-01) (36, -2.50570565462112426758e-01) (37, -2.28917047381401062012e-01) (38, 2.55428731441497802734e-01) (39, -2.12578967213630676270e-01) (40, 2.11771111935377120972e-02) (41, -4.26649540662765502930e-01) (42, -2.44554895907640457153e-02) (43, -1.06276810169219970703e+00) (44, -2.52890825271606445312e-01) (45, -1.35172858834266662598e-01) (46, 2.66091078519821166992e-01) (47, 9.36262011528015136719e-02) (48, -1.18984234333038330078e+00) (0, -1.27850517630577087402e-01) (1, -1.26236021518707275391e-01) (2, -1.64180155843496322632e-02) (3, -2.44890805333852767944e-02) (4, 6.88602179288864135742e-02) (5, 2.39557158201932907104e-02) (6, -2.73431688547134399414e-01) (7, -1.10121443867683410645e-01) (8, -1.96835309267044067383e-01) (9, 9.31217670440673828125e-02) (10, 1.35541275143623352051e-01) (11, 4.34799268841743469238e-02) (12, -1.21124550700187683105e-01) (13, -2.18273699283599853516e-01) (14, -2.66038954257965087891e-01) (15, -4.68769036233425140381e-02) (16, -2.28830166161060333252e-02) (17, 1.75670772790908813477e-01) (18, -6.61632195115089416504e-02) (19, 8.32283124327659606934e-02) (20, 3.04283611476421356201e-02) (21, -3.10450997203588485718e-02) (22, 1.53647691011428833008e-01) (23, -1.03666568174958229065e-02) (24, 7.53186047077178955078e-02) (25, -2.50644795596599578857e-02) (26, 6.72260597348213195801e-02) (27, -1.99495509266853332520e-01) (28, -1.92434251308441162109e-01) (29, -6.40385318547487258911e-03) (30, -6.48287264630198478699e-03) (31, 1.93484485149383544922e-01) (32, 4.75320480763912200928e-02) (33, 1.34274780750274658203e-01) (34, 1.11641556024551391602e-01) (35, -9.18525755405426025391e-02) (36, -1.30864143371582031250e-01) (37, 4.96484525501728057861e-02) (38, 2.38733701407909393311e-02) (39, -1.11472591757774353027e-01) (40, -2.26395688951015472412e-02) (41, 1.14379450678825378418e-01) (42, -1.97476550936698913574e-01) (43, -1.21248155832290649414e-01) (44, -1.59106627106666564941e-01) (45, -1.31675913929939270020e-01) (46, -2.33219280838966369629e-01) (47, -1.12986400723457336426e-01) (48, -1.63991248607635498047e+00) (0, -1.60567238926887512207e-01) (1, -1.13873280584812164307e-01) (2, -2.17218086123466491699e-01) (3, -1.74710586667060852051e-01) (4, -2.84022361040115356445e-01) (5, -9.73512977361679077148e-02) (6, -1.30770087242126464844e-01) (7, 1.50933424010872840881e-02) (8, -1.45699247717857360840e-01) (9, -2.52940952777862548828e-01) (10, -1.79823368787765502930e-01) (11, -3.39666679501533508301e-02) (12, -2.39138230681419372559e-01) (13, -2.10346262902021408081e-02) (14, 6.88254507258534431458e-03) (15, -5.42615875601768493652e-02) (16, -7.56183937191963195801e-02) (17, -1.33042842149734497070e-01) (18, -1.18316061794757843018e-01) (19, -1.78461357951164245605e-01) (20, -1.03135079145431518555e-01) (21, -2.46309712529182434082e-01) (22, -1.37460678815841674805e-01) (23, -1.29739657044410705566e-01) (24, -9.24937427043914794922e-02) (25, -7.41024836897850036621e-02) (26, -1.17501288652420043945e-01) (27, -2.52460449934005737305e-01) (28, -1.78913533687591552734e-01) (29, -1.38700276613235473633e-01) (30, -1.35522291064262390137e-01) (31, -2.34384343028068542480e-01) (32, -4.14503850042819976807e-02) (33, -7.84785300493240356445e-02) (34, -1.75035446882247924805e-01) (35, -3.12597930431365966797e-01) (36, -2.69787669181823730469e-01) (37, -1.79430887103080749512e-01) (38, -2.54178047180175781250e-01) (39, -8.32632109522819519043e-02) (40, 7.95054212212562561035e-02) (41, -1.51626586914062500000e-01) (42, -3.21557410061359405518e-02) (43, -3.82814854383468627930e-01) (44, -3.41367810964584350586e-01) (45, -1.73964142799377441406e-01) (46, -1.53037339448928833008e-01) (47, -3.06752324104309082031e-02) (48, -1.49470198154449462891e+00) (0, 1.12892106175422668457e-01) (1, -8.05494710803031921387e-02) (2, -2.12469905614852905273e-01) (3, -9.92917194962501525879e-02) (4, -3.71776551008224487305e-01) (5, -1.67697012424468994141e-01) (6, -1.06526590883731842041e-01) (7, -6.85018002986907958984e-02) (8, 7.89165943861007690430e-02) (9, -4.53452736139297485352e-01) (10, -1.56739711761474609375e-01) (11, -2.65097975730895996094e-01) (12, -4.74035218358039855957e-02) (13, -1.45133472979068756104e-02) (14, 6.29463568329811096191e-02) (15, -4.24409471452236175537e-02) (16, -2.60774821043014526367e-01) (17, -3.64611178636550903320e-01) (18, -2.95107483863830566406e-01) (19, -3.94016802310943603516e-01) (20, -2.38985881209373474121e-01) (21, -2.45452165603637695312e-01) (22, -1.71573996543884277344e-01) (23, -2.97055751085281372070e-01) (24, -2.83077239990234375000e-01) (25, -4.42199826240539550781e-01) (26, -4.37275558710098266602e-01) (27, -4.22894984483718872070e-01) (28, -2.92624711990356445312e-01) (29, -4.89694148302078247070e-01) (30, -3.12771618366241455078e-01) (31, -2.50363349914550781250e-01) (32, -7.86767303943634033203e-02) (33, -5.34737825393676757812e-01) (34, -4.11163628101348876953e-01) (35, -4.65205818414688110352e-01) (36, -4.77326869964599609375e-01) (37, -3.01851004362106323242e-01) (38, -2.08331882953643798828e-01) (39, -1.63899678736925125122e-02) (40, -8.36183503270149230957e-03) (41, -2.37697422504425048828e-01) (42, -1.77879661321640014648e-01) (43, -6.84006929397583007812e-01) (44, -4.08381670713424682617e-01) (45, -2.38819539546966552734e-01) (46, -1.56948208808898925781e-01) (47, -2.23668459802865982056e-02) (48, -1.17227721214294433594e+00) (0, 1.59761786460876464844e-01) (1, -4.31487374007701873779e-02) (2, -2.40921527147293090820e-02) (3, -2.45505183935165405273e-01) (4, 3.53967040777206420898e-01) (5, 1.26703992486000061035e-01) (6, -1.93011566996574401855e-01) (7, 1.05733349919319152832e-01) (8, 1.30967333912849426270e-01) (9, 1.29951745271682739258e-01) (10, 3.13800454139709472656e-01) (11, -1.25729799270629882812e-01) (12, 4.54008691012859344482e-02) (13, -1.81958869099617004395e-01) (14, -3.15960973501205444336e-01) (15, -5.98206818103790283203e-01) (16, 5.45471847057342529297e-01) (17, 4.49300885200500488281e-01) (18, 4.95418757200241088867e-01) (19, 1.33339047431945800781e-01) (20, 5.80130219459533691406e-01) (21, 3.28200399875640869141e-01) (22, 4.85054135322570800781e-01) (23, 1.07875430583953857422e+00) (24, 1.29197657108306884766e-01) (25, 6.15702569484710693359e-01) (26, 5.95937132835388183594e-01) (27, 1.68196007609367370605e-01) (28, 3.20584028959274291992e-01) (29, 2.99021065235137939453e-01) (30, 1.15559935569763183594e+00) (31, 1.40319287776947021484e+00) (32, -2.08240700885653495789e-03) (33, 9.48822438716888427734e-01) (34, 8.34823071956634521484e-01) (35, 4.78898316621780395508e-01) (36, 4.28525596857070922852e-01) (37, 5.44932246208190917969e-01) (38, 8.26884150505065917969e-01) (39, 3.51662635803222656250e-01) (40, 1.36210516095161437988e-01) (41, 7.29945540428161621094e-01) (42, 2.73307897150516510010e-02) (43, 7.77367591857910156250e-01) (44, 2.17624768614768981934e-01) (45, 1.69496595859527587891e-01) (46, -1.01104155182838439941e-01) (47, 2.18549296259880065918e-01) (48, -1.32732367515563964844e+00) (0, -1.85006543993949890137e-01) (1, -1.12252302467823028564e-01) (2, -6.01588450372219085693e-02) (3, -6.74442350864410400391e-02) (4, -2.51563131809234619141e-01) (5, -1.59898936748504638672e-01) (6, -2.12892908602952957153e-02) (7, -2.39481385797262191772e-02) (8, 2.08639595657587051392e-02) (9, -1.34906634688377380371e-01) (10, -9.75862964987754821777e-02) (11, -1.59707620739936828613e-01) (12, -3.61214429140090942383e-01) (13, -1.09381847083568572998e-01) (14, -1.27585768699645996094e-01) (15, 7.94869586825370788574e-02) (16, -1.76358625292778015137e-01) (17, -5.77280409634113311768e-02) (18, -1.16467647254467010498e-01) (19, -3.14473032951354980469e-01) (20, -2.15777188539505004883e-01) (21, -2.86754041910171508789e-01) (22, -1.29974499344825744629e-01) (23, -3.07275205850601196289e-01) (24, -8.89074727892875671387e-02) (25, -1.93278491497039794922e-01) (26, -3.02491635084152221680e-01) (27, -3.00012975931167602539e-01) (28, -3.60083371400833129883e-01) (29, -3.54813814163208007812e-01) (30, -3.85047495365142822266e-01) (31, -3.55057567358016967773e-01) (32, 7.26471766829490661621e-02) (33, -2.78618514537811279297e-01) (34, -3.26056778430938720703e-01) (35, -4.91154760122299194336e-01) (36, -3.33662420511245727539e-01) (37, -3.60625982284545898438e-01) (38, -1.88022524118423461914e-01) (39, -1.19975998997688293457e-01) (40, 1.37473419308662414551e-01) (41, -2.01325505971908569336e-01) (42, -5.73709271848201751709e-02) (43, -5.91068625450134277344e-01) (44, -3.88205379247665405273e-01) (45, -3.17378461360931396484e-01) (46, -6.90833032131195068359e-02) (47, -1.47260606288909912109e-01) (48, -1.35438394546508789062e+00) (0, -1.43972977995872497559e-01) (1, -1.33101165294647216797e-01) (2, -7.41854235529899597168e-02) (3, -1.47282525897026062012e-01) (4, -1.90855950117111206055e-01) (5, -7.79415145516395568848e-02) (6, -1.27193376421928405762e-01) (7, -4.38539311289787292480e-02) (8, -5.87889701128005981445e-02) (9, -7.51881822943687438965e-02) (10, 2.40988587029278278351e-03) (11, -8.19153711199760437012e-02) (12, -2.86335170269012451172e-01) (13, -1.96668460965156555176e-01) (14, -1.35516449809074401855e-01) (15, -2.14667171239852905273e-02) (16, -5.52696436643600463867e-02) (17, -9.06861126422882080078e-02) (18, -1.89879819750785827637e-01) (19, -1.54330641031265258789e-01) (20, -2.19606623053550720215e-01) (21, -1.46957650780677795410e-01) (22, -7.37417563796043395996e-02) (23, -1.50804504752159118652e-01) (24, -5.34288994967937469482e-02) (25, -1.15190390497446060181e-02) (26, -3.22037525475025177002e-02) (27, -1.73148721456527709961e-01) (28, -2.39708498120307922363e-01) (29, -2.07303047180175781250e-01) (30, -1.08549289405345916748e-01) (31, -4.90956567227840423584e-02) (32, -1.55652593821287155151e-02) (33, -1.07885070145130157471e-01) (34, -1.03343330323696136475e-01) (35, -1.26154631376266479492e-01) (36, -1.97692438960075378418e-01) (37, -1.06304123997688293457e-01) (38, -1.14835590124130249023e-01) (39, -1.25719025731086730957e-01) (40, -4.73379567265510559082e-02) (41, -6.78924024105072021484e-02) (42, -1.53901740908622741699e-01) (43, -1.85198590159416198730e-01) (44, -1.83620750904083251953e-01) (45, -1.57223924994468688965e-01) (46, -1.76887243986129760742e-01) (47, -1.38768628239631652832e-01) (48, -1.52317488193511962891e+00) (0, -8.66671651601791381836e-02) (1, -1.64959818124771118164e-01) (2, -1.12369313836097717285e-01) (3, -1.51878416538238525391e-01) (4, -3.66667628288269042969e-01) (5, -4.36628818511962890625e-01) (6, -2.17686191201210021973e-01) (7, -3.31756621599197387695e-02) (8, -4.02054078876972198486e-02) (9, -3.81507486104965209961e-01) (10, -1.31926134228706359863e-01) (11, -1.25661760568618774414e-01) (12, -4.79248464107513427734e-01) (13, -7.07470849156379699707e-02) (14, -2.04317048192024230957e-01) (15, 3.29403243958950042725e-02) (16, -3.74473065137863159180e-01) (17, -2.40978255867958068848e-01) (18, -1.43310055136680603027e-01) (19, -2.95321434736251831055e-01) (20, -3.38412016630172729492e-01) (21, -3.80876749753952026367e-01) (22, -1.59679546952247619629e-01) (23, -4.09966468811035156250e-01) (24, -3.63534510135650634766e-01) (25, -3.08910369873046875000e-01) (26, -4.20942395925521850586e-01) (27, -3.67625623941421508789e-01) (28, -3.39325219392776489258e-01) (29, -3.84220719337463378906e-01) (30, -4.12558913230895996094e-01) (31, -6.22226968407630920410e-02) (32, -1.28087297081947326660e-01) (33, -3.75308752059936523438e-01) (34, -6.27342879772186279297e-01) (35, -7.38922655582427978516e-01) (36, -3.05229783058166503906e-01) (37, -3.27769547700881958008e-01) (38, 9.19744744896888732910e-02) (39, -1.67304873466491699219e-01) (40, 7.89938122034072875977e-02) (41, -1.75206571817398071289e-01) (42, -4.38351519405841827393e-02) (43, -9.73705708980560302734e-01) (44, -3.54054540395736694336e-01) (45, -2.83236265182495117188e-01) (46, 1.25804305076599121094e-01) (47, -6.46098703145980834961e-02) (48, -1.12646603584289550781e+00) (0, -3.30124869942665100098e-02) (1, -6.50976300239562988281e-02) (2, -1.44166186451911926270e-01) (3, -1.60973966121673583984e-01) (4, -3.05246505886316299438e-02) (5, -1.30149766802787780762e-01) (6, -1.70187741518020629883e-01) (7, -1.02101527154445648193e-01) (8, 3.01526840776205062866e-02) (9, 1.16142794489860534668e-01) (10, -4.47348952293395996094e-02) (11, -1.07251487672328948975e-01) (12, -1.95450305938720703125e-01) (13, -3.61675381660461425781e-01) (14, -7.89728686213493347168e-02) (15, -7.12683871388435363770e-02) (16, 2.99193579703569412231e-02) (17, 1.77316322922706604004e-01) (18, 4.58054244518280029297e-02) (19, -8.06087404489517211914e-02) (20, 7.30734737589955329895e-03) (21, 5.02603836357593536377e-02) (22, 1.03699609637260437012e-01) (23, 2.46626749634742736816e-01) (24, 1.20227120816707611084e-01) (25, 1.68467476963996887207e-01) (26, 1.59180819988250732422e-01) (27, -6.77074939012527465820e-02) (28, -5.88342435657978057861e-02) (29, 4.99600768089294433594e-02) (30, 1.83918923139572143555e-01) (31, 2.77444005012512207031e-01) (32, -1.37800872325897216797e-01) (33, 2.18343511223793029785e-01) (34, 1.53723061084747314453e-01) (35, 5.51941767334938049316e-02) (36, -7.54050724208354949951e-03) (37, 3.26707474887371063232e-02) (38, -1.29572749137878417969e-02) (39, 1.94183681160211563110e-02) (40, -2.14935705065727233887e-01) (41, -4.22997325658798217773e-02) (42, 